{"architecture": [784, 96, 48, 10], "layerNames": ["input", "hidden_1", "hidden_2", "output"], "device": "cpu", "weights": [{"name": "input_to_hidden_1", "shape": [96, 784], "matrix": [[0.0, 0.0, 0.0, 0.0, -0.000411, -0.003252, -0.008756, -0.012753, -0.028826, -0.06111, -0.068345, -0.070956, -0.020677, -0.017319, 0.004631, 0.003303, 0.033784, 0.005143, -0.004845, -0.018268, -0.010173, 0.039438, 0.048615, 0.031096, 0.016211, 0.002983, -0.024752, -0.005854, -0.0, -0.001201, -0.004054, -1e-06, -0.005833, -0.005014, -0.019054, -0.043304, -0.088918, -0.095269, -0.104917, -0.041724, -0.065292, -0.007022, 0.004868, -0.024002, 0.004592, 0.009632, -0.005038, 0.022391, 0.000402, 0.040528, 0.06398, 0.052139, 0.034735, 0.020704, -0.01436, -0.033537, -0.0, -0.0, 0.004309, -0.001141, -0.012792, -0.040409, -0.070198, -0.155393, -0.130532, -0.155308, -0.106005, -0.061875, 0.009157, 0.046925, 0.025017, 0.02559, 0.025895, 0.015295, -0.000216, 0.001566, 0.034069, 0.032761, 0.072522, 0.050479, 0.032522, 0.02812, -0.003163, -0.022108, 2e-06, 0.002466, -0.002312, -0.011612, -0.043595, -0.072341, -0.168465, -0.21339, -0.194745, -0.113533, -0.053007, -0.013182, 0.04515, 0.014898, 0.013007, 0.038599, 0.032978, 0.005355, 0.022402, 0.077914, 0.022494, 0.026575, 0.065986, 0.003513, 0.012182, 0.025468, 0.038903, 0.01295, 0.000509, 0.000598, -0.008344, -0.031294, -0.057412, -0.172588, -0.211549, -0.225548, -0.161711, -0.045976, -0.00759, 0.034235, 0.052329, 0.043181, 0.017519, 0.005943, 0.05741, 0.060724, 0.040628, 0.074962, 0.043173, 0.019141, 0.028948, 0.02105, 0.064132, 0.071776, 0.081451, 0.040917, -2.9e-05, -0.00432, -0.013618, -0.033019, -0.130667, -0.195251, -0.225603, -0.20387, -0.170959, -0.015959, 0.044954, 0.030934, 0.050064, 0.008871, 0.02179, 0.052023, 0.080352, 0.034888, 0.088374, 0.029374, 0.036481, 0.055979, 0.044956, 0.031374, 0.042339, 0.082871, 0.101483, 0.067445, -0.000242, -0.005601, -0.081504, -0.120837, -0.16012, -0.220022, -0.247407, -0.199238, -0.063535, 0.022865, 0.110095, 0.080995, 0.042545, -0.001353, 0.064752, 0.059778, 0.078176, 0.087717, 0.06898, 0.018859, 0.021516, 0.054497, 0.053012, 0.019609, 0.025121, 0.037004, 0.092323, 0.103367, -0.003901, -0.010406, -0.068682, -0.16694, -0.189908, -0.202644, -0.22157, -0.136292, 0.001638, 0.070225, 0.13194, 0.079305, 0.055063, 0.039676, 0.009249, 0.043131, 0.004375, 0.030958, 0.07502, 0.038842, 0.041565, 0.052916, 0.018177, 0.020592, -0.005739, -0.006822, 0.041791, 0.065171, -0.006899, -0.024537, -0.116686, -0.151501, -0.204812, -0.206623, -0.11465, -0.035937, 0.054938, 0.090424, 0.156012, 0.075697, 0.107888, 0.090564, -0.003226, 0.012922, -0.012706, -0.019871, 0.038621, 7.7e-05, -0.022094, 0.03845, -0.003964, -0.011668, -0.024857, 0.022689, 0.004294, 0.050295, -0.033904, -0.052104, -0.115304, -0.170537, -0.177303, -0.160937, -0.050956, 0.028928, 0.066979, 0.118019, 0.116287, 0.106396, 0.126979, 0.013343, -0.01992, -0.057053, -0.042132, 0.001043, -0.04523, -0.060591, -0.074005, -0.058371, -0.032294, -0.064781, -0.048794, -0.029877, 0.019124, 0.011353, -0.043195, -0.084075, -0.100997, -0.16176, -0.125937, -0.079897, 0.020506, 0.035985, 0.071256, 0.050698, 0.117827, 0.135906, 0.07945, -0.011931, -0.086391, -0.139558, -0.109024, -0.084569, -0.073117, -0.098891, -0.046611, -0.070512, -0.101469, -0.114648, -0.054732, -0.097397, -0.042313, 0.007069, -0.005625, -0.043592, -0.088663, -0.099289, -0.044279, -0.003478, 0.028046, 0.069162, 0.091893, 0.026959, 0.097906, 0.138017, 0.107767, -0.106951, -0.244693, -0.171369, -0.119994, -0.057393, -0.090045, -0.062844, -0.05463, -0.096891, -0.092976, -0.070854, -0.081168, -0.064215, -0.055502, 0.015347, -0.000217, -0.03011, -0.019091, 0.001295, -0.023306, 0.021313, 0.043685, 0.073923, 0.034365, 0.05059, 0.105419, 0.155791, 0.028243, -0.128258, -0.263005, -0.190157, -0.064098, -0.074105, -0.096148, -0.067002, -0.066578, -0.054407, -0.062453, -0.067876, -0.079359, -0.046222, -0.044897, -0.003523, 0.015995, -0.025782, -0.017695, 0.009465, 0.00861, 0.041624, 0.026549, 0.042035, 0.045322, 0.111079, 0.099792, 0.154893, 0.034367, -0.187025, -0.237567, -0.11612, -0.042531, -0.011425, -0.043371, -0.041041, -0.009925, -0.000178, -0.056519, -0.073111, -0.06007, -0.028989, 0.008319, 0.02423, -0.020497, -0.039727, -0.018629, 0.048978, 0.027153, -0.011715, 0.061262, 0.062922, 0.07151, 0.080099, 0.133324, 0.115059, 0.009718, -0.178619, -0.24527, -0.08407, -0.010535, -0.007783, -0.014547, 0.029744, 0.008627, -0.030912, -0.013558, -0.030981, -0.028906, 0.018164, 0.052135, 0.029464, -0.055328, -0.038173, -0.008585, 0.027205, 0.02882, -0.001348, 0.065168, 0.084749, 0.053957, 0.023858, 0.102448, 0.029369, -0.032265, -0.211807, -0.212123, -0.095164, -0.01468, 0.003473, 0.032111, 0.015381, 0.000391, 0.00566, -0.009125, -0.028154, -0.008656, 0.026422, 0.080757, 0.039517, -0.081602, -0.07465, -0.017, 0.010953, 0.02286, 0.035498, 0.064244, 0.070831, 0.069022, 0.028361, 0.042881, 0.059223, -0.069252, -0.194412, -0.158242, -0.094933, -0.059289, -0.073636, -0.035522, -0.004898, 0.013121, 0.022989, 0.026384, 0.014545, 0.072107, 0.02515, 0.041656, 0.022794, -0.069277, -0.08423, -0.032004, -0.02877, 0.060854, 0.03438, 0.069989, 0.039375, 0.081358, 0.010331, 0.005307, 0.037475, -0.028488, -0.178331, -0.204428, -0.146924, -0.090196, -0.083541, -0.020941, -0.04149, -0.037075, -0.003217, 0.004019, 0.025327, 0.019604, 0.012488, 0.026641, 0.029297, -0.035427, -0.059715, -0.062345, -0.021532, 0.019675, 0.045817, 0.026972, 0.030904, 0.055625, 0.051723, 0.057048, 0.016432, -0.072586, -0.10836, -0.150168, -0.166452, -0.117177, -0.080396, -0.033102, -0.030225, 0.027614, -0.037169, 0.033515, 0.016494, 0.035562, -0.010961, 0.010762, 0.03705, -0.014467, -0.00178, -0.023866, 0.019229, 0.022441, 0.017606, 0.01113, -0.001011, 0.034948, 0.048275, 0.060945, 0.034069, -0.042281, -0.048121, -0.067347, -0.084125, -0.097956, -0.047337, -0.018785, -0.084436, -0.042506, -0.018666, -0.007687, 0.012683, 0.03168, 0.016461, 0.007627, -0.004198, -0.010614, -0.003077, -0.017655, 0.077825, 0.036071, 0.023047, 0.029211, 0.007643, 0.045504, 0.070678, 0.000454, 0.076679, 0.028476, 0.002657, -0.060435, -0.066777, -0.044939, -0.040053, -0.028545, -0.021461, 0.010756, 0.000104, 0.00732, 0.034266, -0.015953, -0.00847, -0.021098, -0.034301, -0.019009, -0.020541, 0.002258, 0.03444, -0.00657, 0.023986, 0.015939, 0.030303, -0.007642, 0.092866, 0.024426, 0.051847, 0.047477, 0.054866, 0.023743, -0.015024, -0.003564, 0.002238, -0.046611, 0.00797, -0.000986, 0.035896, -0.017211, -0.01014, -0.017335, -0.021364, -0.073232, -0.027476, -0.021715, 0.001031, -0.041471, 0.031897, 0.027682, 0.027057, 0.008027, -0.008157, -0.032202, 0.03072, 0.064877, 0.080919, 0.040982, 0.058601, -0.004717, -0.005152, 0.013344, -0.004638, -0.025379, -0.006851, -0.019725, -0.002846, -0.053834, -0.07742, -0.046839, -0.060447, -0.064392, -0.032385, -0.031317, -0.01413, -0.011653, -0.007789, -0.005515, 0.032482, 0.015136, -0.000261, -0.038416, 0.008129, -0.001449, 0.009682, 0.068178, 0.013249, 0.067025, -0.002201, -0.008522, 0.025869, -0.001561, -0.020707, 0.005532, -0.036644, -0.087225, -0.05803, -0.058374, -0.065159, -0.066224, -0.041297, -0.01115, 0.008345, -0.010521, -0.014076, -0.023022, 0.001941, 0.0112, 0.025386, 0.017457, -0.021078, 0.037498, 0.04845, -0.003794, 0.009379, 0.025141, 0.038737, 0.005813, 0.016723, -0.009551, -0.024443, -0.005575, -0.033889, -0.073358, -0.046106, -0.076347, -0.087322, -0.09586, -0.043577, 0.002842, 0.004115, -0.02762, -0.039499, -0.02566, 0.00467, 0.065482, -0.005839, 0.033066, 0.049583, -0.005155, 0.057178, 0.032672, 0.043292, 0.064446, 0.018008, 0.024945, 0.029878, -0.000869, -0.015105, -0.046244, -0.066806, -0.032014, -0.109901, -0.075935, -0.055987, -0.041813, -0.028058, -0.004233, -0.008907, -0.046784, -0.047442, -0.017884, -0.018766, 0.061206, 0.034381, 0.046942, 0.018897, 0.017953, 0.073543, 0.049091, 0.081335, 0.092058, 0.043176, 0.09065, 0.047824, 0.02932, -0.008067, -0.023173, -0.024166, -0.048799, -0.056893, -0.063501, -0.039431, -0.024624, -0.01794, -0.0, 0.000359, -0.029383, -0.074404, -0.021474, 0.010844, 0.00844, 0.041806, 0.056301, 0.016592, 0.025921, 0.010866, -0.017794, -0.00851, 0.023114, 0.000795, 0.000675, 0.012739, 0.020937, -0.029853, -0.040684, -0.055829, -0.030845, -0.027384, -0.029071, -0.019522, -0.004188, 0.0], [-0.0, -0.0, -0.002552, -0.002426, -0.0, -8e-05, -0.004721, -0.005309, -0.011558, -0.022439, -0.048195, -0.05578, -0.082605, -0.059722, -0.070064, -0.042277, -0.04744, -0.032245, -0.010881, -0.012184, -0.004198, -0.025387, -0.003281, 0.010335, 0.004488, 0.002094, 0.001471, 0.011798, 0.0, -0.0, -0.002625, -0.002929, -0.002353, -0.017518, -0.026091, -0.031229, -0.038896, -0.071964, -0.081268, -0.086232, -0.068821, -0.067773, -0.079802, -0.105257, -0.083395, -0.041732, -0.031403, -0.035749, -0.018321, -0.002853, -0.004591, 0.033906, 0.021145, 0.002408, 0.018991, 0.032322, 0.0, 0.0, -0.005354, -0.00617, 0.003357, -0.020819, -0.032472, -0.076365, -0.088183, -0.12696, -0.110288, -0.091585, -0.091625, -0.08186, -0.127036, -0.121801, -0.104987, -0.095451, -0.046497, -0.063386, -0.038988, 0.007167, 0.046594, 0.062834, 0.052835, 0.032065, 0.027361, 0.003927, 0.0, -0.0, -0.011939, -0.001845, 0.003997, -0.045003, -0.078171, -0.101653, -0.136111, -0.16556, -0.172212, -0.156875, -0.143557, -0.147452, -0.163475, -0.156435, -0.158339, -0.077613, -0.001794, 0.006805, -0.0012, 0.037208, 0.018487, 0.058413, 0.048989, 0.03731, 0.010138, 0.030246, -0.0, -0.000221, -0.006522, -0.029721, -0.040265, -0.088188, -0.092385, -0.116918, -0.09792, -0.120718, -0.115448, -0.051975, -0.012701, -0.006916, -0.053442, -0.061295, -0.09395, -0.060686, -0.01243, -0.040238, -0.058308, -0.00897, -0.00316, 0.014585, 0.03053, -0.006501, 0.012083, 0.020098, -0.002004, -0.013647, -0.031752, -0.040154, -0.053232, -0.088904, -0.080541, -0.080942, -0.053236, 0.007787, 0.005624, 0.042004, 0.018645, 0.003661, -0.028211, -0.012625, -0.041644, -0.05369, -0.032032, -0.04843, -0.048832, -0.009116, 0.006466, 0.064961, 0.042795, 0.019633, -0.004381, -0.007374, -0.010919, -0.01507, -0.01592, -0.033893, -0.037496, -0.030564, -0.019914, -0.03901, -0.008067, -0.000441, -0.005685, 0.019498, -0.003177, 0.042934, 0.048615, 0.020197, 0.000155, 0.022014, -0.025645, -0.023257, -0.026954, -0.020725, -0.045178, -0.00497, 0.011846, 0.014629, -0.010212, 0.041914, -0.005519, 0.007348, 0.010689, 0.016018, -0.014029, -0.04349, -0.060158, -0.013641, 0.010734, 0.018491, -0.057858, -0.02846, 0.030616, 0.045864, 0.004502, 0.007702, 0.000637, 0.00698, -0.006219, -0.038502, -0.033523, -0.034615, -0.050205, -0.046948, 0.029369, 0.016491, 0.042141, 0.0691, 0.011639, 0.002098, 0.00514, -0.003342, 0.004535, -0.060872, -0.06715, -0.026577, -0.019064, 0.023429, 0.021399, -0.005629, 0.006716, -0.017709, 0.043239, 0.048719, 0.017041, 0.040926, 0.023894, 0.010086, 0.03017, -0.005063, 0.064144, 0.047537, 0.053788, 0.088467, 0.122326, 0.134341, -0.00839, -0.020824, -0.002965, 0.002485, -0.017318, -0.015153, -0.014066, 0.049531, 0.014267, -0.007985, 0.012221, 0.058697, 0.006949, 0.059277, 0.014539, 0.066309, 0.088417, 0.075996, 0.09765, 0.100868, 0.095422, 0.11037, 0.094566, 0.069384, 0.110839, 0.12742, 0.150648, 0.12886, -0.04078, -0.057998, -0.027552, -0.014466, 0.015807, 0.004483, 0.034725, 0.022638, 0.005003, -0.005456, -0.049925, -0.010328, -0.019009, 0.000789, -0.004589, 0.038519, 0.05873, 0.07, 0.108768, 0.128214, 0.131714, 0.130559, 0.132478, 0.129446, 0.089475, 0.18698, 0.161469, 0.173247, -0.046212, -0.072804, -0.039581, 0.023351, -0.001582, -0.031206, 0.021469, -0.027294, -0.059736, -0.010366, -0.053551, -0.040179, -0.058555, -0.081678, -0.140238, -0.09525, -0.12435, -0.049916, -0.044673, -0.037195, 0.026824, 0.035653, -0.000158, 0.077486, 0.037004, 0.056862, 0.073748, 0.118512, -0.046623, -0.068257, 0.011488, 0.022121, -0.00308, -0.01344, -0.047452, 0.007985, -0.05277, -0.038459, -0.079872, -0.113566, -0.127873, -0.140267, -0.161276, -0.179862, -0.166328, -0.148811, -0.201086, -0.17382, -0.18362, -0.179994, -0.16097, -0.139136, -0.120142, -0.080083, -0.049635, 0.023559, -0.059812, -0.048952, 0.012419, 0.014902, 0.034306, 0.009984, -0.008755, -0.007031, -0.027112, -0.044311, -0.044712, -0.04422, -0.050315, -0.043344, -0.074968, -0.079019, -0.071014, -0.107096, -0.187153, -0.219989, -0.266252, -0.261558, -0.225787, -0.279907, -0.288279, -0.222408, -0.179672, -0.046046, -0.036172, -0.053851, 0.014764, 0.019124, 0.058971, 0.049295, 0.02502, 0.041766, 0.040477, 0.044353, 0.02279, 0.036262, 0.05841, 0.062259, 0.077279, 0.011791, 0.005837, -0.026859, -0.048831, -0.099624, -0.210486, -0.250616, -0.26794, -0.262052, -0.313558, -0.283448, -0.178253, -0.053813, -0.030573, -0.035036, 0.015867, 0.009365, 0.025591, 0.011778, 0.034535, 0.065693, 0.10749, 0.08494, 0.069942, 0.100072, 0.063751, 0.075969, 0.066469, 0.084844, 0.023323, 0.052949, -0.041318, -0.041958, -0.090648, -0.145166, -0.165723, -0.236854, -0.305263, -0.223906, -0.129811, -0.07641, -0.023058, -0.019404, 0.007246, -0.072682, -0.114868, -0.020486, 0.002612, 0.042292, 0.094737, 0.164695, 0.147821, 0.135528, 0.098583, 0.069119, 0.085662, 0.037072, -0.009645, -0.020192, 0.004453, -0.032629, -0.022726, -0.040942, -0.063565, -0.129744, -0.195928, -0.180088, -0.120751, -0.055169, -0.037383, -0.048535, -0.041323, -0.11008, -0.141258, -0.108601, -0.081314, -0.038394, 0.026341, 0.12023, 0.103978, 0.164558, 0.139147, 0.135499, 0.073735, 0.028089, 0.003489, -0.035313, 0.007078, -0.011135, -0.008271, 0.016888, 0.017381, -0.094188, -0.147959, -0.158205, -0.135042, -0.062978, -0.02501, -0.043629, -0.018656, -0.078262, -0.148893, -0.184183, -0.219705, -0.249621, -0.184445, -0.127193, -0.014886, 0.033333, 0.023191, 0.017766, -0.006013, -0.008609, -0.020555, -0.02379, 0.014687, 0.035275, 0.050405, 0.029817, 0.085648, 0.031067, -0.041586, -0.089135, -0.101388, -0.058525, 0.004476, -0.009588, -0.005002, -0.052994, -0.07494, -0.175872, -0.229075, -0.378242, -0.321103, -0.372216, -0.337855, -0.283585, -0.197937, -0.132616, -0.118495, -0.033869, -0.042927, -0.00708, 0.060561, 0.059208, 0.074577, 0.105115, 0.030024, 0.059698, 0.035017, -0.036419, -0.044571, -0.033507, 0.010179, -0.014057, -0.016871, -0.036849, -0.056494, -0.120209, -0.126213, -0.22569, -0.306791, -0.349401, -0.385163, -0.350191, -0.274092, -0.205794, -0.101609, -0.057432, -0.00223, 0.00076, 0.038931, 0.089571, 0.096378, 0.060128, 0.05231, 0.021249, 0.014866, 0.005761, -0.009491, -0.039151, 0.005639, -0.015341, 0.033601, 0.016908, 0.011168, -0.018745, 0.000653, -0.045739, -0.080298, -0.132763, -0.155754, -0.128983, -0.153172, -0.100156, -0.045109, -0.042866, -0.032822, -0.010507, 0.045077, 0.055861, 0.102657, 0.065057, 0.068424, -0.004375, 0.052058, -0.020046, -0.019417, -0.037214, 0.022025, 0.015117, 0.018728, 0.003675, 0.038136, 0.013101, 0.042492, 0.059409, 0.066054, 0.065426, 0.023345, 0.039339, 0.028273, -0.001102, 0.007545, 0.031542, 0.043308, -0.001263, 0.028751, 0.06277, 0.077555, 0.07005, 0.066228, 0.055014, 0.044039, -0.000903, -0.007491, -0.011055, 0.028298, 0.046404, 0.073504, 0.041969, 0.030083, 0.072452, 0.045363, 0.102792, 0.118909, 0.079249, 0.120565, 0.097635, 0.081042, 0.041302, 0.028715, 0.017697, 0.02143, 0.011328, 0.036368, 0.01644, 0.019237, 0.019026, 0.050239, 0.071778, 0.048102, 0.028453, -0.006447, 0.016133, 0.020927, 0.079189, 0.101849, 0.053022, 0.055581, 0.081963, 0.058245, 0.058591, 0.083884, 0.074524, 0.076718, 0.080518, 0.038843, 0.054916, 0.007916, 0.015654, 0.004986, -0.041172, 0.005443, 0.001945, 0.001043, 0.011451, 0.060533, 0.045303, -0.000937, -0.035222, -0.013335, 0.00209, 0.011362, 0.067574, 0.061326, 0.084986, 0.079069, 0.066305, 0.053919, 0.081135, 0.02479, 0.039921, 0.052956, 0.060421, 0.046305, 0.026701, -0.009323, -0.000341, -0.01233, -0.033636, 0.008809, -0.012656, 0.033661, 0.041004, 0.054011, -0.003105, -0.049864, -0.025715, -0.025575, -0.011242, 0.003956, 0.023285, 0.034161, 0.052725, 0.118574, 0.109774, 0.069568, 0.100492, 0.055968, -0.017415, 0.067625, 0.045169, 0.074191, 0.03042, 0.061241, 0.038274, 0.039726, 0.055529, 0.043748, -0.010634, -0.003976, 0.009877, -0.0209, 0.000398, -0.030075, -0.012775, -0.012348, -0.018242, 0.001463, 0.006687, 0.029762, 0.086322, 0.121067, 0.101688, 0.097366, 0.11988, 0.101275, 0.055099, 0.069081, 0.097878, 0.096339, 0.100875, 0.062959, 0.06161, 0.088892, 0.082817, 0.021407, 0.049163, 0.089452, 0.043553, 0.041396, -0.010277, -0.01318, -0.000285, -0.011315, -0.011782], [-0.0, 0.0, 1e-06, 0.000223, 0.004634, 0.037927, 0.036719, 0.054069, 0.043285, 0.063636, 0.052533, 0.040213, 0.030459, 0.004139, 0.079989, 0.030009, -0.013635, 0.057346, 0.052893, 0.023181, -0.008365, -0.009886, -0.016832, 0.017783, 0.002753, -0.016362, 0.00025, 2.1e-05, 0.00634, 0.006454, 0.007057, -0.002127, 0.036833, 0.070902, 0.065892, 0.068779, 0.090831, 0.044326, 0.057458, -0.005369, 0.030017, 0.022363, 0.041445, 0.051038, 0.04396, 0.059117, 0.041481, 0.050792, 0.015848, 0.015234, -0.0446, 0.015475, 0.02595, 0.000191, -0.01581, -0.012563, 0.006831, 0.007459, -0.000213, 0.016732, 0.060772, 0.049361, 0.049803, 0.061302, 0.063802, 0.043053, 0.065989, 0.048296, -0.006581, 0.007073, 0.01144, -0.000832, 0.037835, -0.001854, -0.005624, 0.006839, 0.040593, 0.011966, -0.028687, 0.015062, 0.006025, -0.025531, -0.033561, -0.04894, 0.005715, 0.008644, -0.010213, 0.034346, 0.035272, 0.035834, 0.116935, 0.075186, 0.099736, 0.056362, 0.068678, 0.001007, 0.006045, 0.03387, 0.014138, 0.008899, 0.047345, -0.016647, 0.0015, 0.005863, 0.021861, 0.020179, -0.002787, 0.013114, -0.005255, -0.023822, -0.045959, -0.056739, 0.012359, 0.01793, -0.026332, 0.023099, 0.051151, 0.070567, 0.092837, 0.069751, 0.090806, 0.057736, 0.058558, 0.083139, 0.073855, 0.024855, 0.033865, 0.009141, -0.002038, 0.020374, 0.023837, 0.026354, 0.007797, 0.023006, 0.02647, 0.046118, 0.057255, 0.051047, -0.003612, -0.047762, 0.002454, 0.019268, -0.005573, 0.045809, 0.11346, 0.102131, 0.073699, 0.08842, 0.135423, 0.095741, 0.131956, 0.09281, 0.095028, 0.114176, 0.075168, 0.080537, 0.027169, 0.021317, 0.030977, 0.019496, 0.007581, -0.002623, 0.033125, 0.010364, 0.050998, 0.039051, -0.007237, -0.065614, 0.017938, 0.031675, 0.033601, 0.054767, 0.081877, 0.046103, 0.067973, 0.103538, 0.132649, 0.125771, 0.147841, 0.167996, 0.133629, 0.128237, 0.129639, 0.067576, 0.073147, 0.015441, 0.016916, 0.014368, 0.00585, 0.011686, 0.010098, 0.022267, 0.00791, 0.031306, -0.025935, -0.054495, 0.025459, 0.015716, -0.003877, 0.045362, 0.031449, 0.040461, 0.018565, 0.088944, 0.067578, 0.068706, 0.029516, 0.055832, 0.097808, 0.081959, 0.122139, 0.100575, 0.100324, 0.037678, 0.017035, 0.014314, 0.001608, -0.015647, 0.006114, 0.019123, 0.027692, 0.009714, 0.014532, -0.072357, 0.015782, -0.007093, -0.024355, -0.053873, -0.110603, -0.138399, -0.083515, -0.091952, -0.112028, -0.151273, -0.159634, -0.174293, -0.134708, -0.129293, -0.038902, -0.002574, -0.024041, 0.00705, 0.037246, 0.001308, -0.002551, 0.020982, 0.03581, 0.017427, 0.013988, -0.015033, 0.019125, -0.073883, -0.011028, -0.055832, -0.092509, -0.201495, -0.258252, -0.286951, -0.332382, -0.34989, -0.416419, -0.394937, -0.396725, -0.356901, -0.342401, -0.309106, -0.213925, -0.14825, -0.060475, -0.004849, -0.020157, 0.008114, 0.002662, -0.018932, 0.036991, 0.005883, 0.002224, 0.02593, 0.033076, -0.063779, -0.041124, -0.123364, -0.190325, -0.268974, -0.389315, -0.4591, -0.49309, -0.513001, -0.523532, -0.475213, -0.425519, -0.357055, -0.307567, -0.245665, -0.174565, -0.10683, -0.069409, -0.025287, -0.007673, -0.047003, -0.049268, -0.003843, 0.017776, 0.029986, 0.0063, -0.002871, -0.002558, -0.020917, -0.046461, -0.160595, -0.236905, -0.263808, -0.418073, -0.420493, -0.42082, -0.347785, -0.29148, -0.251406, -0.149699, -0.073366, -0.098496, -0.084655, -0.051897, -0.063967, -0.035927, -0.025628, -0.020134, -0.03405, -0.006713, -0.047579, 0.032614, -0.014022, -0.019946, -0.012347, -0.035768, 0.029412, -0.048526, -0.114991, -0.20106, -0.218553, -0.251992, -0.219913, -0.183744, -0.040827, 0.019261, 0.072318, 0.09681, 0.074426, 0.061305, 0.044471, 0.036981, 0.004949, -0.010637, 0.007869, 0.024952, -0.059949, -0.016608, 0.00919, -0.001338, -0.002473, 0.023269, -0.013509, -0.003409, 0.005838, -0.011827, -0.040157, -0.179405, -0.117092, -0.0689, 0.005054, 0.039017, 0.090751, 0.131548, 0.112325, 0.120497, 0.136504, 0.093762, 0.093865, 0.070453, 0.069181, 0.02363, 0.006122, 0.024232, 0.036663, 0.020226, -0.005437, 0.005071, -0.01059, 0.00021, -0.009449, -0.014637, -0.020705, -0.014989, -0.028835, -0.045721, 0.036588, 0.094201, 0.134871, 0.120534, 0.117824, 0.086325, 0.078604, 0.076443, 0.067194, 0.095303, 0.066266, 0.044162, 0.025463, 0.028489, 0.021718, 0.003551, 0.039775, 0.053759, 0.004167, -0.033728, -0.002314, 0.003109, 0.026895, -0.023431, 0.057059, -0.003092, 0.004516, 0.038065, 0.085422, 0.121295, 0.081138, 0.136238, 0.100907, 0.048941, 0.004272, 0.015479, -0.021066, 0.015059, -0.020771, 0.026548, 0.041976, 0.031437, -0.028203, -0.003955, 0.030136, 0.004357, -0.010838, 0.011299, -0.002108, 0.000154, -0.018295, 0.050193, 0.093734, 0.030057, 0.05986, 0.086256, 0.082698, 0.099626, 0.092614, 0.04189, 0.030908, -0.025651, -0.018801, -0.017903, -0.018792, -0.001727, 0.00451, -0.024425, 0.012151, -0.003812, -0.004472, 0.017807, -0.004016, -0.019736, -0.0093, -0.004214, 0.023396, -0.011323, -0.015457, 0.05466, 0.08124, 0.080871, 0.086674, 0.073969, 0.004244, 0.039049, 0.028454, -0.022991, -0.050194, -0.033705, 0.007071, 0.029382, -0.006641, -0.025653, -0.012416, -0.019446, 0.004671, -0.009385, 0.01324, -0.022337, -0.003566, -0.019217, 0.004137, 0.026044, -0.003529, 0.033035, 0.028734, 0.021618, 0.046531, 0.050561, 0.058342, 0.035881, 0.030779, -0.02136, -0.008688, 0.032329, -0.001428, -0.004365, 0.025697, 0.032929, 0.016976, -0.008694, -0.00405, -0.047895, 0.004706, -0.004714, -0.002854, -0.021293, 0.012055, -0.021097, -0.031334, -0.029713, 0.04572, -0.003428, -0.001697, 0.046778, 0.01896, -8.1e-05, -0.004842, 0.008599, 0.008266, -0.017274, 0.00405, -0.025631, 0.002827, 0.023442, -0.016912, 0.022423, 0.01931, -0.01087, -0.007656, 0.020093, 0.007568, -0.046434, -0.013794, -0.015849, -0.029782, -0.004488, -0.00615, -0.017277, -0.024347, 0.01694, 0.019763, 0.02485, 0.039317, 0.034851, 0.016237, 0.01777, -0.043274, 0.00426, 0.003233, 0.029102, -0.002805, -0.000765, -0.036929, -0.004545, -0.008716, -0.016922, -0.02066, -0.052793, -0.031794, -0.013866, -0.035592, -0.014675, -0.029956, -0.033965, -0.024282, -3.7e-05, 0.015279, 0.027186, -0.015303, 0.019974, 0.064248, 0.069794, 0.001606, 0.052195, -0.015415, 0.037767, -0.023054, -0.034199, 0.011056, 0.010972, -0.005785, -0.016646, 0.000448, -0.021177, -0.04938, 0.008576, -0.025979, -0.012662, -0.027178, -0.040627, -0.018816, 0.005093, -0.016961, 0.003707, -0.011031, -0.019806, 0.02652, 0.054589, 0.087715, 0.08011, 0.022002, 0.039443, -0.073147, -0.005548, -0.0391, 0.00771, 0.062043, 0.044144, -0.009244, -0.024172, -0.028131, -0.02426, -0.007487, -0.001786, 0.014958, -0.03184, -0.011783, 0.031271, -0.06046, -0.035854, -0.028209, -0.000662, -0.02803, -0.022671, 0.01104, 0.031671, 0.046849, 0.052584, 0.017498, -0.009883, -0.051808, -0.032566, -0.031427, 0.005564, -0.016065, -0.012022, 0.030973, -0.030726, -0.028567, 0.012996, -0.023301, -0.010995, -0.039416, 0.015284, -0.040729, 0.008869, -0.012882, -0.061955, 0.024142, 0.014414, 0.00875, 0.015127, -0.021319, -0.028252, 0.007609, 0.038791, -0.004391, -0.014232, -0.001011, -0.066635, -0.017358, -0.030935, -0.050705, -0.016614, -0.01464, 0.014948, -0.017634, -0.01659, 0.017262, 0.031107, -0.032263, -0.037054, -0.015301, 0.008154, -0.037492, -0.011313, 0.012833, 0.012109, -0.023066, -0.019261, 0.016738, 0.01115, 0.00097, 0.022929, 0.029486, 0.01876, -0.003724, 0.007148, -0.050108, -0.028581, 0.00806, 0.001915, -0.007363, -0.015168, -0.063776, -0.036606, 0.012513, -0.014195, 0.016238, -0.01126, 0.007619, 0.031996, -0.022935, -0.028492, 0.032084, 0.013269, -0.001578, -0.003385, -0.003939, -0.022162, -0.016084, 7e-06, -0.019349, 0.015749, 0.02017, 0.006836, -0.013242, -0.027397, -0.002353, -0.01921, -0.024398, -0.036055, -0.032346, -0.026177, -0.02406, 0.035957, 0.069194, 0.035691, 0.057462, -0.007832, -0.007778, 0.025307, 0.049153, 0.015874, 0.011971, 0.015257, 0.012022, -0.015294, -0.01227, 0.0, 4.3e-05, -0.001683, 0.013481, 0.021861, 0.011877, 0.02486, 0.002698, 0.029133, 0.000761, 0.027055, 0.057286, 0.027786, 0.038912, 0.065335, 0.044456, 0.075937, 0.105505, 0.043446, 0.071012, 0.049263, 0.008869, 0.003819, -0.007398, -0.005494, 0.001969, -0.000234, -0.0], [-0.0, -0.0, -0.0, 0.0, -0.00906, -0.013789, -0.014292, -0.012833, -0.035342, -0.045226, -0.049034, -0.061832, -0.067714, -0.105571, -0.109297, -0.104166, -0.08062, -0.060196, -0.062787, -0.056702, 0.001591, -0.020204, 0.006266, 0.012472, -0.00462, -0.027434, -0.021021, -0.01137, 0.0, 1e-06, -0.003009, -0.010982, -0.013632, -0.017516, -0.036167, -0.032861, -0.064921, -0.07961, -0.068447, -0.03463, -0.036812, -0.072272, -0.088149, -0.020381, -0.026608, 0.005896, -0.011428, -0.014844, -0.015056, -0.012696, -0.028971, -0.028858, -0.041034, -0.01332, -0.017393, -0.013714, -0.000153, -0.0, 4.6e-05, -0.009792, -0.025187, -0.023718, -0.020692, -0.076261, -0.067829, -0.013456, -0.025736, 0.011327, -0.000926, -0.004361, -0.046948, 0.006086, -0.01153, 0.023394, -0.01499, -0.024891, -0.030174, -0.034023, -0.014029, -0.006472, -0.049974, -0.038497, -0.02192, -0.010197, 0.0, -0.001103, 0.000852, -0.008274, -0.033448, -0.026736, -0.04202, -0.076292, -0.055849, -0.03896, -0.012755, 0.019923, -0.028008, -0.014813, 0.029888, 0.022348, 0.027223, 0.061014, 0.046881, 0.053254, 0.039523, 0.02102, 0.018993, 0.017115, 0.025983, 0.016302, -0.007606, 0.00366, 0.004472, 0.001594, 0.009353, 0.00441, -0.01686, -0.021821, -0.038114, -0.03795, -0.011369, -0.036452, -0.030916, -0.032646, 0.035566, 0.010381, 0.020988, 0.0657, 0.034637, 0.042606, 0.055538, 0.061713, 0.036051, 0.056823, 0.033128, 0.023656, 0.08237, 0.037475, 0.020233, 0.006338, 0.006172, 0.018855, 0.029178, 0.018992, -0.016461, -0.01437, -0.002654, -0.039477, -0.05421, 0.001929, -0.017292, -0.032873, -0.025579, -0.014787, 0.024951, 0.02743, -0.003852, 0.031479, 0.046293, 0.054457, 0.016718, 0.021734, 0.07033, 0.0386, 0.027923, -0.034261, 0.026161, -0.012133, 0.017683, 0.02533, 0.03627, -0.010821, -0.042184, -0.03147, -0.056067, -0.019998, -0.056889, 0.020743, 0.009789, 0.032296, 0.018488, 0.002621, 0.013918, 0.016723, -0.018921, -0.004971, 0.044847, 0.071694, 0.045525, 0.037442, 0.022665, 0.014548, 0.037517, 0.003915, 0.029354, -0.009179, 0.018918, 0.026214, -0.000939, -0.041986, -0.076182, -0.059009, -0.038191, -0.051373, -0.003807, -0.003388, 0.013886, 0.032717, 0.026236, 0.007723, -0.010969, 0.011545, 0.027715, 0.022191, 0.080289, 0.082478, 0.079119, 0.042372, 0.044565, 0.008518, 0.057303, 0.009255, -0.016178, -0.012972, 0.004176, 0.002332, 0.002644, -0.071608, -0.103661, -0.081507, -0.056817, -0.052556, 0.025112, 0.034258, 0.011081, 0.041435, 0.044619, 0.012509, -0.007176, 0.023772, 0.046071, 0.055771, 0.054065, 0.089722, 0.072354, 0.100708, 0.098601, 0.049444, 0.048745, 0.008595, -0.004857, -0.029311, -0.000856, -0.022071, -0.036463, -0.077918, -0.080689, -0.10434, -0.073891, -0.048787, -0.022191, 0.030288, 0.028249, 0.03653, 0.072592, 0.029074, 0.045727, 0.039558, -0.003107, 0.019092, 0.038622, 0.074016, 0.020203, 0.047389, 0.049767, 0.069542, 0.100561, 0.046765, 0.002989, 0.005063, -0.016461, -0.036242, -0.045107, -0.079001, -0.079248, -0.117615, -0.133441, -0.052822, 0.020794, 0.032795, 0.039066, 0.043534, 0.049343, 0.047244, 0.032577, 0.032741, 0.037067, -0.028674, -0.016348, 0.020027, -0.006325, 0.037227, 0.101886, 0.071564, 0.056855, 0.068142, 0.035829, 0.020977, -0.014391, -0.031706, -0.033704, -0.046224, -0.044623, -0.087891, -0.089685, -0.031329, -0.027561, -0.039379, -0.007644, 0.015908, -0.004472, 0.03132, 0.005779, 0.015351, 0.002546, -0.038554, -0.032685, -0.002265, 0.007504, 0.045788, 0.086748, 0.110112, 0.104205, 0.058235, 0.024071, -0.011163, -0.002361, -0.02233, -0.052451, -0.073105, -0.103158, -0.056794, -0.016729, -0.055812, -0.035342, -0.045424, -0.063435, -0.006053, 0.038965, 0.01985, 0.013051, -0.024181, -0.033921, -0.018733, -0.069583, -0.031635, 0.019873, 0.027999, 0.066003, 0.100442, 0.064549, 0.052861, 0.025542, -0.01078, -0.019214, -0.024139, -0.063091, -0.078702, -0.089648, -0.059557, -0.051011, -0.047194, -0.037459, -0.056473, -0.027286, -0.031689, 0.018776, 0.021387, 0.049495, -0.015325, -0.023826, -0.039669, -0.061381, -0.045284, 0.015269, -0.009876, 0.091293, 0.054877, 0.025275, 0.043063, 0.06886, 0.0314, -0.035444, -0.0387, -0.066295, -0.104836, -0.096663, -0.086301, -0.083156, -0.032619, -0.006082, -0.015297, -0.051907, -0.00167, 0.02825, 0.089598, 0.083709, 0.027628, -0.050266, -0.015084, -0.031196, -0.049436, -0.037504, -0.01631, -0.015377, -0.008157, 0.034214, 0.031044, -0.005274, 0.012317, -0.031948, -0.036009, -0.065754, -0.101445, -0.089827, -0.036257, -0.059474, -0.007154, 0.005046, -0.023695, 0.046249, 0.049737, 0.058075, 0.064577, 0.039267, 0.01802, -0.029724, -0.017136, -0.071858, -0.065482, -0.057541, -0.039502, -0.022029, -0.013034, -0.008533, 0.017799, 0.026578, -0.006897, -0.038931, -0.065856, -0.096427, -0.085261, -0.034106, -0.004795, -0.017647, 0.015837, -0.005953, -0.002296, -0.007399, 0.044788, 0.049445, 0.055538, -0.011329, -0.043613, -0.043559, -0.056611, -0.097093, -0.110661, -0.05908, -0.070397, -0.031125, -0.00221, -0.013471, 0.006992, 0.01262, 0.026194, -0.03623, -0.090369, -0.143475, -0.093935, -0.069969, -0.028071, -0.022483, -0.020525, 0.0224, 0.007443, 0.033851, 0.002081, 0.054704, -0.02211, -0.017571, -0.028571, -0.096877, -0.062985, -0.115582, -0.142372, -0.121106, -0.061772, -0.062077, -0.03329, -0.00115, 0.017688, 0.005154, 0.019841, -0.02965, -0.074205, -0.114969, -0.091524, -0.057388, -0.046589, 0.010784, 0.027723, 0.020495, 0.028746, -0.010678, 0.010572, -0.01395, -0.03063, -0.040878, -0.057268, -0.05745, -0.097758, -0.098357, -0.125612, -0.141588, -0.077023, -0.095786, -0.07358, -0.026055, 0.013858, 0.009626, 0.002965, -0.051118, -0.077625, -0.109128, -0.10005, -0.096848, -0.026003, 0.00179, 0.011652, 0.025459, 0.025878, 0.072112, 0.052699, 0.020072, -0.011966, 0.01787, -0.053601, -0.002555, -0.041433, -0.018493, -0.101974, -0.137925, -0.084325, -0.078501, -0.108933, -0.032337, -0.004932, 0.018741, -0.018352, -0.059863, -0.057187, -0.089328, -0.073874, -0.011967, -0.005672, 0.013844, 0.042972, -0.018237, 0.067712, 0.063513, 0.02212, 0.012057, 0.023353, 0.016107, -0.003903, 0.016734, -0.016286, -0.049017, -0.092519, -0.097951, -0.137518, -0.101487, -0.0702, -0.012784, 0.006261, -0.024168, -0.027941, -0.076475, -0.068036, -0.081356, -0.077984, -0.022167, -0.02988, 0.033972, 0.004587, 0.04257, 0.012178, 0.008196, 0.062683, 0.040661, 0.020985, -0.001114, 0.011179, 0.011723, -0.035566, -0.067049, -0.102332, -0.141263, -0.149489, -0.088216, -0.084221, -0.03695, -0.039157, -0.041867, -0.032343, -0.05951, -0.072497, -0.050917, -0.072974, -0.070292, 0.00086, 0.02555, 0.071205, 0.033374, 0.013994, 0.058251, 0.018777, 0.029197, 0.019211, -0.001199, 0.001086, -0.047753, -0.007472, -0.060767, -0.09699, -0.177695, -0.132288, -0.099485, -0.069126, -0.048177, -0.05165, -0.045477, -0.01413, -0.056232, -0.066267, -0.088173, -0.08021, -0.033816, 0.028212, 0.012953, 0.028407, 0.020575, 0.013218, 0.040624, 0.064808, 0.057356, 0.016684, 0.005712, -0.044155, -0.043951, -0.038143, -0.045823, -0.115708, -0.163227, -0.137452, -0.102987, -0.105644, -0.052629, -0.060308, -0.028886, -0.002069, -0.04229, -0.06577, -0.09058, -0.083229, -0.058075, -0.009752, 0.038692, 0.043572, -0.028405, 0.025456, 0.03945, 0.104129, 0.05589, 0.014546, -0.016249, -0.01639, -0.01949, -0.032739, -0.030644, -0.151157, -0.161803, -0.106467, -0.109154, -0.104455, -0.065653, -0.075455, -0.024061, -0.004211, -0.021811, -0.043336, -0.057645, -0.046751, -0.054873, -0.045482, 0.008716, 0.014619, -0.047872, -0.000363, 0.025265, 0.095857, 0.078472, 0.059358, 0.031696, 0.049614, 0.015423, 0.035006, -0.006833, -0.089844, -0.128146, -0.13718, -0.148618, -0.066173, -0.040992, -0.029167, -0.017936, -0.0023, -0.005121, -0.007612, -0.025498, -0.017814, -0.030279, -0.009832, 0.012531, 0.021866, 0.034788, 0.078421, 0.047679, 0.059719, 0.098395, 0.121021, 0.119016, 0.121685, 0.148692, 0.035299, 0.000264, -0.03341, -0.073496, -0.096772, -0.061813, -0.036736, -0.014271, -0.009846, -0.00932, -0.000409, 6.2e-05, 0.00059, -0.021994, -0.011475, -0.005117, -0.021063, -0.026033, -0.005863, 0.011761, 0.01081, -0.000453, 0.021739, 0.041378, 0.11754, 0.123021, 0.122907, 0.1482, 0.100456, 0.062148, 0.002718, -0.039183, -0.042582, -0.039415, -0.025226, -0.010692, -0.001883, 0.000114, -0.0], [-0.0, 0.0, 0.0, 0.001852, -0.00433, -0.014076, 0.001105, -0.002542, -0.001732, -0.024486, -0.009966, -0.021676, -0.020114, -0.024595, -0.028017, -0.058832, -0.046446, -0.036318, -0.029645, -0.039533, -0.005618, -0.021483, -0.021723, 6.8e-05, 0.003956, -0.004591, -0.002492, 4e-06, -0.0, -0.0, 0.002352, 0.008877, -0.004844, 0.000104, -0.010532, -0.005723, -0.021752, -0.019911, -0.0292, -0.014111, -0.045872, -0.05356, -0.050842, -0.05485, -0.068351, -0.102194, -0.068952, -0.061016, -0.031868, -0.027463, -0.030109, -0.034812, -0.002577, -0.003084, -0.010245, -0.007353, -0.0, -0.000245, -0.002875, -0.002211, 0.013793, -0.000223, -0.032116, -0.014607, -0.027569, 0.006839, -0.020711, -0.002529, -0.035054, -0.053217, -0.054855, -0.083765, -0.057624, -0.046855, -0.020334, 0.006269, -0.005646, 0.003131, 0.043619, 0.016924, 7.6e-05, 0.023837, 0.013703, -0.004849, -0.005899, -0.007093, -0.027964, 0.028865, -0.001654, -0.010376, -0.056493, -0.030029, -0.01097, -0.003221, -0.024748, -0.011097, -0.037124, -0.012196, -0.039923, 0.012544, -0.002384, 0.011543, 5.9e-05, -0.039868, -0.062679, -0.020471, -0.003563, -0.05366, -0.039678, 0.002615, -0.011375, 0.004767, -0.008246, -0.030119, -0.030523, 0.021117, 0.032719, -0.027124, -0.010732, -0.002877, -0.024008, -0.047216, -0.022089, 0.02558, -0.020645, 0.001174, 0.000523, 0.024098, -0.0185, 0.014294, -0.008976, -0.031145, -0.074281, -0.019822, -0.01715, 0.005196, -0.037488, -0.004045, 0.030696, 0.063119, -0.027741, -0.038027, -0.000529, 0.023262, -0.000177, -0.041063, 0.006103, -0.012063, -0.046446, -0.048422, 0.022315, 0.004674, -0.011711, 0.031218, 0.001519, 0.039404, 0.011193, -0.005952, -0.04592, -0.040428, -0.028199, -0.036654, -0.023731, 0.025799, 6.9e-05, 0.034112, 0.045364, 0.061395, -0.033888, -0.072564, -0.016695, 0.006827, 0.037923, 0.04538, -0.023708, -0.027105, -0.011136, -0.032669, 0.004112, 0.007294, -0.017089, 0.015987, 0.041943, 0.024623, 0.045525, -0.001395, 0.056403, 0.033678, 0.033508, 0.059672, 0.105179, 0.112436, 0.066192, 0.124874, 0.12282, 0.153445, -0.015092, -0.060161, -0.047603, -0.010359, 0.039676, 0.031001, -0.03897, -0.008325, 0.003483, -0.050075, 0.002015, 0.000432, -0.004301, 0.000201, 0.031513, 0.050994, 0.058608, 0.085707, 0.098371, 0.140769, 0.118071, 0.113231, 0.202713, 0.168981, 0.142407, 0.216349, 0.154921, 0.165436, 0.009675, -0.012692, 0.000756, 0.00536, -0.011388, -0.002309, -0.010868, -0.00975, -0.026158, -0.00742, 0.006956, 0.008991, -0.039385, -0.014346, 0.02665, 0.080378, 0.094, 0.11429, 0.192922, 0.198825, 0.191961, 0.237731, 0.166152, 0.185149, 0.183733, 0.226761, 0.182002, 0.152895, 0.03188, -0.01684, -0.030785, 0.003092, -0.041758, 0.010726, 0.027317, 0.000647, -0.021318, -0.000884, 0.037504, -0.046973, -0.033067, -0.015072, -0.039495, -0.018846, -0.003688, 0.063357, 0.04565, 0.075923, 0.062103, 0.084609, 0.069983, 0.023149, 0.059572, 0.063965, 0.067889, -0.010672, 0.00169, -0.002362, -0.013159, -0.032603, 0.017575, 0.013129, -0.001444, -0.012225, -0.008372, 0.002925, -0.005263, -0.074002, -0.056199, -0.129225, -0.136126, -0.115716, -0.165879, -0.166709, -0.213165, -0.173639, -0.191402, -0.2241, -0.219698, -0.216342, -0.195678, -0.163302, -0.168908, -0.106735, -0.000442, -0.008674, -0.034045, 0.028726, 0.00938, -0.020816, -0.066033, -0.017467, -0.002358, -0.058569, -0.011474, -0.026367, -0.069238, -0.083898, -0.164122, -0.195194, -0.255613, -0.316361, -0.374758, -0.369599, -0.353786, -0.377833, -0.346826, -0.290952, -0.302207, -0.289089, -0.2351, -0.157589, -0.023588, -0.040258, -0.023728, 0.016654, -0.00365, -0.031884, -0.012969, 0.033798, 0.010622, 0.025888, -0.0327, 0.035863, 0.046222, -0.000269, -0.056084, -0.069729, -0.172795, -0.204199, -0.278656, -0.278828, -0.378036, -0.397173, -0.43768, -0.358757, -0.314986, -0.282831, -0.257135, -0.144686, -0.034105, -0.037834, -0.041726, -0.077483, -0.023594, -0.003747, 0.030969, 0.016707, 0.018686, -0.00496, 0.056383, 0.011827, 0.026464, 0.043842, 0.026529, -0.005358, -0.053129, -0.07881, -0.066289, -0.175729, -0.219007, -0.312206, -0.349379, -0.335605, -0.321277, -0.32357, -0.254626, -0.158745, -0.009603, -0.009113, -0.000963, -0.005305, -0.011908, 0.015704, 0.0411, 0.046014, 0.036998, 0.04679, 0.021331, 0.000399, 0.032152, 0.044098, 0.091642, 0.046829, 0.027691, 0.019323, 0.00573, -0.031806, -0.042452, -0.154868, -0.220069, -0.202112, -0.238946, -0.287702, -0.225531, -0.141361, -0.0301, -0.002302, 0.005982, 0.021509, 0.001038, -0.022397, 0.027947, -0.003852, 0.003551, 0.021508, 0.014024, 0.002298, -0.014664, -0.013227, 0.043763, 0.051139, 0.072659, 0.075907, 0.05315, 0.051207, 0.049083, 0.040898, -0.038219, -0.115198, -0.122807, -0.18305, -0.218502, -0.1256, -0.011455, 0.02186, 0.018651, -0.008843, 0.032323, -0.021212, -0.002618, -0.055657, -0.02454, -0.013706, -0.037023, -0.015344, -0.036169, 0.003407, 0.035436, 0.027644, 0.084562, 0.075854, 0.048528, 0.07114, 0.066837, 0.066923, 0.068195, 0.02147, -0.06347, -0.086436, -0.125466, -0.093067, 0.039178, 0.03601, 0.03566, 0.02404, 0.041474, -0.024476, 0.022403, 0.014589, -0.033017, -0.030053, -0.032758, -0.052213, -0.049985, -0.028374, -0.026955, 0.042471, 0.021776, 0.091927, 0.089647, 0.073191, 0.093147, 0.068042, 0.043912, 0.034387, 0.046495, -0.030602, -0.007808, -0.072731, 0.012069, 0.034574, 0.065261, 0.021092, 0.034803, -0.046327, 0.01615, 0.019554, -0.012337, 0.018548, -0.023007, -0.03038, -0.069778, -0.069961, -0.035963, -0.01683, -0.027163, 0.043089, 0.067086, 0.060408, 0.071843, 0.096027, 0.089409, 0.041364, 0.066628, 0.051034, 0.038672, -0.007241, -0.012341, 0.034608, 0.042143, -0.000507, 0.009894, -0.0345, 0.008227, 0.01228, 0.024377, -0.005412, -0.020127, -0.009598, 0.009164, 0.009328, -0.023363, -0.024081, -0.028947, 0.019632, 0.027535, 0.027469, 0.048728, 0.010344, 0.007585, 0.066903, 0.053909, 0.079502, 0.028267, 0.000587, 0.020966, 0.022104, -0.024727, -0.01449, 0.013661, -0.051994, 0.011453, 0.014017, -0.001318, 0.005884, 0.035279, 0.064688, 0.00321, 0.015209, -0.008979, 0.032794, -0.010738, 0.020132, -0.021722, -0.011566, 0.015249, 0.045332, 0.022934, 0.029534, 0.084159, 0.075525, 0.078921, 0.022364, 0.016736, 0.021966, -0.000603, 0.007581, 0.036206, 0.026159, 0.025056, 0.043449, 0.014284, 0.055211, 0.035056, 0.078562, 0.031696, 0.031368, 0.012293, 0.028278, -0.016797, 0.034867, 0.040752, 0.020416, 0.039854, 0.0054, 0.056293, 0.082741, 0.071699, 0.061633, 0.058111, 0.030174, 0.050155, 0.03028, 0.01444, 0.034004, -0.019505, 0.000917, -0.000721, -0.003314, -0.027462, 0.000416, 0.024145, 0.017575, -0.009749, 0.032886, 0.047681, 0.039933, -0.005782, 0.013922, 0.013029, 0.022433, 0.010901, 0.036598, 0.033208, 0.066806, 0.102127, 0.048116, 0.060478, 0.022496, 0.055831, 0.073151, 0.047046, 0.023783, -0.031542, 0.004059, -0.054414, -0.010734, 0.015478, -0.011224, -0.008748, 0.032838, 0.000497, 0.031584, 0.033493, 0.030791, 0.05196, 0.00513, 0.040786, 0.051193, -0.025382, -0.004358, 0.034444, 0.053108, 0.091406, 0.080948, 0.03035, 0.04809, 0.023379, 0.05333, 0.013609, 0.028741, 0.039761, -0.011826, -0.024257, -0.007032, 0.026727, -0.00185, 0.009851, 0.010298, 0.026168, 0.015108, -0.000738, -0.000547, 0.034402, 0.017133, 0.010375, 0.018007, 0.030306, 0.017161, 0.084064, 0.06972, 0.031908, 0.016364, 0.020482, 0.028361, -0.004255, 0.008762, -0.005701, -0.060486, 0.021523, 0.020869, -0.011037, 0.031784, 0.028577, -0.021767, -0.006786, 0.007102, 0.025388, 0.032699, -0.001462, 0.040563, 0.002501, 0.035285, 0.025797, 0.026806, 0.051195, 0.015154, 0.029433, 0.021996, 0.02495, 0.009753, 0.003441, -0.009634, -0.000991, 0.009452, 9.8e-05, -0.019729, 0.005866, 0.001938, 0.01014, 0.007094, 0.005753, -0.030692, 0.007127, 0.048987, 0.039945, 0.026942, 0.005033, -0.019689, 0.009068, -0.012229, 0.042146, 2.9e-05, -0.026301, 0.040328, -0.017107, 0.035861, 0.023928, -0.003093, -0.005576, -0.001505, -1.6e-05, 0.006111, 0.021143, 0.013467, 0.031398, 0.048399, 0.014682, -0.03508, -0.025057, -0.024056, 0.021701, -0.027868, -0.060082, -0.013856, -0.053315, -0.011444, -0.067202, -0.070248, -0.017253, -0.067634, -0.041288, -0.010838, -0.017343, -0.007187, -0.01248, -0.007339, -2e-06, -0.0], [-0.0, 0.0, 0.0, 0.0, 0.0, 0.0, -0.000789, -0.002622, -0.022124, -0.036608, -0.022339, -0.028433, -0.015364, -0.027465, -0.016905, -0.009471, -0.050661, -0.021414, -0.018323, 0.007289, -0.003492, -0.006567, -0.019872, -0.008804, -0.003909, 0.01306, 0.012921, 0.008315, 0.0, 0.000683, 0.000683, 0.0, -0.0, -0.000568, -0.008175, -0.03843, -0.06359, -0.014852, -0.037195, 0.016961, -0.014936, -0.025408, -0.014458, -0.035063, -0.014666, -0.015901, -0.007279, -0.024096, -0.00292, 0.003462, -0.00554, -0.002146, 0.018058, 0.033941, 0.016946, 0.015041, -0.0, 7.2e-05, 1.7e-05, 0.005875, -0.017165, -0.052691, -0.063586, -0.083528, -0.065064, -0.02879, -0.081398, -0.071873, -0.014992, -0.00219, 0.033347, -0.003389, -0.036105, -0.0234, -0.006149, 0.026017, -0.008117, -0.024859, 0.022123, 0.023287, 0.019276, 0.036489, 0.008328, -0.0051, -0.0, 0.000715, -0.009992, -0.002113, -0.027636, -0.088452, -0.099634, -0.129878, -0.062563, -0.035733, -0.083187, -0.061373, -0.061508, 0.004728, -0.036871, -0.036082, -0.052266, -0.018104, -0.04376, -0.083115, -0.037871, -0.058314, 0.011527, -0.021825, -0.015771, 0.023116, -0.001166, -0.013574, 0.000107, 2.3e-05, -0.013123, -0.001361, -0.024617, -0.075674, -0.119899, -0.101901, -0.082333, -0.037246, -0.085481, -0.09773, -0.086612, -0.042913, -0.03542, -0.073338, -0.087785, -0.04613, -0.041533, -0.021363, -0.025702, -0.043076, -0.024347, -0.00986, 0.007743, -0.017569, -0.054752, -0.061024, 0.0, 0.0, 0.000308, -0.008208, -0.047189, -0.089374, -0.128143, -0.136815, -0.106939, -0.039262, -0.018697, -0.063205, -0.083031, -0.088556, -0.042016, -0.087977, -0.07137, -0.10007, -0.057369, -0.067603, -0.076054, -0.087048, -0.037835, -0.05454, -0.033264, -0.096202, -0.050298, -0.070831, -0.0, 0.004553, -0.002934, -0.036971, -0.078479, -0.136731, -0.172213, -0.185245, -0.146182, -0.051335, -0.043396, -0.010509, -0.016568, -0.048295, -0.037438, -0.069056, -0.095166, -0.083137, -0.105343, -0.036116, -0.049158, -0.035723, -0.053253, -0.001522, -0.072929, -0.049153, -0.051773, -0.023407, 0.0, 0.002785, -0.005052, -0.020875, -0.079629, -0.125797, -0.187026, -0.236958, -0.150783, -0.082625, -0.040109, -0.018862, -0.023311, -0.029768, -0.008519, -0.028323, -0.030586, -0.040469, -0.020177, -3e-06, 0.021324, 0.049654, 0.013535, 0.042297, 0.076209, 0.013539, 0.030371, 0.024869, 0.000837, 0.000333, 0.00581, -0.022826, -0.095912, -0.158944, -0.151986, -0.226205, -0.183234, -0.067934, -0.043972, 0.058065, 0.052018, 0.028636, 0.014043, -0.049285, -0.031108, 0.001746, 0.05503, 0.110714, 0.090642, 0.097382, 0.100216, 0.142541, 0.143264, 0.137349, 0.098285, 0.142659, -0.001133, 0.000983, 0.005101, -0.0415, -0.07018, -0.178045, -0.184574, -0.209611, -0.135883, -0.044644, 0.000759, 0.082474, 0.137115, 0.089861, 0.054291, -0.002842, 0.025377, 0.033621, 0.078699, 0.113921, 0.13241, 0.164183, 0.173481, 0.127975, 0.140647, 0.182299, 0.174661, 0.177241, -0.002546, -0.004262, -0.016498, -0.022035, -0.111647, -0.169844, -0.197608, -0.177926, -0.029619, 0.0397, 0.075486, 0.13269, 0.167015, 0.134912, 0.018023, 0.017785, 0.025553, 0.06769, 0.138223, 0.158287, 0.173406, 0.18474, 0.188391, 0.157087, 0.15904, 0.185201, 0.109561, 0.162511, -0.002003, -0.016332, -0.025511, -0.054434, -0.118399, -0.149609, -0.106545, -0.071797, -0.031664, 0.097888, 0.100723, 0.141711, 0.136577, 0.13607, 0.041255, -0.043438, -0.101971, -0.023721, 0.025168, 0.111278, 0.082169, 0.098408, 0.109418, 0.134621, 0.14233, 0.094848, 0.101736, 0.132442, -0.001606, -0.010311, -0.010532, -0.017446, -0.00912, 0.009339, 0.029482, -0.024413, -0.018817, 0.019857, 0.087272, 0.136598, 0.101598, 0.084806, 0.011161, -0.137034, -0.223176, -0.200459, -0.240239, -0.235866, -0.200366, -0.16579, -0.152208, -0.068113, -0.04098, -0.048631, -0.02475, 0.046634, -0.006442, 0.014906, 0.01728, 0.026161, 0.054556, 0.020241, 0.022521, -0.014128, 0.00983, 0.026568, 0.052398, 0.086227, 0.084399, 0.093576, -0.082334, -0.203754, -0.300696, -0.287382, -0.372491, -0.389656, -0.397013, -0.366533, -0.292806, -0.239183, -0.222286, -0.179682, -0.17165, -0.06814, -0.004882, 0.015701, 0.02804, 0.03005, 0.031779, 0.022157, -0.012813, -0.053124, -0.045331, 0.005538, -0.001229, 0.074487, 0.114458, 0.033983, -0.028061, -0.143975, -0.19561, -0.157112, -0.219979, -0.332469, -0.360326, -0.336879, -0.365289, -0.305307, -0.323717, -0.286894, -0.207321, -0.118996, -0.013101, 0.022698, 0.044802, 0.045716, 0.024106, 0.009884, -0.037329, 0.001325, -0.017354, 0.016217, -0.001511, 0.044657, 0.0706, 0.064973, -0.014605, -0.052445, -0.037453, -0.011516, -0.033045, -0.182977, -0.255008, -0.314639, -0.32399, -0.270939, -0.295504, -0.263068, -0.214259, -0.123715, -0.012795, 0.022218, 0.074204, 0.08969, 0.041991, 0.033434, 0.035682, 0.014781, -0.057156, 0.041021, 0.021073, 0.091061, 0.086618, 0.046204, -0.016753, -0.072324, -0.081296, 0.008083, 0.012296, -0.019733, -0.123991, -0.246634, -0.271395, -0.236264, -0.252704, -0.245099, -0.172572, -0.118382, -0.025665, -0.039701, 0.081521, 0.08922, 0.030153, 0.028199, 0.019679, -0.0394, 0.009492, 0.014202, -0.004615, 0.031057, 0.027118, -0.021745, -0.079469, -0.089541, -0.096532, -0.046103, -0.007554, 0.008239, -0.082856, -0.166901, -0.225729, -0.188713, -0.204761, -0.233176, -0.165997, -0.096561, -0.020322, -0.053682, 0.06058, 0.059677, -0.004426, -0.00176, 0.010194, -0.022358, -0.043398, 0.015085, -0.026985, 0.004857, -0.007162, -0.030653, -0.068323, -0.064862, -0.055247, -0.053253, 0.00309, 0.032448, -0.011244, -0.077048, -0.122421, -0.127587, -0.150064, -0.187389, -0.111884, -0.074731, -0.005202, -0.026661, 0.024465, 0.043831, 0.04803, 0.011471, 0.047817, -0.009157, -0.00497, -0.05259, -0.069915, -0.062123, -0.024838, 0.016821, -0.041636, 0.001022, -0.068788, -0.052004, -0.066647, 0.010934, 0.026194, -0.007298, -0.074149, -0.097904, -0.13166, -0.137907, -0.090494, -0.050098, 0.013098, -0.01058, -0.007654, -0.013395, 0.049285, 0.03991, 0.006084, -0.008326, 0.005031, -0.075758, -0.058134, -0.072272, -0.087741, -0.025808, -0.014173, -0.001629, -0.00035, -0.004745, -0.043977, -0.000317, 0.007498, 0.010369, -0.052242, -0.080438, -0.104491, -0.113205, -0.060775, -0.040194, 0.014861, 0.008846, -0.013965, 0.004061, -0.013613, 0.02348, 0.026329, -0.004346, -0.014158, -0.053039, -0.049326, -0.076345, -0.041589, -0.027996, -0.012985, 0.011896, 0.028057, 0.040164, -0.011855, 0.009078, 0.012996, -0.026477, -0.051887, -0.056364, -0.090263, -0.04967, -0.032146, -0.036517, -0.008713, -0.028697, -0.00623, -0.02102, -0.034729, -0.052376, -0.018445, 0.010915, -0.031752, -0.040086, -0.062509, -0.030275, -0.045756, -0.028015, 0.052238, 0.031743, 0.028852, 0.021851, 0.030683, 0.008241, -0.035571, 0.00307, -0.028792, -0.074395, -0.080264, -0.028948, -0.020288, -0.032785, -0.004792, -0.004001, 0.070082, 0.072408, 0.019391, 0.015372, 0.03021, 0.013694, 0.00428, -0.025103, -0.031, -0.040795, -0.043242, -0.04342, 0.020195, 0.031764, 0.067508, 0.038667, 0.065582, 0.039143, 0.024574, 0.006106, 0.058817, -0.038844, -0.052858, -0.038233, 0.003568, 0.001428, 0.0026, 0.012201, 0.076617, 0.050786, 0.040026, 0.024856, 0.000935, -0.044257, -0.031253, -0.007394, -0.00553, -0.033929, 0.008139, -0.015777, 0.015813, 0.02361, 0.068287, 0.038693, 0.061225, 0.052458, 0.051297, 0.048954, 0.029382, 0.008624, -0.017282, -0.004055, 0.012563, 0.012126, -0.013819, -0.033745, -0.012501, 0.012662, 0.037267, 0.02326, -0.023703, 0.010263, 0.005399, 0.01569, -0.035315, 0.008338, -0.007328, -0.014885, 0.017017, 0.017998, 0.061592, 0.04469, 0.029975, 0.072081, 0.091871, 0.106063, 0.061214, 0.031365, 0.046258, 0.037208, 0.017494, 0.000395, 0.000328, -0.006305, -0.057206, -0.040107, 0.03934, 0.046615, 0.047838, 0.038753, -0.004825, 0.01912, -0.019924, 0.040884, 0.023181, -0.019217, -0.007473, 0.020597, 0.059499, 0.077782, 0.094987, 0.080459, 0.102433, 0.034926, 0.020051, 0.035326, 0.034683, 0.033252, 0.009312, 0.0, 2.4e-05, -0.008969, -0.052036, -0.040394, 0.001984, 0.042544, 0.045738, 0.023706, 0.051382, 0.013425, -0.026023, -0.040489, -0.014973, -0.05715, -0.050328, -0.013586, 0.023541, 0.073186, 0.085816, 0.088562, 0.085808, 0.054292, 0.044267, 0.03443, 0.009474, 0.001391, -0.004525, 2e-06], [-0.0, -0.0, -0.0, -0.0, -0.0, -0.001971, -0.002051, -0.006086, -0.008368, -0.011932, -0.028322, -0.059459, -0.05429, -0.073224, -0.063648, -0.055216, -0.047572, -0.030946, -0.0373, -0.026568, -0.021384, 0.001489, -0.010761, 0.001879, 0.016525, 0.015261, 0.009966, 0.011936, -0.0, -2e-06, -3.2e-05, -0.008833, -0.005783, -0.00987, -0.024421, -0.033105, -0.037846, -0.016102, -0.038103, -0.069263, -0.073727, -0.085674, -0.083418, -0.089544, -0.104713, -0.067677, -0.033965, -0.041303, -0.053246, -0.065738, -0.044576, -0.027781, -0.003302, 0.024398, 0.010886, 0.000166, 0.0, 0.0, -7.4e-05, -0.001031, -0.013453, -0.007589, -0.032072, -0.040795, -0.055695, -0.073637, -0.065692, -0.115328, -0.144914, -0.13543, -0.165316, -0.120295, -0.106686, -0.119811, -0.07307, -0.070291, -0.068825, -0.056293, -0.013834, 0.012332, -0.012113, 0.018248, 0.024692, 0.01739, -0.0, -0.000455, -0.000359, -0.002769, -0.0062, -0.012337, -0.047053, -0.07672, -0.110836, -0.115403, -0.129346, -0.130395, -0.177447, -0.230512, -0.193448, -0.154453, -0.081659, -0.104565, -0.053744, -0.046423, -0.034504, 0.012576, 0.031947, -0.012691, -0.016635, -0.0206, -0.014195, -0.009667, 0.0, -5.5e-05, -0.000619, -0.012003, -0.024378, -0.030208, -0.083055, -0.129627, -0.122497, -0.176935, -0.177727, -0.17935, -0.136192, -0.158191, -0.07119, -0.058256, -0.031981, -0.020616, -0.017928, 0.006718, 0.003267, -0.004275, -0.008456, 0.014031, -0.005321, -0.041646, -0.000304, 0.017819, -0.0, -1.7e-05, -0.004162, -0.018842, -0.031498, -0.055225, -0.088522, -0.126834, -0.175765, -0.216914, -0.206091, -0.174897, -0.114639, -0.04559, -0.013993, -0.006466, 0.045497, 0.04968, 0.034512, 0.014175, 0.00197, 0.039452, 0.012718, 0.018328, -0.032157, -0.025568, -0.023805, 0.005796, -6e-06, -0.002997, -0.013481, -0.020582, -0.07011, -0.085397, -0.127613, -0.193401, -0.185791, -0.199533, -0.189859, -0.114788, -0.035209, 0.011633, 0.072953, 0.071382, 0.004222, 0.032892, 0.014803, 0.031375, 0.00338, -0.002602, 0.03019, 0.023184, 0.018029, 0.009827, -0.006252, 0.02242, -0.003783, -0.006702, -0.025609, -0.03347, -0.092424, -0.136605, -0.160862, -0.198152, -0.215844, -0.203181, -0.102559, -0.0045, -0.000578, 0.021742, 0.061135, 0.022391, 0.014187, -0.014389, 0.02059, -0.021844, 0.012866, 0.046811, 0.018495, -0.024585, 0.022225, 0.026382, 0.036539, 0.089472, -0.001136, -0.009526, -0.025509, -0.015643, -0.086699, -0.139887, -0.186403, -0.213856, -0.177409, -0.063685, -0.034247, 0.037185, 0.031423, 0.011121, 0.053199, 0.020875, -0.001151, 0.027418, 0.025623, 0.00216, 0.020861, -0.013878, 0.019342, -0.010986, 0.040555, 0.048987, 0.068242, 0.107406, -0.003451, -0.013942, -0.049615, -0.086349, -0.10973, -0.16183, -0.182262, -0.148897, -0.13918, -0.011989, 0.081474, 0.027314, 0.01122, 0.026127, 0.02049, 0.025476, -0.036913, 0.034413, 0.051099, 0.005229, 0.026265, -0.012536, 0.03255, -0.009528, 0.004744, 0.079037, 0.069659, 0.10125, -0.005384, -0.03704, -0.065429, -0.082645, -0.122139, -0.152971, -0.217618, -0.182044, -0.053018, 0.052007, 0.079976, 0.092978, 0.040473, 0.021326, -0.001575, -0.017735, -0.022502, -0.001036, 0.033276, -0.000635, 0.02202, 0.003511, 0.02609, 0.05573, 0.057357, 0.089579, 0.067727, 0.063526, -0.016806, -0.026534, -0.0616, -0.113587, -0.148185, -0.203368, -0.193479, -0.110471, 4.3e-05, 0.10056, 0.095307, 0.092625, 0.060309, 0.020846, -0.011275, -0.063251, -0.030246, -0.038402, 0.007133, -0.054949, 0.025441, -0.01323, 0.060501, 0.075083, 0.066477, 0.083623, 0.02406, 0.024016, -0.017426, -0.042169, -0.067734, -0.117424, -0.189821, -0.176432, -0.110204, -0.04018, 0.074758, 0.101507, 0.113092, 0.097994, 0.068474, 0.024975, 0.008893, -0.004003, -0.034404, -0.008745, -0.02015, -0.029411, 0.010347, 0.040884, 0.075037, 0.088552, 0.033977, 0.023463, 0.009939, 0.006671, -0.013895, -0.053494, -0.060204, -0.150672, -0.140933, -0.113357, -0.090135, 0.001712, 0.088586, 0.128222, 0.152903, 0.092635, 0.042129, -0.019254, 0.008227, -0.033053, -0.027027, -0.018704, -0.027079, 0.003173, 0.038798, 0.064918, 0.100773, 0.059984, 0.074446, 0.038914, 0.042035, 0.01616, -0.019056, -0.06119, -0.072227, -0.123629, -0.137734, -0.084542, -0.07835, 0.001701, 0.084693, 0.104791, 0.113183, 0.031226, 0.052371, 0.00347, 0.027859, -0.026631, -0.00706, -0.010231, 0.023727, 0.051275, 0.061404, 0.047766, 0.062711, 0.074195, 0.069205, 0.035951, 0.016127, 0.02699, -0.020598, -0.066217, -0.048845, -0.042669, -0.056684, -0.052524, -0.081562, 0.01832, 0.00916, 0.033892, 0.056774, 0.027823, 0.038076, 0.037988, -0.015919, 0.002395, 0.023592, -0.021184, 0.0524, 0.063173, 0.045064, 0.040632, 0.087283, 0.099968, 0.064657, 0.052467, 0.017887, -0.01675, -0.033701, -0.030042, -0.019019, -0.051975, -0.015998, -0.053833, -0.03996, -0.012107, -0.016741, 0.010777, -0.001905, -0.016385, 0.023601, -0.012486, 0.009655, 0.026906, -0.01281, -0.001687, 0.047345, 0.068337, 0.039638, 0.025478, 0.057179, 0.068373, 0.052916, 0.01122, 0.02592, -0.037398, -0.030148, -0.039547, -0.023861, -0.041978, -0.050702, -0.033944, -0.052183, -0.022751, -0.015853, -0.010957, 0.015728, 0.01083, -0.000604, 0.039192, -0.00854, -0.001081, 0.05709, 0.00044, 0.021231, 0.037214, 0.024389, -0.031013, 0.037017, -0.002915, -0.001947, 0.006879, 0.020119, -0.008416, -0.032769, -0.049306, -0.037861, -0.074556, -0.066592, -0.019252, -0.041859, 0.000556, 0.010272, -0.040345, -0.025111, 0.031608, -0.020169, 0.042859, 0.036418, 0.060216, 0.017542, 0.051071, 0.042957, 0.017212, 0.064394, 0.010456, 0.011371, -0.014768, -0.031951, -0.019052, -0.006969, 0.009968, -0.01415, -0.020784, -0.040289, -0.043906, -0.075296, -0.065377, -0.01997, -0.025621, -0.006319, -0.01738, 0.009978, 0.021174, 0.059924, 0.016778, 0.022908, 0.029183, 0.024706, 0.021284, 0.034467, 0.000565, 0.010316, -0.026258, 0.000225, -0.009612, -0.006839, 0.015778, 0.008239, 0.026243, -0.049011, -0.02444, -0.063363, -0.055914, -0.054552, -0.025155, 0.009665, 0.00386, 0.006537, -0.028557, -0.011749, 0.024633, 0.031182, -0.013483, 0.001425, 0.02024, 0.016216, 0.013805, 0.026057, 0.000886, -0.040702, 0.012987, 0.007109, 0.017812, 0.000459, 0.014482, 0.008098, 0.015584, -0.055174, -0.031731, -0.064925, -0.038443, -0.00064, -0.028946, 0.008186, -0.030078, 0.023897, -0.05429, -0.001239, -0.027705, -0.01104, -0.004775, 0.047542, -0.012686, 0.000147, 0.001477, 0.005354, -0.007057, 0.026146, 0.00758, -0.014111, 0.018922, -0.021524, 0.013743, -0.02126, -2.5e-05, -0.042594, -0.034111, -0.060131, -0.016608, -0.011687, 0.02926, -0.018554, 0.005914, -0.031607, -0.027895, -0.050909, -0.029054, -0.007942, -0.008777, 0.010841, 0.005686, -0.035229, 0.00664, 0.006454, 0.000244, 0.014842, 0.023337, 0.006297, 0.027727, 0.049822, 0.010266, 0.005425, 0.034449, -0.036526, -0.031641, -0.071781, -0.036407, 0.012653, 0.008102, 0.02265, 0.000971, -0.012304, 0.004636, 0.005749, -0.010212, 0.007994, -0.03335, -0.007921, -0.015875, 0.0035, -0.058509, -0.03315, -0.004291, -0.001145, 0.031139, 0.001759, 0.03582, 0.028684, 0.075922, 0.039717, 0.030124, -0.023833, -0.012277, -0.00378, -0.012687, 0.017615, 0.00311, -0.003189, -0.007823, 0.009588, 0.028812, -0.028005, 0.019894, -0.020415, -0.011554, 0.007051, -0.023798, -0.030852, -0.004624, -0.00649, -0.00242, 0.024147, 0.032331, 0.013473, -0.010131, 0.065834, 0.04232, 0.037506, 0.019202, -0.016443, -0.029149, -0.009898, -0.021893, -0.005969, 0.009381, 0.005882, -0.011277, 0.022066, -0.038528, 0.0335, 0.009101, -0.020962, 0.000846, -0.04217, -0.020389, -0.012677, 0.003864, -0.03368, -0.022364, -0.020244, -0.021164, -0.024251, -0.011802, 0.010181, 0.036292, 0.016294, 0.011652, -0.002581, -0.001315, -0.036918, -0.067452, -0.034787, -0.021435, 0.013582, -0.00306, 0.012143, 0.02042, -0.007503, -0.017546, 0.016757, -0.023637, -0.029946, -0.027035, -0.019937, 0.005843, -0.009735, -0.02864, -0.007557, -0.034695, 0.014773, 0.024531, -0.014896, 0.005548, 0.001253, 0.003424, 5e-06, -0.001955, -0.009078, -0.04309, -0.02535, -0.031288, 0.013557, -0.003669, 0.003774, -0.015192, 0.009539, -0.024809, 0.013243, 0.01113, 0.010506, 0.010313, 0.001662, 0.004497, -0.027853, -0.027766, 0.007665, 0.010634, -0.007505, 0.004763, -0.007921, -0.005294, -0.011157, -0.009176], [0.0, -0.0, -0.01174, -0.011849, -0.01128, -0.02584, -0.045781, -0.063878, -0.05222, -0.053843, -0.055663, -0.08969, -0.082959, -0.03006, -0.052472, -0.018929, -0.072084, -0.061325, -0.058282, -0.065585, -0.062212, -0.014832, 0.003634, 0.008158, -0.011484, -0.026418, -0.007245, -9e-05, -0.0, -0.0, -0.010992, -0.027121, -0.027506, -0.045386, -0.08149, -0.08101, -0.085731, -0.084099, -0.097439, -0.094964, -0.072301, -0.066418, -0.07606, -0.087876, -0.059469, -0.063283, -0.037144, -0.020292, -0.052014, 0.027632, 0.059869, 0.028483, -0.015324, -0.044546, -0.024239, -0.00764, 0.0, -0.0, -0.017418, -0.047725, -0.039696, -0.025915, -0.057514, -0.054849, -0.046839, -0.09081, -0.077988, -0.051401, -0.043805, -0.062213, -0.039686, -0.060272, -0.024219, -0.072791, -0.067553, -0.036975, -0.020274, 0.056463, 0.025652, -0.002452, -0.010197, -0.014732, 0.007026, 0.001646, 0.0, 0.004802, -0.006736, -0.051018, -0.062609, 0.008422, -0.002236, -0.043313, -0.006797, -0.048677, -0.041302, -0.033804, -0.05121, -0.046221, -0.046711, -0.019981, 0.029297, 0.002039, -0.03942, -0.042034, -0.017678, 0.033799, 0.012182, 0.040584, -0.035663, 0.017613, -0.006366, 0.005548, 1e-06, -0.015879, -0.004778, -0.056374, -0.04259, -0.025298, 0.043884, 0.055237, -0.016465, -0.005807, -0.053847, -0.039413, -0.016441, -0.036338, 0.015739, 0.004033, -0.012908, -0.005592, -0.020511, -0.048257, 0.001658, -0.004771, 0.052752, -0.007284, 0.015243, 0.009731, 0.022672, 0.022223, 0.007801, 0.014112, -0.014103, -0.010725, -0.0133, 0.00269, -0.013543, 0.004166, 0.007753, -0.034665, -0.009935, -0.055441, -0.018547, -0.013469, -0.006329, -0.01324, -0.025512, -0.021043, -0.032691, -0.063721, -0.013503, 0.029031, 0.052322, 0.017968, -0.021948, 0.020306, 0.012643, 0.009236, 0.007234, 0.04927, 0.009518, -0.024768, -0.004641, -0.022019, -0.043277, 0.002658, -0.033442, -0.024443, -0.014559, -0.002871, -0.024593, -0.00955, -0.01459, -0.028782, -0.010958, -0.058676, -0.030268, -0.017394, 0.051468, 0.009082, 0.042466, 0.005786, 0.00305, -0.029419, 0.005633, -0.020934, 0.006017, 0.057007, 0.024052, -0.008507, 0.002367, 0.001455, 0.018115, -0.022358, -0.054239, -0.05817, -0.039803, -0.014149, -0.018109, 0.036824, -0.031098, 0.000485, -0.01348, -0.035323, -0.020012, -0.01495, 0.003308, -0.050959, -0.014211, 0.042368, 0.055608, -0.022717, -0.021667, -0.05247, 0.019307, 0.028358, 0.023539, 0.029758, 0.005045, 0.023286, -0.005773, -0.012795, -0.009683, -0.028562, 0.001103, -0.045006, -0.019706, -0.034639, -0.014975, -0.00528, -0.007606, -0.04076, 0.055148, -0.017304, -0.017003, -0.034725, -0.010169, 0.019668, -0.027847, -0.056396, -0.075902, -0.077815, 0.021963, 0.019872, -0.018561, -0.00125, 0.033053, 0.049673, 0.022416, -0.006895, -0.049165, 0.026639, -0.010603, -0.012655, -0.044097, -0.005596, 0.01059, 0.002778, -0.021834, 0.014409, 0.019332, -0.036751, 0.028705, 0.01254, -0.021844, -0.046748, -0.079797, -0.089907, -0.132062, -0.071772, 0.019772, 0.007021, 0.037117, 0.026081, 0.023036, 0.040503, 0.00234, 0.001857, 0.007614, -0.023237, -0.010921, 0.01666, 0.019309, -0.006416, 0.00035, -0.025005, -0.007117, 0.032828, 0.004377, 0.015727, 0.000134, -0.01366, -0.066903, -0.021252, -0.066665, -0.093319, -0.071634, -0.069818, 0.017526, 0.023711, 0.005415, 0.000119, 0.014888, 0.051126, 0.012322, -0.026192, 0.033091, 0.031377, -0.002818, 0.01596, -0.012854, -0.020013, -0.053261, -0.024337, -0.001696, 0.040487, -0.010129, 0.032019, 0.019837, -0.018308, -0.067963, -0.03534, -0.064646, -0.045952, -0.057078, -0.01729, 0.022218, 0.055602, 0.04312, 0.013093, 0.005501, 0.004778, 0.006925, 0.004352, 0.022333, -0.005216, 0.056553, -0.011006, 0.004046, -0.042487, -0.097693, -0.013849, 0.023939, 0.048404, 0.032091, 0.023658, -0.01246, 0.015287, 0.034217, -0.063908, -0.073327, -0.071105, -0.126643, -0.088595, -0.001338, -0.000874, -0.012422, -0.008898, 0.021151, -0.015301, 0.012018, -0.034046, 0.005617, 0.04795, 0.030486, -0.005328, -0.033745, -0.062709, -0.073941, 0.000408, 0.094218, 0.062351, 0.035763, 0.038556, 0.013399, -0.001936, 0.019173, -0.012091, -0.04843, -0.059843, -0.034841, -0.084603, -0.015977, 0.025553, -0.015022, -0.022745, -0.040609, 0.004133, 0.012206, 0.002823, -0.006462, 0.028926, 0.054659, 8.5e-05, -0.047401, -0.068239, -0.037782, 0.011851, 0.094063, 0.084115, 0.062507, 0.065978, 0.021123, 0.069716, 0.016508, 0.073291, 0.017553, -0.009809, -0.019159, -0.037324, 0.005677, 0.017424, 0.005995, -0.009546, -0.026747, -0.015242, 0.021781, 0.047031, 0.044604, 0.009099, 0.01798, 0.010828, -0.092956, -0.102289, -0.047255, 0.058067, 0.110262, 0.09986, 0.035682, 0.024611, 0.0242, 0.005838, -0.01057, 0.043878, 0.039683, -0.041051, -0.006744, -0.033691, 0.013897, -0.031622, 0.002785, 0.001873, 0.002217, 0.031711, 0.015642, 0.057412, 0.017239, -0.002235, -0.033425, -0.088088, -0.106786, -0.10982, -0.017002, 0.092046, 0.131821, 0.046792, 0.042774, -0.012885, -0.037491, -0.039805, 0.017642, 0.020407, 0.019377, 0.000384, -0.02907, -0.02103, 0.005219, -0.050084, -0.008894, 0.0476, 0.056388, 0.065657, 0.06426, 0.042717, 0.030953, -0.018099, -0.046289, -0.119808, -0.152489, -0.087277, 0.055188, 0.11316, 0.061715, 0.10139, -0.026112, -0.045569, -0.077148, -0.015153, 0.04382, 0.006796, 0.016943, -0.032612, -0.023541, -0.030815, -0.00622, -0.023612, 0.018393, 0.049715, 0.089127, 0.084451, 0.057961, 0.043469, -0.00206, -0.045883, -0.12841, -0.186068, -0.170929, -0.062496, 0.095965, 0.127788, 0.10921, 0.066912, -0.029147, -0.093578, -0.160319, -0.098907, -0.036929, -0.034437, -0.072236, -0.062725, -0.054249, -0.025843, -0.021287, -0.019471, 0.02628, 0.025537, 0.076118, 0.072127, 0.054627, -0.01102, -0.064111, -0.086483, -0.156059, -0.174546, -0.147624, -0.026058, 0.103121, 0.16642, 0.077395, 0.058909, -0.028955, -0.165029, -0.239839, -0.204147, -0.094737, -0.076361, -0.104906, -0.075508, -0.052466, -0.028121, -0.003257, -0.003452, -0.00451, -0.019481, 0.000237, 0.023158, -0.039609, -0.054495, -0.119089, -0.1561, -0.239965, -0.219545, -0.124241, 0.022354, 0.113551, 0.171313, 0.116394, 0.073779, -0.050001, -0.200279, -0.309039, -0.206316, -0.121229, -0.085268, -0.105112, -0.076574, -0.019717, -0.015899, 0.01856, 0.019421, -0.004494, -0.027355, -0.067573, -0.082276, -0.118731, -0.142964, -0.166233, -0.226585, -0.221885, -0.187532, -0.081947, 0.045991, 0.151616, 0.155654, 0.100195, 0.059689, -0.033363, -0.145772, -0.24962, -0.137826, -0.160864, -0.150921, -0.077883, -0.057181, -0.009283, -0.01898, -0.001273, 0.00998, -0.001572, -0.026035, -0.059292, -0.074444, -0.119351, -0.16012, -0.175526, -0.21573, -0.176568, -0.122693, -0.089723, 0.018661, 0.072771, 0.078204, 0.071721, 0.055235, 0.0487, -0.139716, -0.198416, -0.150868, -0.154464, -0.120621, -0.068666, -0.034141, 0.004136, -0.020371, -0.00036, -0.002505, -0.007782, -0.034677, -0.096725, -0.136249, -0.132692, -0.168485, -0.218398, -0.198818, -0.186006, -0.130338, -0.054655, -0.027023, 0.012088, 0.042324, 0.046526, 0.054706, 0.059941, -0.098785, -0.141926, -0.184321, -0.146186, -0.13703, -0.087395, -0.050644, -0.015107, -0.015205, -7.7e-05, -0.001854, -0.00439, -0.056116, -0.098775, -0.138385, -0.143966, -0.191905, -0.181054, -0.177419, -0.124728, -0.092257, -0.013579, -0.042344, 0.030512, 0.005585, -0.0102, 0.084157, 0.076749, -0.036951, -0.146333, -0.215807, -0.156833, -0.103131, -0.077581, -0.05795, -0.032987, -0.018758, -8.3e-05, -0.000899, -0.00421, -0.030468, -0.056388, -0.115896, -0.127552, -0.143606, -0.181599, -0.138017, -0.101819, -0.016072, -0.014587, -0.017402, -0.032107, -0.000397, 0.06475, 0.105624, 0.068, -0.002619, -0.127725, -0.187461, -0.148681, -0.06649, -0.057546, -0.055076, -0.032157, 0.00064, 0.0, -2e-06, -0.003255, -0.026961, -0.064452, -0.058282, -0.122281, -0.106867, -0.128486, -0.135219, -0.065196, -0.067571, -0.035506, -0.053906, -0.072909, 0.007171, 0.028493, 0.116767, 0.079906, 0.012385, -0.067047, -0.095629, -0.084884, -0.060875, -0.063998, -0.053234, -0.032454, -0.014439, -0.0, -2.5e-05, -0.012205, -0.023287, -0.041539, -0.052281, -0.08824, -0.083033, -0.074563, -0.067019, -0.007149, 0.009502, 0.003623, -0.01931, -0.018979, 0.015091, 0.040418, 0.089352, 0.114184, 0.108963, -0.003563, -0.010243, -0.018642, -0.045033, -0.031575, -0.032773, -0.023543, -0.014884], [-0.0, -0.0, -0.0, 0.0, -0.0, 8.3e-05, -0.000547, -0.001355, 0.001208, 0.010815, 0.017363, 0.018877, 0.024604, 0.024469, 0.020759, 0.014308, -0.009133, -0.017115, -0.002487, -0.009066, -0.00012, -0.016034, -0.022174, -0.029189, -0.021125, -0.01908, -0.010136, -0.000291, -0.011642, -0.011325, -0.011325, -0.009284, -0.00534, 0.002937, -0.003356, 0.003481, -0.020471, -0.000971, -0.007822, 0.008833, 0.003865, 0.003325, 0.023584, 0.004897, 0.014017, 0.004903, 0.000318, 0.014975, 0.02673, -0.04422, -0.031685, -0.011959, -0.028161, -0.028253, -0.031457, -0.002174, -0.011709, -0.009748, -0.008852, -0.003648, 0.005152, 0.003358, -0.018602, -0.020744, -0.046921, -0.015706, 0.0117, 0.01074, -0.007391, -0.013502, -0.025871, -0.027065, 0.027967, -0.001304, -0.005599, 0.02616, 0.042977, -0.013757, 0.000503, -0.0435, -0.045499, -0.056178, -0.035602, -0.001719, -0.010557, -0.010804, -0.014466, -0.022655, -0.00047, -0.064493, -0.037744, -0.052457, -0.032412, -0.04133, -0.00422, -0.037746, -0.043229, 0.025802, 0.026842, -0.007102, 0.053681, -0.004188, 0.043142, 0.012856, 0.000556, -0.038043, -0.027725, 0.012622, 0.013662, -0.041036, -0.043686, -0.027124, -0.002337, 0.012149, 0.023079, -0.023823, -0.012067, -0.018224, -0.029753, -0.011885, -0.060287, -0.043044, 0.00716, -0.009916, 0.021951, -0.001675, -0.019212, 0.016693, 0.012553, -4.1e-05, 0.021287, 0.024886, 0.025227, -0.012068, -0.056193, 0.007663, -0.01691, -0.018201, -0.018353, 0.015836, 0.003213, 0.003196, 0.000551, -0.009573, -0.044081, -0.031371, -0.021435, -0.039101, -0.067296, -0.072613, -0.054413, 0.022918, 0.023073, -0.009693, -0.000291, -0.007586, 0.028067, 0.022606, 0.01734, 0.040244, 0.041845, 0.039208, -0.035449, -0.021422, -0.015435, -0.006964, -0.037173, -0.002582, 0.005155, -0.006226, 0.00973, -0.003811, -0.044085, -0.033116, 0.025053, -0.014649, -0.038608, -0.064857, -0.031606, -0.044832, -0.012597, -0.024623, -0.02897, -0.038042, -0.002823, 0.029381, 0.062917, 0.022841, 0.026852, 0.049858, -0.03441, -0.063394, -0.039928, -0.032371, -0.040421, -0.045767, -0.002692, -0.015979, 0.008121, -0.05167, -0.016103, -0.001397, 0.005549, -0.06053, -0.051563, -0.050975, -0.055237, -0.044672, -0.050945, -0.036446, -0.052623, -0.017448, -0.004603, 0.037015, 0.047299, 0.058181, 0.034901, 0.01581, -0.031496, -0.060526, -0.045674, -0.02412, -0.058237, -0.039895, -0.004382, 0.001615, -0.024549, -0.040226, -0.031879, -0.051774, -0.020635, -0.063167, -0.06563, -0.038671, -0.064324, -0.07723, -0.02177, -0.073117, -0.051785, -0.002598, 0.000279, -0.005545, 0.037663, 0.009862, -0.034537, -0.029326, -0.05685, -0.056558, -0.095359, -0.033466, -0.062563, -0.053044, 0.024314, -0.013956, -0.021582, -0.017877, -0.033802, -0.026189, -0.043996, -0.060003, -0.047829, -0.047034, -0.095618, -0.062363, -0.090858, -0.084142, -0.015406, -0.020062, 0.028121, 0.014554, -0.009443, -0.014898, -0.049674, -0.054673, -0.040047, -0.046093, -0.045537, -0.035935, -0.021601, -0.035934, -0.001165, -0.02007, -0.042347, 0.003565, -0.009279, -0.036913, -0.047084, -0.056115, -0.036669, -0.044713, -0.118022, -0.129465, -0.14027, -0.084842, -0.061358, -0.010326, -0.014461, -0.002679, -0.014055, -0.05905, -0.083482, -0.100273, -0.12337, -0.088819, -0.050104, -0.075419, -0.098587, -0.079629, -0.030981, -0.027959, -0.042288, -0.015483, -0.054037, -0.066645, -0.094528, -0.092853, -0.115216, -0.088885, -0.114512, -0.113782, -0.179604, -0.098679, -0.039555, -0.035131, -0.048789, -0.060097, -0.070014, -0.097138, -0.162887, -0.174759, -0.154171, -0.17137, -0.164593, -0.14109, -0.157392, -0.09544, -0.033273, -0.034949, -0.018759, -0.021119, -0.080974, -0.085093, -0.078166, -0.088895, -0.083742, -0.134502, -0.112524, -0.14558, -0.129207, -0.024559, 0.015377, -0.030242, -0.065351, -0.041395, -0.080472, -0.11318, -0.175813, -0.181535, -0.201849, -0.207003, -0.20132, -0.164765, -0.145591, -0.098892, -0.031241, -0.055666, -0.083478, -0.050918, -0.070172, -0.086344, -0.122415, -0.071229, -0.082418, -0.071843, -0.055056, -0.113893, -0.033849, -0.002017, 0.016043, 0.032623, 0.011449, -0.069509, -0.010688, -0.079796, -0.086162, -0.171098, -0.182391, -0.176014, -0.218857, -0.195866, -0.153449, -0.052514, -0.030998, -0.064494, -0.058452, -0.076868, -0.08292, -0.088803, -0.157408, -0.090162, -0.078722, -0.026107, -0.046684, -0.077341, -0.040898, 0.04808, 0.046038, 0.001324, 0.008151, -0.051262, -0.028766, -0.065925, -0.05508, -0.131676, -0.132611, -0.141639, -0.14392, -0.141699, -0.105118, -0.068295, -0.043261, -0.063424, -0.066874, -0.066052, -0.102504, -0.11612, -0.07711, -0.042635, -0.002021, -0.005367, 0.00317, -0.064218, -0.015594, 0.040764, 0.096486, 0.039561, -0.010054, -0.002456, -0.014827, -0.018157, -0.049708, -0.018879, -0.058481, -0.046354, -0.10569, -0.115096, -0.079111, -0.031418, -0.042078, -0.077167, -0.075008, -0.059439, -0.072734, -0.076602, -0.057259, -0.041823, -0.029035, 0.006769, -0.00017, -0.073521, -0.015628, 0.02584, 0.071744, -0.005697, 0.03286, 0.001119, -0.053208, -0.045954, 0.007221, 0.022042, 0.004415, -0.035056, -0.072137, -0.044636, -0.046606, -0.015817, -0.011222, -0.040361, -0.055102, -0.013789, -0.078528, -0.066915, -0.079167, -0.060065, -0.013733, -0.004227, -0.025105, -0.052441, -0.027786, 0.016702, 0.023364, 0.018148, 0.020292, -0.025068, -0.040381, -0.038084, 0.005375, 0.024334, -0.042572, 0.001892, -0.035217, -0.045577, -0.02008, -0.044157, -0.010517, -0.016102, -0.035441, 0.024104, 0.045794, -0.049581, -0.024057, -0.073513, -0.026786, -0.009283, -0.015442, -0.043878, -0.049545, -0.030734, -0.028175, 0.056896, 0.011731, 0.02405, 0.058159, 0.024164, 0.03534, 0.015274, -0.014196, -0.009251, 0.02497, 0.006183, -0.039552, 0.008934, -0.001425, -0.001981, -0.020791, 0.033311, 0.019623, 0.036123, -0.00382, 0.018829, -0.027784, -0.023425, -0.021992, -0.082546, -0.046191, 0.016023, -0.004504, 0.067254, 0.059405, 0.075227, 0.075661, 0.089066, 0.08691, 0.055842, 0.021209, -0.011205, 0.03833, 0.053845, 0.034627, 0.013874, 0.030657, 0.014587, 0.014563, 0.010234, 0.020801, 0.015514, 0.012541, 0.040922, 0.040958, 0.006623, 0.073908, 0.016265, 0.073511, 0.041949, 0.053393, 0.115474, 0.174533, 0.112307, 0.135818, 0.140413, 0.143218, 0.096564, 0.08526, 0.106028, 0.050745, 0.064788, 0.06951, 0.038008, 0.08067, 0.064767, 0.089803, 0.015437, 0.063722, 0.014508, 0.033498, 0.0595, 0.04477, 0.122846, 0.128774, 0.095739, 0.10888, 0.165259, 0.14084, 0.153057, 0.196538, 0.16684, 0.234509, 0.17001, 0.132749, 0.133876, 0.156133, 0.118732, 0.13877, 0.108938, 0.113351, 0.079395, 0.059267, 0.092444, 0.104538, 0.117418, 0.078329, 0.077989, 0.119605, 0.126861, 0.114679, 0.124981, 0.144459, 0.149586, 0.112194, 0.168586, 0.139735, 0.118786, 0.134283, 0.18478, 0.166609, 0.144193, 0.10611, 0.140659, 0.155798, 0.106709, 0.112229, 0.117945, 0.099615, 0.085023, 0.034808, 0.092598, 0.127274, 0.137171, 0.107234, 0.088939, 0.084168, 0.090186, 0.134483, 0.06298, 0.114427, 0.088981, 0.055211, 0.048224, 0.077728, 0.102158, 0.087389, 0.067065, 0.082601, 0.051879, 0.096091, 0.092968, 0.118315, 0.088162, 0.113574, 0.079549, 0.071774, 0.036818, 0.011398, 0.087402, 0.077791, 0.090485, 0.068296, 0.093923, 0.1082, 0.096305, 0.06036, 0.08538, 0.108976, 0.05842, 0.011404, 0.041466, 0.036491, 0.034709, 0.04805, 0.031943, 0.020679, 0.001444, -0.028973, 0.017974, 0.034292, 0.019521, 0.044915, 0.069312, 0.036788, 0.016039, -0.003238, 0.030729, 0.059304, 0.074969, 0.065231, 0.049162, 0.022668, 0.025728, 0.007683, 0.022879, 0.049406, -0.016467, -0.007812, -0.000872, 0.009454, -0.007579, -0.022199, -0.023092, -0.041577, -0.048428, -0.024353, 0.032131, 0.014866, 0.00066, -0.004734, -0.008239, -0.003672, 0.005029, -0.000331, 0.004379, 0.018076, 0.030337, 0.052054, 0.011453, 0.005583, 0.001485, -0.004925, -0.046253, -0.053688, -0.01316, -0.029397, -0.039544, -0.07704, -0.085046, -0.026766, -0.065082, -0.105111, -0.129557, -0.069574, 0.007207, -0.00971, -0.024386, -0.008275, -0.01801, -0.01744, 0.010181, 0.0, -0.000513, 0.004561, 0.035313, 0.037115, 0.01982, 0.009114, -0.039342, -0.06134, -0.041916, -0.036157, -0.041342, -0.042736, -0.095098, -0.071581, -0.099065, -0.086427, -0.102002, -0.078408, -0.079365, -0.094245, -0.067336, -0.04206, -0.032435, -0.004145, -0.001699, 0.000565, 0.001059], [0.0, 0.0, 0.000306, 2.5e-05, 0.001776, 0.002516, -0.014918, 0.013449, 0.042991, 0.03415, 0.038756, 0.040292, 0.046847, 0.107596, 0.053689, 0.085528, 0.095157, 0.080408, 0.058989, 0.080035, 0.048751, 0.025928, 0.031668, 0.00935, 0.018826, 0.027486, 0.001339, -0.005533, 0.0, -0.008504, -0.006079, 0.003678, -0.009037, -0.031237, -0.028986, -0.069047, -0.007405, -0.039355, -0.039664, -0.05606, 0.017596, 0.031739, 0.033215, 0.032332, 0.064332, 0.024065, 0.018578, 0.121467, 0.079263, 0.054874, 0.074078, 0.056466, 0.022805, 0.047212, -0.004193, -0.004012, 0.0, -0.013113, 0.00497, -0.00164, -0.02019, -0.072185, -0.052771, -0.061426, -0.015246, -0.025469, -0.032269, 0.00293, 0.009584, 0.034095, 0.026822, 0.069204, 0.067148, 0.096973, 0.0967, 0.041412, 0.100027, 0.077968, 0.063292, 0.05668, 0.064867, 0.058567, -0.004617, -0.009006, -0.004905, -0.00743, -0.018582, -0.029812, -0.0423, -0.091744, -0.05785, -0.057177, -0.017524, 0.023035, 0.014346, 0.049964, 0.031884, 0.051636, 0.082054, 0.136411, 0.080337, 0.070229, 0.10704, 0.087039, 0.09221, 0.053399, 0.021115, 0.104609, 0.075678, 0.054911, 0.018291, 0.015074, -0.023725, -0.024372, -0.034158, -0.065828, -0.023181, -0.103092, -0.068349, -0.047768, 0.02833, 0.001998, 0.004264, 0.050317, 0.058259, 0.074535, 0.118206, 0.089335, 0.086812, 0.082297, 0.094065, 0.057326, 0.055737, 0.0053, -0.028433, 0.003959, -0.001898, -0.066521, -0.069925, -0.001212, -0.027385, -0.072768, -0.075412, -0.061474, -0.027934, -0.055917, -0.019178, 0.01882, 0.066927, 0.032226, 0.048345, 0.081183, 0.081745, 0.113873, 0.126915, 0.126335, 0.096546, 0.049833, 0.003629, 0.009914, 0.017825, -0.028201, -0.049356, -0.051826, -0.059595, -0.074441, -0.072943, -0.045879, -0.024286, -0.083894, -0.103371, -0.101613, -0.039557, -0.022477, 0.036093, 0.030355, 0.11032, 0.078502, 0.09099, 0.116081, 0.140778, 0.113407, 0.068893, 0.010699, 0.007003, -0.015123, -0.070562, -0.11743, -0.139862, -0.153249, -0.138079, -0.168842, -0.150481, -0.119829, -0.108527, -0.059729, -0.018649, -0.039388, -0.029352, -0.050206, -0.013692, 0.010608, 0.024192, 0.017231, 0.069337, 0.063116, 0.106865, 0.112887, 0.114201, 0.03617, -0.044899, -0.140371, -0.216416, -0.24683, -0.284831, -0.259186, -0.245279, -0.272437, -0.289621, -0.257536, -0.206223, -0.147848, -0.110699, -0.062631, 0.010124, -0.022123, 0.033568, 0.011028, 0.032073, 0.037155, 0.031772, 0.084498, 0.046001, 0.088595, 0.0703, 0.061287, 0.014219, -0.072565, -0.196489, -0.245674, -0.281835, -0.245332, -0.303833, -0.301521, -0.265204, -0.267654, -0.258366, -0.220582, -0.194503, -0.159382, -0.100853, -0.080177, 0.003786, -0.00897, -0.006567, 0.021825, 0.090252, 0.070666, -0.015846, 0.086977, 0.074642, 0.096941, 0.066981, 0.014849, 0.011335, -0.140282, -0.219884, -0.213647, -0.177529, -0.13175, -0.165673, -0.194283, -0.177088, -0.157426, -0.180136, -0.133951, -0.115658, -0.08481, -0.069323, -0.030912, -0.007403, 0.021443, 0.056833, 0.06921, 0.049714, 0.048511, 0.075177, 0.037433, 0.026414, 0.028708, 0.010023, -0.025943, -0.101853, -0.142344, -0.153367, -0.069388, -0.066299, -0.087165, -0.045482, -0.060345, -0.035742, -0.068051, -0.038688, 0.003292, -0.005146, 0.041195, -0.004502, 0.004738, -0.003356, 0.030672, 0.097298, 0.095713, 0.100526, 0.03563, 0.08812, 0.050438, 0.011704, 0.031264, 0.004848, -0.048039, -0.115134, -0.141897, -0.114583, -0.052963, -0.019124, 0.02283, 0.076563, 0.003335, 0.038699, 0.033905, 0.033461, 0.092458, 0.091899, 0.105677, 0.073474, 0.065902, 0.008968, 0.072299, 0.066545, 0.108598, 0.036917, 0.017276, 0.012334, -0.019431, 0.043883, -0.034867, -0.040739, -0.10491, -0.137637, -0.112697, -0.120857, -0.035152, -0.011048, 0.061835, 0.05254, 0.0861, 0.091997, 0.078583, 0.106735, 0.159301, 0.118116, 0.127823, 0.097178, 0.076518, 0.048436, 0.065462, 0.063113, 0.042193, 0.027881, 0.0447, 0.004962, -0.023304, 0.033629, -0.024892, -0.043937, -0.151966, -0.116416, -0.070302, -0.027681, -0.021308, 0.05979, 0.043425, 0.104264, 0.070232, 0.068979, 0.037428, 0.078533, 0.108791, 0.144147, 0.077954, 0.0406, 0.057713, 0.059728, 0.062545, 0.044595, 0.047131, 0.082765, 0.038214, -0.054719, 0.009029, -0.002464, -0.014848, -0.039548, -0.128409, -0.147458, -0.058604, -0.031823, -0.004373, 0.05996, 0.007989, 0.032549, 0.025858, -0.013796, 0.018176, 0.072572, 0.066669, 0.09215, 0.10471, 0.04993, 0.029204, 0.086925, 0.048307, -0.017621, -0.013007, 0.049361, 0.025008, -0.034594, -0.022544, 0.021922, -0.000379, -0.092542, -0.060607, -0.104815, -0.038881, -0.028924, 0.016865, 0.049859, 0.011123, 0.030678, 0.015056, 0.027986, 0.037773, 0.012802, -0.005338, 0.068902, 0.070865, 0.041997, 0.065549, 0.065709, 0.052567, -0.012378, -0.03395, 0.010461, 0.008495, -0.017984, -0.027779, 0.031573, 0.002452, -0.001496, -0.054399, -0.061533, -0.035274, -0.027824, -0.011843, 0.028823, 0.008133, -0.009329, -0.027036, 0.028105, 0.013925, 0.004511, 0.004449, 0.078715, 0.037543, 0.07722, 0.033834, 0.063901, 0.037319, -0.013972, -0.010271, 0.004233, -0.024228, -0.015429, 0.025424, -0.003397, -0.005711, 0.021729, -0.022856, -0.000923, 0.015298, -0.002178, -0.015633, -0.024501, -0.005678, 0.003285, -0.013068, 0.028441, 0.049375, 0.005024, 0.027927, 0.016136, -0.004456, 0.041244, 0.028578, 0.064905, 0.014786, 0.009475, -0.025566, -0.011207, 0.006073, -0.002704, 0.042138, 0.022547, 0.022401, 0.015411, 0.008139, 0.030355, 0.04246, 0.034577, -0.002662, 0.004167, 0.034137, 0.016605, -0.013594, -0.029826, 0.033183, -0.003156, -0.016237, -0.045148, -0.04879, -0.010569, 0.017006, 0.03039, 0.077215, 0.01955, -0.000334, -0.011807, 0.028291, 0.011287, 0.045215, 0.005352, 0.029712, 0.082463, 0.028071, -0.008986, 0.014606, 0.017744, -0.040933, -0.028812, 0.046994, 0.027277, 0.016539, -0.007926, 0.022416, -0.02548, -0.023858, 0.001107, -0.040559, -0.007795, 0.003045, 0.018363, 0.01529, 0.0054, 0.008961, -0.035409, 0.056375, 0.003882, 0.011981, 0.022361, -0.000542, 0.043264, 0.060236, -0.002881, -0.006437, 0.039508, 0.026583, 0.017641, 0.018315, 0.003307, -0.011997, -0.011584, 0.019401, -0.007438, -0.001699, -0.024857, -0.048349, -0.033388, -0.020944, -0.030484, 0.001915, -0.014838, 0.032405, 0.008261, 0.01318, 0.021927, 0.008415, 0.031561, -0.031024, 0.011952, 0.028315, 0.031543, -0.002706, -0.004365, 0.017557, 0.042621, 0.031504, 0.033088, -0.019372, -0.017282, -0.019146, -0.028762, -0.05305, -0.050092, -0.073183, -0.072477, -0.033721, -0.014782, -0.01967, -0.033079, -0.020286, 0.015353, -0.031749, -0.031188, 0.013823, 0.017315, -0.004994, 0.037244, 0.028014, -0.011981, -0.004087, 0.026153, 0.022868, -0.018287, -0.050177, -0.041217, -0.00572, -0.053803, -0.035232, -0.033518, -0.059003, -0.086536, -0.063435, -0.046573, -0.007813, -0.007644, -0.018908, -0.024177, -0.010551, -0.046762, -0.059447, -0.00074, -0.015951, -0.018293, -0.011582, 0.049194, 0.032335, 0.023975, 0.011616, -0.006967, 0.016203, -0.025204, -0.008403, -0.058791, -0.092518, -0.049907, -0.078112, -0.075507, -0.099211, -0.044854, -0.0274, -0.013153, -0.029889, -0.000189, -0.022275, -0.051518, -0.053132, -0.076334, -0.067267, -0.059825, -0.039276, -0.063305, -0.016526, -0.071809, -0.048533, -0.041424, -0.068169, -0.075653, -0.070689, -0.101664, -0.125905, -0.128293, -0.114119, -0.139577, -0.11549, -0.112421, -0.067944, -0.045914, -0.023315, -0.020752, -0.024794, -4e-06, -0.002757, -0.025842, -0.043857, -0.042721, -0.04403, -0.014533, -0.034351, -0.074973, -0.113229, -0.077736, -0.111375, -0.09232, -0.086956, -0.094941, -0.127609, -0.100797, -0.099238, -0.098072, -0.143938, -0.098142, -0.074931, -0.061522, -0.041096, -0.034793, -0.012102, -0.01551, -0.003316, -0.0, -0.001584, 0.000205, -0.017213, -0.057444, -0.062682, -0.071479, -0.08055, -0.074697, -0.071156, -0.066483, -0.033194, -0.060981, -0.04974, -0.057095, -0.046635, -0.084613, -0.097898, -0.069255, -0.052987, -0.036239, -0.004764, -0.023107, -0.013501, -0.016333, -0.016316, -0.010379, -0.000834, 0.0, -0.00017, -0.006187, -0.011432, -0.021996, -0.028474, -0.056738, -0.075342, -0.041279, -0.04689, -0.018432, -0.035614, -0.02086, 0.017527, -0.009013, -0.01717, -0.044175, -0.056152, -0.040151, -0.029009, -0.019945, 0.006434, -0.003973, -0.001676, -0.013593, -0.01386, -0.002274, 0.0], [-0.0, 0.0, 0.00704, 0.007342, 0.03408, 0.059996, 0.062351, 0.069672, 0.057113, 0.034844, 0.059079, 0.088857, 0.087935, 0.073995, 0.092377, 0.055528, 0.03795, 0.024598, 0.082763, 0.048812, 0.023798, 0.012495, -0.017987, 0.01433, 0.002806, 0.002678, -0.01881, -0.008435, 0.0, -0.0, 0.005404, 0.027835, 0.03512, 0.067293, 0.035032, 0.028892, 0.041932, 0.068907, 0.035435, 0.072573, 0.036803, 0.087493, 0.084499, 0.012128, -0.004659, 0.016085, 0.056089, 0.05198, 0.080319, -0.01722, 0.030946, -0.005343, -0.009279, 0.033448, 0.003818, 0.015064, 0.0, 0.001749, 0.013377, 0.029924, 0.054414, 0.060933, 0.041854, 0.02471, 0.016133, 0.012373, 0.030452, 0.00265, -0.047691, -0.045245, 0.042896, 0.038619, 0.020914, 0.06428, -0.006202, 0.038635, 0.020283, 0.008754, -0.006477, -0.026789, -0.005001, 0.02969, 0.022573, 0.003278, 0.000847, 0.004055, 0.042539, 0.055043, 0.015532, 0.029917, 0.078833, 0.016997, -0.002619, -0.010623, -0.057804, -0.089757, -0.088404, -0.03444, 0.002832, -0.002101, -0.005663, 0.024893, -0.014771, 0.021481, 0.002182, 0.045216, -0.014153, -0.037636, 0.007122, 0.039589, 0.027562, 0.033088, 0.001753, 0.024492, 0.063439, 0.06596, 0.058617, 0.054141, 0.066563, 0.033984, 0.012123, -0.04585, -0.060746, -0.071004, -0.079397, -0.078352, -0.016348, -0.001322, -0.066865, 0.019667, -0.007029, -0.007455, -0.033274, -0.024848, -0.056414, -0.043877, -0.014247, 0.017988, 0.054437, 0.030155, 0.012118, 0.009479, 0.030788, 0.015769, 0.041265, 0.052819, -0.014592, 0.008994, -0.06461, -0.076147, -0.073649, -0.048267, -0.036395, -0.044329, -0.031311, 0.015296, 0.005289, 0.012734, 0.014403, -0.032042, -0.040958, -0.089478, -0.044978, -0.070315, -0.006786, -0.048876, -0.01076, -0.017138, 0.006024, 0.018718, 0.03394, 0.037051, 0.026258, -0.011508, -0.030195, 0.040258, -0.015996, -0.054453, -0.084638, -0.076197, -0.052571, -0.043526, 0.030976, 0.010502, -0.037194, -0.005708, -0.065721, -0.037104, -0.035177, -0.032747, -0.014861, -0.010258, -0.03193, -0.038698, -0.018273, -0.052423, -0.003195, -0.016383, 0.01244, -0.037196, -0.0052, -0.027978, -0.009711, 0.014516, -0.027406, -0.021898, -0.056049, -0.01684, 0.011038, 0.026143, 0.059376, -0.037793, -0.033945, -0.067849, -0.014405, 0.002287, 0.001192, -0.021903, 0.017088, 0.031549, -0.007901, -0.039485, -0.036384, -0.017604, 0.000253, -0.038981, -0.011173, -0.000367, -0.04094, -0.011294, 0.040842, 0.060047, -0.019453, -0.000634, -0.046452, 0.000654, 0.009396, 0.009769, 0.068573, 0.01923, -0.00277, -0.039074, -0.048073, 0.017148, 0.019441, 0.042274, 0.04359, 0.045262, -0.005078, -0.053483, -0.077472, -0.035859, -0.013363, -0.039569, -0.023638, -0.008616, 0.014196, 0.065578, 0.065707, 0.072198, 0.006816, 0.027579, 0.01829, -0.0345, 0.013432, 0.027424, 0.015259, -0.010329, -0.007934, -0.010693, -0.01741, -0.014825, 0.029933, 0.03056, 0.055633, 0.004365, -0.004364, -0.00738, -0.008616, 0.000198, -0.00775, 0.001281, 0.014322, 0.048214, 0.024821, 0.037373, 0.043008, 0.041898, 0.041288, 0.04141, 0.044111, 0.038758, 0.049895, 0.038507, 0.03181, 0.002978, -0.056097, 0.005981, -0.0053, 0.023994, 0.034282, 0.030068, 0.06878, 0.038562, -0.003453, -0.031143, 0.025561, -0.081236, -0.012787, 0.031835, 0.080137, 0.065399, 0.042283, 0.07913, 0.089001, 0.116527, 0.137476, 0.136158, 0.058497, 0.101587, 0.1448, 0.096181, 0.023393, -0.01646, -0.029716, 0.056442, 0.024665, 0.041346, 0.073306, 0.050185, 0.044736, 0.078941, -0.005248, -0.045517, -0.025909, -0.07146, 0.010002, 0.046121, 0.075094, 0.065373, 0.089861, 0.064938, 0.049282, 0.099969, 0.072011, 0.087038, 0.094629, 0.093333, 0.090915, 0.078979, 0.056197, 0.061462, 0.023511, 0.050375, 0.079556, 0.11466, 0.07419, 0.085102, 0.086631, 0.079219, 0.018407, -0.023234, -0.040285, -0.049697, 0.002363, 0.030171, 0.042644, 0.054831, 0.067932, 0.033651, 0.05262, 0.052782, 0.059845, 0.083321, 0.120702, 0.114426, 0.071146, 0.061647, 0.095642, 0.044736, 0.055744, 0.052833, 0.080124, 0.079395, 0.114253, 0.098814, 0.066474, 0.054852, 0.010568, -0.010202, 0.004798, -0.011928, 0.020484, 0.034571, 0.024986, 0.022847, 0.062011, 0.030145, 0.045775, 0.07913, 0.038486, 0.103068, 0.079838, 0.040688, 0.08043, 0.075701, 0.05967, 0.099809, 0.081266, 0.06543, 0.089163, 0.09979, 0.133804, 0.091896, 0.048073, 0.081326, 0.06884, 0.048932, 0.031823, 0.004114, 0.018545, 0.000866, -0.004001, -0.039508, 0.003818, 0.039442, 0.043144, 0.031064, 0.098603, 0.06596, 0.044684, 0.091056, 0.102327, 0.120963, 0.089292, 0.079453, 0.108741, 0.07757, 0.099446, 0.116148, 0.08398, 0.083741, 0.041178, 0.077739, 0.045962, 0.025434, -0.029156, 0.032192, 0.005636, 0.012487, -0.050383, -0.091553, -0.106284, -0.114263, -0.056842, 0.002302, -0.013307, 0.019908, 0.023429, 0.094274, 0.092447, 0.080802, 0.092957, 0.057055, 0.088075, 0.094596, 0.061651, 0.069595, 0.055686, 0.074035, 0.06632, 0.023611, 0.035873, -0.006404, -0.005336, -0.035626, 0.006216, -0.021624, -0.101442, -0.165014, -0.18415, -0.147263, -0.124429, -0.08802, -0.078451, -0.06126, -0.022832, -0.000813, 0.055122, 0.016793, 0.081158, 0.02312, 0.050374, 0.02086, -0.004636, 0.016115, -0.006901, -0.006695, -0.000705, -0.025433, -0.037824, -0.090986, -0.029812, -0.044244, 0.012048, -0.050115, -0.113065, -0.179607, -0.134896, -0.16522, -0.212998, -0.151364, -0.13609, -0.112241, -0.083137, -0.109786, -0.097468, -0.100181, -0.036862, -0.02946, -0.048111, -0.038825, -0.019933, -0.0547, -0.05983, -0.051184, -0.11127, -0.067753, -0.129917, -0.113759, -0.071865, -0.046254, -0.00695, -0.022413, -0.067121, -0.15136, -0.140761, -0.174408, -0.155666, -0.171519, -0.20192, -0.108666, -0.183529, -0.147616, -0.133222, -0.159545, -0.136653, -0.086969, -0.09708, -0.124521, -0.129306, -0.145051, -0.186238, -0.15937, -0.214478, -0.127039, -0.159108, -0.141299, -0.072002, -0.07169, -0.014805, -0.033224, -0.047386, -0.140029, -0.133024, -0.161978, -0.181896, -0.138698, -0.128702, -0.13503, -0.159193, -0.121711, -0.10247, -0.197744, -0.17367, -0.146132, -0.146403, -0.146558, -0.159187, -0.140935, -0.207971, -0.198862, -0.192844, -0.188835, -0.143939, -0.1344, -0.116151, -0.06866, -0.005018, -0.017186, -0.046957, -0.106997, -0.14262, -0.129118, -0.103494, -0.093709, -0.103921, -0.091828, -0.131549, -0.128412, -0.141324, -0.155458, -0.123379, -0.122019, -0.123068, -0.124131, -0.140517, -0.177196, -0.194516, -0.13916, -0.217438, -0.155708, -0.161837, -0.163769, -0.100193, -0.060827, 0.00851, 0.013078, -0.011346, -0.060779, -0.069793, -0.053646, -0.054355, -0.052722, -0.043689, -0.072509, -0.096889, -0.105664, -0.107999, -0.159482, -0.127522, -0.099846, -0.119761, -0.108757, -0.125685, -0.12644, -0.124026, -0.12803, -0.110737, -0.087587, -0.177748, -0.160845, -0.102766, -0.028228, 0.024134, 0.019578, -0.00787, -0.046633, -0.052574, -0.007343, -0.01596, -0.050307, -0.035581, -0.079024, -0.086611, -0.107002, -0.107041, -0.085884, -0.093006, -0.08794, -0.108488, -0.122761, -0.111886, -0.098366, -0.074234, -0.050629, -0.085463, -0.084869, -0.112371, -0.125285, -0.080258, -0.019488, 0.020239, 0.011377, -0.012383, -0.048671, -0.032408, -0.017227, -0.045957, -0.027595, -0.010214, -0.067232, -0.068479, -0.090079, -0.03319, -0.050773, -0.025489, -0.06366, -0.10856, -0.090615, -0.099492, -0.08272, -0.074238, -0.084845, -0.086726, -0.097394, -0.080494, -0.084547, -0.054002, -0.027723, 0.011779, -0.002003, -0.007873, -0.009166, 0.014464, 0.020042, -0.003961, -0.09759, -0.055974, -0.071217, -0.040399, -0.06799, -0.066674, -0.056497, -0.071028, -0.022842, -0.072136, -0.087267, -0.080133, -0.082479, -0.045859, -0.079472, -0.054963, -0.069825, -0.049725, -0.038982, -0.031948, -0.004992, 5.7e-05, -0.007351, 0.0, 0.000405, 0.00749, 0.017343, -0.001931, -0.042983, -0.067867, -0.065028, -0.059216, -0.045972, -0.025454, -0.018385, -0.019461, -0.037297, -0.039672, -0.054686, -0.102845, -0.086188, -0.066341, -0.048825, -0.071114, -0.072723, -0.031846, -0.047945, -0.034527, 0.0, -0.001226, 0.00301, -0.006519, 0.013443, -0.022438, -0.01662, -0.003326, 0.020143, 0.009559, -0.044944, -0.091678, -0.057795, -0.061936, -0.060657, -0.024041, -0.077487, -0.063825, -0.078705, -0.09795, -0.098136, -0.102947, -0.050253, -0.044031, -0.026378, -0.028311, -0.022686, -0.006108, -0.001063], [-0.0, -0.0, -0.0, -0.0, -5e-06, -0.001682, -0.0037, -0.00603, -0.003068, -0.009426, -0.021274, -0.000847, -0.000971, 0.007827, -0.026192, -0.053231, -0.057502, -0.04865, -0.060505, -0.05372, -0.01695, -0.005687, 0.011697, 0.01912, 0.021011, 0.005609, -0.004493, 9.3e-05, -0.0, -0.0, 0.0, -0.013161, -0.00482, -0.005765, -0.022153, -0.013838, -0.016396, -0.038653, -0.026587, -0.01217, -0.009198, -0.033287, -0.047006, -0.06964, -0.108564, -0.109041, -0.051782, -0.067799, -0.079578, -0.022718, -0.028862, 0.002353, -0.009915, 0.013093, 0.005732, 3e-06, -0.0, 0.0, -0.00525, -0.010211, -0.008874, -0.00852, -0.022737, -0.041559, -0.053651, -0.07946, -0.078998, -0.077686, -0.077439, -0.112322, -0.104854, -0.083007, -0.083365, -0.063268, -0.04611, -0.04691, -0.065694, -0.028414, -0.023769, -0.009174, -0.024197, 0.006013, 0.016979, 0.001323, 0.0, -0.000141, -0.012035, -0.024988, -0.032187, -0.035439, -0.056952, -0.047548, -0.071766, -0.077023, -0.077328, -0.077127, -0.111157, -0.150335, -0.137758, -0.123304, -0.060386, -0.058503, -0.09296, -0.063094, -0.081236, -0.061496, -0.067426, -0.023184, 0.002656, 0.012191, 0.020129, -0.019196, -1.4e-05, -0.003731, -0.032355, -0.012915, -0.048052, -0.055525, -0.07199, -0.084748, -0.081691, -0.111188, -0.084943, -0.118653, -0.162741, -0.141694, -0.108604, -0.09222, -0.09903, -0.087627, -0.036232, -0.04921, -0.043684, -0.065608, -0.058907, -0.045789, -0.022973, -0.033617, -0.007379, -0.004615, -0.004217, -0.006211, -0.017729, -0.047955, -0.054935, -0.096474, -0.124388, -0.140731, -0.108455, -0.134521, -0.137959, -0.146454, -0.084328, -0.088676, -0.06706, -0.053064, -0.044365, -0.08843, -0.032014, -0.073566, -0.075679, -0.076901, -0.046906, -0.053665, -0.044766, -0.039668, -0.068931, -0.039671, -0.004921, -0.00832, -0.027112, -0.02582, -0.068897, -0.115229, -0.168812, -0.137117, -0.141312, -0.17634, -0.168331, -0.163713, -0.116383, -0.090564, -0.091179, -0.059964, -0.086801, -0.085611, -0.070774, -0.054878, -0.079218, -0.024041, -0.047153, -0.017744, -0.014985, -0.011185, -0.025678, -0.008932, -0.007157, -0.014623, -0.052783, -0.020259, -0.064212, -0.170025, -0.172515, -0.186032, -0.183556, -0.215453, -0.180642, -0.15885, -0.163548, -0.14391, -0.088183, -0.100207, -0.117364, -0.076795, -0.071137, -0.023709, -0.043383, -0.032632, -0.010701, -0.003751, -0.00093, -0.006144, -0.035238, -0.023869, -0.01209, -0.007968, -0.016617, -0.010512, -0.121653, -0.185087, -0.20543, -0.222493, -0.212656, -0.209214, -0.215861, -0.193571, -0.163025, -0.174158, -0.14143, -0.125375, -0.115766, -0.115603, -0.050781, 0.022232, -0.018986, -0.015885, -0.00056, 0.040826, 0.036515, 0.042381, 0.017635, 0.036155, -0.015166, -0.024496, -0.051933, -0.05128, -0.065897, -0.123321, -0.156694, -0.126761, -0.15995, -0.142333, -0.199743, -0.146908, -0.140542, -0.161954, -0.126351, -0.10849, -0.103454, -0.036528, 0.006527, -0.024046, 0.022044, 0.029588, 0.056125, 0.056317, 0.057929, 0.051686, 0.066848, 0.038636, 0.008162, 0.004899, 0.030763, -0.019425, -0.011931, -0.095845, -0.076817, -0.0689, -0.064955, -0.071978, -0.073893, -0.052608, -0.056952, -0.031429, -0.042072, 0.01543, 0.043139, 0.075827, 0.063653, -0.007282, 0.073377, 0.050388, 0.049822, 0.009506, 0.076163, 0.01426, 0.042685, 0.061925, 0.028288, 0.041351, 0.033623, -0.002356, -0.014332, -0.033444, 0.027262, 0.059368, -0.011574, 0.027207, 0.026062, 0.065102, 0.072183, 0.094595, 0.128608, 0.069715, 0.060002, 0.095004, 0.075945, 0.049847, 0.078734, 0.066895, 0.02395, 0.043106, 0.057725, 0.061573, 0.024857, 0.09455, 0.011701, 0.071274, 0.064734, 0.061762, 0.063084, 0.01706, 0.021359, 0.07549, 0.05318, 0.073801, 0.085887, 0.123634, 0.097538, 0.162921, 0.102408, 0.13494, 0.09487, 0.06604, 0.039294, 0.044704, 0.016712, 0.031482, -0.004941, 0.029134, 0.047289, 0.00955, 0.044874, 0.037972, 0.039286, 0.073629, 0.048494, 0.072792, 0.063816, 0.07094, 0.089072, 0.073335, 0.014136, 0.081782, 0.071482, 0.113977, 0.085402, 0.097866, 0.114179, 0.089453, 0.053442, -0.010185, -0.003368, -0.045584, -0.014351, -0.005392, -0.005167, -0.014264, -0.028429, 0.019508, 0.048474, -0.017441, 0.027187, 0.064899, 0.119073, 0.044954, 0.065148, 0.027712, 0.069371, 0.042627, 0.042607, 0.034354, 0.046744, 0.06376, 0.025009, 0.031585, -0.00975, 0.00262, -0.034308, -0.069716, -0.099485, -0.117305, -0.081052, -0.045956, -0.029032, -0.019128, -0.03512, 0.009882, 0.026344, -0.019773, 0.018795, 0.070675, 0.059102, 0.063629, 0.023726, 0.041565, 0.01646, 0.052667, 0.025154, -0.002198, 0.01832, 0.03972, -0.031479, -0.044835, -0.070138, -0.027606, -0.111639, -0.109793, -0.09758, -0.117437, -0.091673, -0.046142, 0.032346, -0.011066, 0.03374, 0.024414, 0.012759, -0.010034, 0.022236, 0.044947, 0.037697, 0.043133, -0.014002, -0.033071, 0.036204, -0.030471, -0.046961, -0.031388, 0.00371, -0.062166, -0.045523, -0.101093, -0.152593, -0.138744, -0.120728, -0.132015, -0.087986, -0.04349, 0.033941, 0.023477, 0.074584, 0.049117, 0.082955, 0.02402, 0.010207, -0.003323, 0.012694, 0.006781, 0.005843, 0.025058, -0.039183, -0.034425, -0.061613, -0.057818, -0.070073, -0.025151, -0.035155, -0.06765, -0.088377, -0.128661, -0.124159, -0.175006, -0.107434, -0.12766, -0.065627, 0.005398, 0.033774, 0.081626, 0.105593, 0.078551, 0.035019, 0.00685, -0.014018, -0.001276, 0.012795, -0.005934, -0.002014, 0.003912, 0.018132, -0.017334, -0.028619, -0.039418, -0.054278, -0.065495, -0.087231, -0.108883, -0.026999, -0.056278, -0.094716, -0.083499, -0.051392, -0.042193, 0.054382, 0.055843, 0.104119, 0.082284, 0.088737, 0.01796, 0.049163, 0.025472, -0.013285, 0.006744, 0.000577, 0.013958, 0.009994, 0.022184, 0.008882, -0.001985, -0.015889, -0.018863, 0.014294, -0.001146, -0.016982, -0.002423, -0.02147, 0.007881, -0.001375, 0.010086, 0.010981, -0.00285, 0.049033, 0.049416, 0.083953, 0.100357, 0.072006, 0.047622, -0.000238, 0.008157, -0.034659, -0.026714, -0.025244, 0.025135, 0.016814, 0.000452, -0.003098, 0.040149, 0.022176, 0.017916, 0.028665, 0.020413, 0.063228, 0.080981, 0.0563, 0.042468, 0.04792, 0.011715, 0.059837, 0.052633, 0.089835, 0.082892, 0.02075, 0.072224, 0.02328, 0.006519, -0.01566, -0.027752, -0.067834, -0.050846, -0.0205, 0.034713, 0.035036, 0.040117, 0.02086, 0.036509, -0.018198, -0.002283, -0.005711, -0.003305, 0.092149, 0.071164, 0.036796, 0.064432, 0.061824, 0.058893, 0.074928, 0.092922, 0.087566, 0.024691, 0.011776, 0.037058, -0.008159, -0.050279, -0.105022, -0.111421, -0.068896, -0.042335, -0.023279, -0.040473, -0.008094, 0.043055, 0.011998, 0.018781, 0.014911, 0.026962, 0.011825, 0.035394, 0.041601, 0.01932, 0.038384, 0.057339, 0.032222, 0.063702, 0.041898, 0.03706, 0.07923, 0.042178, 0.04451, -0.025318, -0.026295, -0.065085, -0.113292, -0.076937, -0.09276, -0.034834, -0.030793, -0.028931, -0.046285, -0.02786, -0.014939, -0.008522, -0.006973, -6.5e-05, 0.038317, 0.06503, 0.01893, 0.024441, 0.06064, 0.075027, 0.061587, 0.083521, 0.085485, 0.066366, 0.062714, 0.017524, -0.025957, -0.059518, -0.075252, -0.118248, -0.091272, -0.094881, -0.079657, -0.020229, -0.034587, -0.034233, -0.033882, -0.065623, 0.024929, -0.018482, 0.026884, -0.03104, -0.023157, 0.019596, -0.009256, 0.020569, 0.070562, 0.045404, 0.023821, 0.020112, 0.008385, 0.043654, 0.028726, 0.044543, 0.012461, -0.068412, -0.090736, -0.063716, -0.084756, -0.053858, -0.057283, -0.017085, -0.013799, -0.040412, -0.028719, -0.052135, -0.005238, 0.033531, 0.00219, 0.000544, 0.003231, -0.03431, 0.006216, -0.000413, 0.028341, 0.016397, -0.018915, -0.020145, -0.009476, -0.036699, 0.003138, -0.043787, -0.093686, -0.069006, -0.102154, -0.065238, -0.087021, -0.039562, -0.059175, -0.014679, 0.000788, 0.000366, 0.019636, -0.001803, -0.021646, -0.000488, -0.017288, -0.005361, -0.004084, -0.003968, -0.005719, 0.010633, -0.027384, -0.039846, -0.035008, -0.013073, -0.027232, 0.008141, 0.01927, -0.00643, -0.021898, -0.066828, -0.095944, -0.052424, -0.034231, -0.012381, -0.003314, -0.016835, 0.0, 0.001353, 0.002571, 0.005596, -0.004078, -0.00138, -0.004811, -0.000346, 0.015401, 0.033861, 0.01347, 0.041863, 0.022176, 0.013468, 0.037023, 0.008824, -0.008975, 0.004161, 0.06432, 0.046576, -0.006447, 0.005703, -0.035134, -0.036013, -0.008227, 0.013859, 0.002729, -0.0], [-0.0, -0.0, -0.013092, -0.014694, -0.026946, -0.041512, -0.062975, -0.088126, -0.090233, -0.088441, -0.113446, -0.145484, -0.146913, -0.166175, -0.188219, -0.165511, -0.138027, -0.103301, -0.127325, -0.105247, -0.062728, -0.029554, -0.006264, -0.029447, -0.04506, -0.031382, -0.002881, -0.002232, -0.000415, -0.000454, -0.011248, -0.003228, -0.038008, -0.054253, -0.095704, -0.114152, -0.125785, -0.138317, -0.166367, -0.167517, -0.177142, -0.177689, -0.196426, -0.184204, -0.193847, -0.116889, -0.097038, -0.116694, -0.115661, -0.04833, -0.049433, -0.007665, 0.002682, -0.015971, 0.0046, 0.012789, -0.00049, -0.000267, 0.003908, 0.018019, -0.001284, -0.045666, -0.056599, -0.111654, -0.100278, -0.086384, -0.093789, -0.151179, -0.150852, -0.143514, -0.169035, -0.091917, -0.102914, -0.061965, -0.014367, -0.030018, -0.056573, -0.018768, -0.006875, 0.041871, -0.001953, 0.012182, 0.017949, 0.037415, 0.001351, -0.003393, 0.025501, -0.001087, 0.01171, -0.018565, -0.0219, -0.004274, -0.017211, 0.019104, -0.033301, -0.01967, -0.034819, -0.006557, -0.058344, -0.036127, -0.050919, -0.038443, 0.007968, -0.029316, 0.008095, 0.000935, 0.004462, 0.016237, 0.012741, 0.057717, 0.021027, 0.023943, -0.002992, -0.001326, 0.030967, 0.033821, 0.036484, 0.040905, 0.053992, 0.047704, 0.036055, 0.012536, 0.037795, -0.006815, -0.029014, -0.023792, -0.033587, -0.025396, -0.042572, -0.002813, 0.055726, 0.032661, 0.047585, 0.049717, 0.057806, 0.047228, 0.084725, 0.060529, 0.01132, -0.017481, 0.013148, 0.014742, 0.069562, 0.093564, 0.078439, 0.03121, 0.050061, 0.029283, 0.028043, 0.004383, 0.060011, -0.004041, 0.000107, 0.01645, -0.038007, -0.015856, 0.016368, -0.021457, 0.009093, 0.069721, -0.016495, 0.022116, 0.068731, 0.068177, 0.065436, 0.052828, 0.065891, 0.045927, -0.009652, -0.000326, 0.026084, 0.054326, 0.073835, 0.038588, 0.003705, 0.023907, 0.017569, 0.015735, 0.07398, 0.044616, 0.037121, 0.029179, 0.058246, 0.05218, 0.008307, 0.04031, 0.036602, 0.019668, 0.033796, 0.055331, 0.048917, 0.093644, 0.077718, 0.054479, 0.113676, 0.062816, -0.012301, -0.012769, 0.033905, 0.075056, 0.087505, 0.045594, 0.051903, 0.029673, 0.05643, 0.018449, 