{"architecture": [784, 96, 48, 10], "layerNames": ["input", "hidden_1", "hidden_2", "output"], "device": "cpu", "weights": [{"name": "input_to_hidden_1", "shape": [96, 784], "matrix": [[-0.007041, 0.019864, 0.012782, 0.048191, -0.020064, -0.026772, -0.082672, -0.051891, -0.108165, -0.045951, -0.021814, 0.026302, -0.011121, -0.038454, 0.053085, -0.004773, -0.077544, -0.034323, -0.041519, 0.000591, 0.041855, 0.062151, 0.004032, -0.016727, 0.042464, 0.011685, 0.034195, 0.007035, -0.022529, -0.038585, -0.040202, -0.013793, 0.006244, -0.018127, -0.0954, -0.115701, -0.060095, -0.002272, -0.115277, -0.085109, -0.150587, -0.104241, -0.007319, -0.08307, -0.073149, 0.010095, 0.02607, 0.018561, 0.047613, -0.004259, 0.024165, 0.051131, 0.019836, 0.026893, -0.009464, 0.03094, -0.00135, 0.05073, 0.04457, 0.032544, 0.016657, -0.008939, -0.02534, -0.018651, -0.038331, 0.042604, -0.02704, -0.090406, -0.066175, -0.084865, -0.07321, 0.021355, 0.09935, 0.12611, 0.023878, -0.035101, -0.024459, 0.008232, -0.047024, 0.025805, 0.020658, -0.053192, 0.013329, 0.043735, 0.013254, 0.080183, 0.081542, -0.041128, -0.092938, 0.062015, 0.017665, -0.024936, -0.014893, -0.07004, -0.113253, -0.014707, -0.022153, 0.084244, 0.011541, 0.007305, 0.085346, 0.124156, 0.083607, 0.121056, 0.045384, -0.000426, -0.008255, 0.021254, -0.042911, -0.025284, 0.073104, -0.034799, 0.015481, 0.101025, 0.15226, -0.074069, 0.008339, 0.015548, -0.015826, -0.007118, -0.037076, -0.086048, -0.029761, -0.04299, -0.011729, 0.030346, 0.046454, 0.05331, 0.11652, 0.134724, 0.169193, 0.112944, 0.033867, 0.015741, 0.005403, -0.098392, -0.138779, -0.10989, 0.034107, -0.007614, 0.072572, 0.048307, 0.150503, 0.046995, 0.098636, 0.064934, 0.051125, 0.033935, 0.011476, -0.033419, -0.046052, -0.013858, -0.005133, -0.017357, 0.037544, 0.03041, 0.097378, 0.09562, 0.187577, 0.128449, 0.095541, -0.040325, -0.104189, -0.151999, -0.168254, -0.080911, -0.021959, -0.021494, 0.00292, 0.06996, 0.097934, 0.147407, 0.110364, 0.008611, 0.041187, -0.018236, -0.022135, -0.017327, 0.032997, -0.019161, 0.000999, -0.04558, -0.005375, 0.066565, 0.077374, 0.137918, 0.185811, 0.10991, 0.125028, 0.045712, -0.112148, -0.209536, -0.177239, -0.089978, -0.052288, 0.00073, 0.022479, 0.136943, 0.075516, 0.156906, 0.187048, -0.00251, 0.061046, -0.025306, -0.037236, -0.012865, -0.051459, -0.007899, -0.056707, -0.009872, -0.039686, 0.000519, 0.106143, 0.179429, 0.204355, 0.153647, 0.155764, 0.057263, -0.178425, -0.312782, -0.268187, -0.182826, -0.131398, 0.036391, -0.080528, -0.024097, 0.048501, 0.0337, 0.107632, 0.056124, 0.0635, -0.013852, -0.003638, -0.003795, -0.000682, -0.07044, -0.025664, -0.078306, -0.039104, -0.030271, 0.045568, 0.213115, 0.260415, 0.295917, 0.180172, 0.083191, -0.159561, -0.393552, -0.373612, -0.231537, -0.160221, -0.053391, 0.011852, 0.029615, 0.042939, 0.040713, 0.106901, 0.003451, 0.030385, 0.069639, 0.050237, -0.01341, -0.021025, -0.018737, -0.069363, -0.107543, -0.105447, -0.060058, 0.08132, 0.240101, 0.293924, 0.314219, 0.212549, 0.00257, -0.281299, -0.459633, -0.377855, -0.177322, -0.022605, -0.072403, 0.032313, -0.060029, -0.093308, -0.032308, -0.052467, -0.040955, 0.001257, -0.005361, -0.02975, -0.071693, -0.016296, -0.03893, -0.099343, -0.156311, -0.196562, -0.029627, 0.106178, 0.284787, 0.362851, 0.331575, 0.095945, -0.22189, -0.420449, -0.445229, -0.350952, -0.150245, -0.057618, -0.066997, 0.021499, -0.134501, -0.15036, -0.046531, -0.081348, -0.142115, -0.035017, -0.091779, -0.059232, -0.005644, -0.021145, -0.035774, -0.106073, -0.194151, -0.151397, 0.039826, 0.217717, 0.268849, 0.323238, 0.21724, -0.025398, -0.358169, -0.425585, -0.322071, -0.212379, -0.031132, 0.004055, 0.013466, -0.039804, -0.065306, -0.113267, -0.090785, -0.103828, -0.077493, -0.062322, 0.000235, -0.047696, -0.00271, -0.024588, -0.019352, -0.086545, -0.105963, -0.043443, 0.096692, 0.215854, 0.235987, 0.208271, 0.000144, -0.248526, -0.392142, -0.375799, -0.217471, -0.033753, 0.055936, 0.091283, 0.048544, -0.032125, 0.007354, -0.051683, -0.09197, -0.149381, -0.055938, 0.036402, -0.059754, 0.008831, -0.032554, 0.029106, 0.029891, -0.060218, -0.074537, 0.019974, 0.099452, 0.26905, 0.213857, 0.09679, -0.192394, -0.358307, -0.285802, -0.176477, -0.063566, 0.019095, 0.121872, 0.044243, 0.060352, -0.002965, -0.053339, -0.0198, -0.046629, -0.089915, -0.017077, 0.011209, -0.008664, 0.009188, 0.024846, 0.003401, -0.053503, -0.08407, 0.002671, 0.029061, 0.156229, 0.161821, 0.083659, -0.049703, -0.19388, -0.237631, -0.232986, -0.057318, 0.052212, 0.101808, 0.098973, 0.045988, 0.085052, -0.041527, -0.002951, -0.018368, -0.125243, -0.066159, -0.017574, 0.080371, 0.033331, 0.007628, -0.039801, -0.006619, -0.019413, -0.014267, -0.003074, 0.07135, 0.080543, 0.071237, -0.003135, -0.087418, -0.126327, -0.12423, -0.059468, 0.043962, 0.072592, 0.111101, 0.057669, 0.001113, 0.112503, 0.004448, -0.021596, 0.070264, -0.027471, -0.028846, -0.085138, 0.006116, -0.01547, -0.017835, 0.023309, -0.003131, -0.006129, -0.033973, -0.025862, 0.037586, 0.014318, 0.000977, -0.050948, -0.109093, -0.088042, -0.091078, 0.029847, 0.052684, 0.088297, 0.095623, 0.035534, 0.003542, 0.042372, 0.043723, 0.003087, 0.086704, 0.019398, 0.006834, 0.022299, 0.001358, -0.021002, -0.02036, -0.012889, -0.029862, -0.018723, -0.066922, -0.057601, 0.029981, 0.017402, -0.038635, -0.083715, -0.128873, -0.061212, -0.058018, 0.009669, 0.016102, 0.126797, 0.080066, 0.082409, -0.035957, 0.026582, 0.035703, 0.02186, 0.061374, 0.032784, -0.035041, 0.050511, 0.021593, 0.004655, -0.001536, -0.039752, -0.075928, -0.030692, -0.107394, -0.004652, 0.001637, 0.044554, -0.039899, -0.06809, -0.12003, -0.044294, 0.021924, 0.018622, 0.093226, 0.057766, 0.061108, 0.060793, -0.046545, 0.015484, -0.008469, 0.024117, -0.041032, 0.028995, -0.005823, 0.025718, 0.031023, -0.023517, -0.014812, -0.009038, -0.05144, -0.074332, -0.060105, -0.025008, 0.010459, 0.067324, -4.6e-05, -0.043113, -0.048426, -0.007242, 0.048918, 0.047706, 0.023161, 0.048873, 0.037014, 0.049521, -0.035371, -0.042509, 0.105552, -0.015004, 0.025436, 0.075499, 0.058701, 0.007374, -0.016966, 0.001312, -0.064985, -0.083888, -0.051949, -0.080511, -0.033781, 0.026258, 0.039209, 0.005508, -0.012122, -0.020239, 0.013765, 0.047854, 0.011352, 0.049385, 0.022541, 0.035192, 0.134238, 0.09546, 0.043, -0.02421, 0.083044, 0.054951, 0.101821, 0.113067, -0.013934, -0.026067, -0.022841, -0.015553, -0.056622, -0.039223, -0.044792, -0.049089, 0.015857, 0.038023, 0.044108, 0.023334, 0.015353, -0.023596, 0.022475, 0.034708, 0.029305, 0.019706, 0.009966, 0.030609, 0.045882, 0.064932, 0.020133, 0.081475, -0.022501, 0.064893, 0.083235, 0.100581, -0.023579, 0.002082, 0.023885, -0.012706, -0.041707, -0.079214, -0.004885, 0.024356, -0.03239, -0.011978, 0.008273, 0.02366, -0.016129, -0.000571, -0.026693, -0.003597, 0.022515, 0.063681, 0.02058, -0.003954, 0.050651, 0.094026, 0.010076, 0.013789, -0.029602, 0.040428, 0.076937, 0.067677, -0.026133, -0.044879, -0.019935, 0.007574, -0.053314, -0.028446, 0.009651, 0.032762, -0.017515, -0.005613, 0.013192, -0.040626, -0.016215, -0.030823, 0.019918, -0.020108, -0.074799, -0.009645, 0.002524, 0.00945, 0.090745, 0.150212, 0.046634, 0.079176, 0.04084, -0.016333, -0.013185, 0.050914, 0.088347, 0.036006, 0.031745, -0.067282, -0.058777, 0.010716, 0.025831, 0.002896, 0.024121, -0.036037, -0.027625, -0.027385, -0.035801, -0.088031, -0.050782, -0.027659, -0.088009, 0.009902, -0.012107, 0.035586, 0.00816, 0.070134, 0.096453, 0.023238, -0.054092, -0.052618, -0.128413, -0.058948, 0.007141, -0.057548, -0.043444, -0.072479, 0.029959, 0.053841, -0.022223, 0.011147, 0.060467, -0.032683, -0.028918, -0.084352, -0.055029, -0.049718, -0.056663, -0.084176, -0.085124, -0.154828, -0.093484, -0.082642, -0.017783, 0.043862, 0.070612, -0.000562, 0.05988, 0.066253, 0.000452, -0.02316, -0.142185, -0.039941, -0.056362, 0.052255, 0.043525, 0.052909, 0.01041, -0.016228, -0.046797, -0.094498, -0.055232, -0.029697, -0.075779, -0.063364, 0.003198, 0.052374, -0.046846, -0.087406, -0.122792, -0.044815, -0.074684, 0.075619, 0.015861, 0.010189, -0.025076, 0.042946, 0.030941, 0.077373, 0.014921, 0.051153, -0.015608, -0.01546, -0.006967, 0.025462, 0.129416, 0.078991, 0.049996, 0.05147, -0.050022, -0.12054, -0.067747, -0.024531, -0.03121, -0.010823, -0.055903, -0.122576, -0.062174, 0.058478, 0.033149, 0.038837, 0.009978, -0.037459], [0.009557, -0.012726, -0.032261, -0.016339, 0.005637, -0.010593, -0.02055, 0.004851, 0.029567, -0.040401, -0.053216, -0.085415, -0.093731, -0.089941, -0.164076, -0.147875, -0.039543, -0.058101, -0.007212, 0.006443, -0.00682, -0.025471, 0.047352, 0.087583, 0.154424, 0.026157, 0.055474, 0.006015, -0.021051, 0.018761, -0.064969, -0.035061, -0.02269, -0.073367, -0.025418, -0.034881, 0.018594, 0.07103, -0.012775, -0.058636, -0.112079, -0.060015, -0.044157, -0.064995, -0.038641, -0.038566, 0.04026, 0.043149, 0.043562, -0.040261, -0.054987, -0.020432, -0.011685, -0.040142, 0.01481, 0.010945, 0.0062, 0.012029, -0.063002, 0.100121, 0.11365, 0.005221, -0.04291, 0.027189, 0.053357, 0.030829, -0.004225, 0.011575, -0.043321, -0.04784, 0.029164, -0.033923, -0.019589, 0.003416, -0.017559, -0.036749, 0.008107, 0.117031, 0.074602, -0.021457, -0.033973, 0.059753, 0.026659, 0.032362, 0.06033, -0.025558, -0.147554, 0.044197, 0.004589, 0.109894, 0.043672, 0.077145, 0.065099, -0.078427, -0.050735, -0.048259, -0.054472, -0.076184, 0.031261, -0.023691, -0.012823, -0.027049, 0.027728, -0.036136, 0.00642, 0.023879, -0.007922, 0.037426, -0.046182, -0.049688, -0.012576, -0.001596, 0.070969, 0.020205, -0.091069, 0.099926, 0.088935, 0.033682, 0.020576, 0.024539, -0.021082, -0.043203, 0.005415, -0.040009, -0.027661, -0.014792, -0.000549, -0.04511, -0.050329, -0.006318, 0.018734, 0.019397, -0.034207, 0.007598, -0.00563, -0.0205, -0.079414, -0.11082, -0.074621, 0.008371, 0.056053, -0.007484, -0.014684, 0.038859, 0.060361, 0.020058, -0.052251, -0.004084, 0.052848, 0.008265, -0.034814, -0.001258, 0.013078, -0.001631, -0.007163, 0.018195, 0.022905, -0.013137, 0.006216, -0.001894, -0.058181, -0.035855, -0.105905, -0.098504, -0.087453, -0.068665, -0.066761, 0.02734, 0.079099, -0.073117, 0.095772, 0.09609, 0.012408, 0.032123, 0.003632, 0.039539, 0.072048, 0.003777, 0.022194, 0.011283, 0.002047, -0.014809, -0.022777, -0.010191, -0.018254, 0.030709, 0.031664, -0.012885, -0.064547, -0.029672, 0.003072, 0.007543, -0.021403, -0.066145, -0.019983, 0.032763, 0.036924, 0.005828, 0.140887, 0.097683, -0.012287, -0.014801, -0.022283, 0.027964, -0.004492, 0.000343, 0.044589, 0.031207, 0.021366, 0.017479, -0.003044, 0.052645, 0.015746, 0.028037, 0.02992, -0.002445, 0.01849, -0.029813, -0.006726, 0.063732, 0.04794, -0.054829, -0.000808, 0.051798, 0.1522, 0.07397, 0.079859, 0.061512, 0.065572, -0.008511, 0.030927, 0.000553, 0.031631, 0.053351, 0.001406, -0.022198, 0.028151, -0.001734, 0.018248, 0.019812, 0.059868, 0.069745, 0.081504, -0.007901, -0.036249, 0.019834, -0.02364, -0.01187, 0.008333, 0.064373, 0.014996, 0.058613, 0.087677, 0.172021, 0.049717, 0.015516, 0.042158, -0.006861, 0.002726, -0.00381, 0.060371, -0.004544, -0.003737, -0.03943, -0.046853, 0.016737, 0.052733, 0.066437, 0.034995, 0.053579, 0.01789, 0.006014, 0.0037, -0.001038, -0.003982, -0.038385, -0.026893, -0.076797, -0.070931, -0.003699, 0.137327, 0.119708, 0.039167, -0.042342, -0.059349, 0.000444, 0.002686, -0.013041, -0.016932, 0.027348, -0.037825, -0.053629, -0.010603, -0.010002, 0.020148, 0.019104, 0.056676, 0.029568, -0.073802, -0.046326, -0.03596, -0.03561, -0.035091, -0.056486, -0.106185, -0.135389, -0.168905, -0.039912, 0.149428, 0.078409, 0.095532, 0.032998, -0.14514, -0.034582, 0.025794, -0.034621, 0.027309, 0.030237, 0.029662, -0.015752, 0.029806, 0.057616, 0.003434, 0.043221, -0.024576, 0.04558, -0.060289, -0.104443, -0.050508, -0.095766, -0.103544, -0.142605, -0.207062, -0.299123, -0.197245, -0.181752, 0.121043, 0.084059, 0.040305, 0.029631, -0.148576, -0.073235, -0.023484, 0.018284, 0.020482, -0.010898, -0.071761, -0.003229, 0.00048, -0.017876, -0.047453, 0.076185, 0.068732, 0.010555, 0.00866, -0.038813, -0.133186, -0.128225, -0.066081, -0.064483, -0.214989, -0.329601, -0.173364, -0.085364, -0.063021, 0.012857, -0.030034, -0.125364, -0.118856, -0.134314, -0.032092, -0.012952, -0.021216, 0.022975, 0.029726, 0.011188, -0.013744, -0.013188, 0.041931, 0.167494, 0.133143, 0.063484, 0.04201, -0.004312, -0.087705, -0.050581, -0.085043, -0.219741, -0.309222, -0.302383, -0.217631, -0.095983, -0.048681, 0.008797, -0.055938, -0.146345, -0.126596, -0.126057, -0.062954, -0.021094, 0.044183, 0.077235, 0.06265, 0.050462, -0.022827, 0.031906, 0.018256, 0.064032, 0.071558, 0.089867, 0.088765, 0.060094, -0.028549, -0.08856, -0.186612, -0.27666, -0.30892, -0.23479, -0.120277, -0.085697, -0.031525, -0.044788, -0.071112, -0.132143, -0.178159, -0.106379, -0.011772, 0.10411, 0.074132, 0.089031, 0.083265, 0.011651, -0.027921, 0.00908, 0.092655, 0.114677, 0.06188, 0.121553, 0.122997, 0.086089, -0.019935, -0.159696, -0.174748, -0.271081, -0.317521, -0.19672, -0.113451, -0.056647, 0.047359, 0.005221, -0.017005, -0.147708, -0.17749, -0.110767, 0.016572, 0.136815, 0.097113, 0.062373, 0.053544, -0.004297, -0.032532, 0.051271, 0.057007, 0.086165, 0.082549, 0.098065, 0.082065, 0.052107, -0.069793, -0.212865, -0.276722, -0.364475, -0.30892, -0.272822, -0.211872, -0.053422, -0.00857, -0.034608, -0.085605, -0.153145, -0.159831, -0.084164, -0.058268, 0.058254, 0.074133, 0.095913, 0.041559, 0.037624, -0.024274, 0.033027, 0.083445, 0.115349, 0.12261, 0.108875, 0.117787, 0.034884, -0.091211, -0.191924, -0.381525, -0.39328, -0.27306, -0.260241, -0.132902, -0.221982, 0.043425, -0.055564, -0.014233, -0.154356, -0.172362, -0.130916, -0.072789, -0.02221, -5.3e-05, 0.029611, 0.015001, 0.028619, 0.031694, 0.021992, 0.006512, 0.057755, 0.032738, 0.108557, 0.118449, 0.030236, -0.107721, -0.309047, -0.44119, -0.476498, -0.409002, -0.256869, -0.034853, -0.177136, -0.097095, -0.04047, -0.02908, -0.063052, -0.100315, -0.102551, -0.085239, -0.051376, -0.04357, -0.048089, -0.038437, -0.032405, -0.000323, -0.01171, 0.009674, 0.035693, 0.032021, 0.055446, 0.11625, 0.064188, -0.110079, -0.349029, -0.491906, -0.479876, -0.295176, -0.254264, -0.07714, -0.075412, -0.051699, 0.076808, 0.002571, -0.113526, -0.12742, -0.117585, -0.087239, -0.106971, -0.062232, -0.060229, -0.053276, -0.016957, -0.045246, -0.026461, 0.010865, -0.012553, 0.043625, 0.081171, 0.082753, 0.006791, -0.253523, -0.449766, -0.51666, -0.470696, -0.306765, -0.153163, -0.04034, -0.043208, -0.046877, 0.005537, -0.043573, -0.126195, -0.025352, -0.078959, -0.113564, -0.054832, 0.014256, 0.020727, -0.035808, 0.014446, 0.02231, 0.006936, 0.024662, 0.04794, 0.071675, 0.126454, 0.063486, -0.051917, -0.293707, -0.514152, -0.523557, -0.38869, -0.225637, -0.106379, 0.017711, -0.002651, -0.05878, 0.014305, -0.059068, -0.126848, -0.090424, -0.052583, -0.019858, -0.032686, -0.014449, 0.033592, 0.028681, 0.045318, 0.07635, 0.072908, 0.070532, 0.030329, 0.035632, 0.05601, -0.017964, -0.142166, -0.387086, -0.482533, -0.437913, -0.344013, -0.219767, -0.051922, -0.009533, -0.01507, -0.094601, -0.049789, -0.023854, -0.080464, -0.077666, -0.033291, 0.044721, 0.060769, 0.036985, 0.049439, 0.044463, 0.041175, 0.091133, 0.067149, 0.115713, 0.080802, 0.007076, -0.024221, -0.032117, -0.217512, -0.379915, -0.452864, -0.340678, -0.249653, -0.17606, -0.049231, -0.086359, -0.030589, -0.033491, -0.079766, -0.015776, 0.029238, 0.083561, 0.112951, 0.105183, 0.133091, 0.096841, 0.064526, 0.110069, 0.112653, 0.092042, 0.10415, 0.107534, 0.092728, 0.023574, -0.123307, -0.194014, -0.267724, -0.369464, -0.411205, -0.285512, -0.223237, -0.234653, -0.125883, -0.073215, 0.007739, 0.034649, 0.016673, 0.024393, -0.067069, 0.035633, 0.108862, 0.024736, 0.125666, 0.061495, 0.058825, 0.086623, 0.080222, 0.08072, 0.057066, 0.030695, -0.0287, -0.068069, -0.113571, -0.219444, -0.22856, -0.282003, -0.324636, -0.258047, -0.234067, -0.209977, -0.106206, -0.046606, 0.006575, -0.064455, 0.012539, -0.032097, -0.047672, -0.075421, -0.009844, 0.090902, 0.091641, 0.087869, 0.154093, 0.091718, 0.068521, 0.046478, 0.072445, 0.010256, -0.041352, -0.013904, -0.024818, -0.062619, -0.191642, -0.201687, -0.17018, -0.045467, -0.155891, -0.076519, -0.0584, -0.010583, -0.003872, 0.011497, 0.027071, 0.057877, -0.050124, -0.018342, 0.031332, 0.084232, 0.145039, 0.144022, 0.118652, 0.171723, 0.072203, 0.097046, 0.053571, 0.042256, 0.01269, 0.036857, 0.091838, 0.050111, -0.043418, -0.079272, -0.022421, 0.017823, 0.014928, 0.00693, -0.068832, -0.027163, -0.021969], [0.028709, -0.045793, -0.016602, 0.03736, -0.00148, -0.001017, 0.009414, -0.085429, -0.113489, -0.004525, -0.003162, 0.002898, 0.059864, 0.130291, 0.047475, -0.041858, -0.034978, -0.040845, -0.042714, -0.037837, -0.033721, -0.060579, -0.033891, -0.041467, -0.015838, 0.009284, -0.009384, 0.0435, -0.045974, -0.075321, -0.011546, -0.061462, -0.05299, 0.021441, -0.046558, -0.003386, -0.020596, -0.01447, -0.04947, 0.082372, 0.103799, 0.164006, 0.173575, 0.047398, 0.015506, -0.066507, -0.070073, -0.014734, -0.097618, -0.038871, -0.042422, -0.055621, -0.030832, 0.001658, -0.008626, -0.016641, 0.008292, -0.00322, 0.001528, 0.049124, 0.050898, 0.019572, 0.021566, 0.046507, 0.013857, 0.060903, 0.056297, -0.036642, 0.047434, 0.092431, 0.085699, 0.108078, 0.112528, -0.013471, 0.063665, 0.024687, 0.065165, 0.055147, 0.043673, -0.002497, -0.042231, -0.084905, -0.035334, -0.046348, 0.002454, 0.019519, 0.082352, 0.055148, -0.062671, 0.00846, 0.008929, -0.04258, -0.013347, 0.012084, -0.039529, -0.017637, 0.002461, 0.096866, 0.07814, 0.133024, 0.121601, 0.046541, -0.007738, -0.028473, -0.045982, -0.071866, 0.00365, -0.099698, -0.081582, -0.06841, -0.127127, -0.035521, 0.006678, -0.023289, 0.065586, -0.051142, -0.040138, -0.051422, -0.047266, -0.023184, -0.015484, 0.043986, -0.04201, -0.069881, -0.025186, 0.018969, 0.034246, 0.07509, 0.03745, 0.075684, 0.076063, 0.062689, 0.121706, 0.003321, 0.077141, -0.029603, -0.117086, -0.091453, -0.130428, 0.017593, 0.065424, -0.02385, -0.005916, -0.057519, -0.081385, -0.026109, -0.021332, -0.018195, -0.005623, -0.081678, -0.076007, -0.088898, -0.057679, 0.020123, -0.007022, 0.026105, 0.068719, 0.086849, 0.153113, 0.119208, 0.11765, 0.05663, 0.080051, -0.028745, -0.006921, -0.052279, -0.146288, -0.072805, 0.057222, -0.022511, -0.116616, 0.024328, -0.04113, 0.011546, -0.055607, -0.059678, -0.17425, -0.139279, -0.089062, -0.034313, -0.102255, -0.105488, -0.043272, -0.018802, 0.011497, 0.027886, 0.12852, 0.161799, 0.078346, 0.09845, -0.001179, -0.033821, -0.062459, -0.144572, -0.107693, -0.102022, -0.001529, -0.073483, -0.034231, -0.016137, -0.008134, -0.113395, -0.075792, -0.093717, -0.149063, -0.06307, -0.065835, -0.053688, -0.137292, -0.099094, -0.07948, -0.123332, -0.047482, -0.005559, 0.134597, 0.180541, 0.141729, 0.096117, 0.058728, 0.056185, 0.023604, -0.047782, -0.068859, -0.07937, 0.109953, -0.033082, 0.055609, 0.066862, -0.007079, -0.099454, -0.118434, -0.066303, -0.049439, -0.100594, -0.085308, -0.158855, -0.117701, -0.122497, -0.097073, -0.082259, -0.133768, -0.067502, 0.025175, 0.176509, 0.196107, 0.144217, 0.143189, 0.108314, 0.056462, -0.008891, -0.006528, 0.055681, -0.035104, -0.069126, 0.070961, 0.020732, 0.084415, -0.091323, -0.030593, 0.010789, 0.021174, 0.019386, -0.068608, -0.141658, -0.11741, -0.042521, -0.015943, -0.103787, -0.239677, -0.204599, -0.076933, 0.067898, 0.177411, 0.105367, 0.074223, 0.145436, 0.085006, 0.010324, -0.097479, 0.065267, -0.066062, 0.009688, 0.064638, 0.044596, -0.040107, -0.002175, -0.011124, 0.033701, 0.044118, -0.017153, -0.095988, -0.063652, -0.055789, -0.000837, -0.009036, -0.126362, -0.318626, -0.26974, -0.153205, 0.010645, 0.069884, 0.126116, 0.076602, 0.174707, 0.120871, 0.027401, -0.014936, 0.055962, -0.044722, -0.003911, 0.043927, -0.025371, -0.080741, 0.01479, 0.062851, -0.004937, 0.046527, -0.001648, -0.075964, -0.038736, 0.033838, 0.040645, -0.069833, -0.256253, -0.374424, -0.390951, -0.228856, 0.008664, 0.079439, 0.11982, 0.079282, 0.161361, 0.132798, 0.058576, -0.033416, 0.061051, -0.025945, -0.028764, 0.073827, 0.038808, -0.031075, 0.001811, 0.058378, -0.007409, 0.0375, 0.034218, -0.01048, 0.029657, 0.096392, 0.075381, -0.062297, -0.294373, -0.434531, -0.341845, -0.172124, 0.008215, 0.003954, 0.01062, 0.103825, 0.114149, 0.134481, 0.09256, -0.048308, 0.059683, -0.038968, 0.060178, 0.087485, 0.041821, 0.039955, 0.015826, 0.061384, -0.047044, 0.004914, -0.042009, 0.012352, 0.078005, 0.080377, 0.031307, -0.05181, -0.317286, -0.375099, -0.266991, -0.091803, 0.009262, -0.004713, 0.021645, 0.011149, 0.058756, 0.054891, 0.056917, -0.110358, 0.047376, 0.027042, 0.091182, 0.004478, 0.008948, 0.009603, 0.051545, -0.031138, 0.064197, 0.016011, -0.00231, 0.028559, 0.075549, 0.118151, -0.01603, -0.174389, -0.302247, -0.318033, -0.063691, 0.025459, 0.077905, 0.080981, -0.001265, -0.042548, 0.000482, 0.006522, 0.048016, 0.042871, 0.038288, 0.034648, 0.010972, -0.065334, -0.02317, -0.075391, 0.008286, -0.018285, 0.043208, 0.017447, 0.036858, 0.086045, 0.021069, -0.065424, -0.186489, -0.315859, -0.254947, -0.213116, 0.016516, 0.106959, 0.065286, 0.117299, 0.001809, 0.083553, 0.003046, -0.014092, -0.020679, 0.096092, 0.019793, 0.07409, -0.00898, -0.053157, -0.014218, -0.08462, -0.0217, -0.035082, 0.060062, 0.111492, 0.099132, 0.026003, -0.016763, -0.173434, -0.236601, -0.261879, -0.140944, -0.015741, 0.108465, 0.084321, 0.120131, 0.098542, 0.125423, 0.079599, 0.010025, 0.037103, -0.044241, 0.039465, -0.049089, 0.058846, -0.082386, 0.043153, -0.094546, -0.018625, -0.019732, 0.019564, 0.133984, 0.092309, 0.101762, 0.058709, -0.104445, -0.129923, -0.113327, -0.085317, 0.044657, 0.121711, 0.139809, 0.100408, 0.129476, 0.090517, 0.068162, 0.145254, 0.096089, 0.021492, 0.098237, 0.085416, 0.097721, -0.042321, -0.031612, 0.008366, -0.105645, 0.013468, 0.041591, 0.072908, 0.131977, 0.100093, 0.088624, 0.011726, -0.11409, -0.124008, -0.051608, 0.044364, 0.146902, 0.190283, 0.14527, 0.118391, 0.083261, 0.098178, 0.094817, 0.080662, 0.056067, 0.035688, 0.053552, 0.077089, 0.052647, -0.023733, 0.054833, -0.038991, -0.041146, 0.070657, 0.032124, 0.090887, 0.086015, 0.086801, 0.052708, 0.043376, -0.080471, -0.076099, 0.017073, 0.066636, 0.102616, 0.109992, 0.123961, 0.059378, 0.084647, 0.032812, 0.070105, 0.125859, 0.040992, 0.016821, 0.036677, 0.037788, 0.115334, 0.080219, 0.043275, 0.029509, 0.048897, 0.113617, 0.059669, 0.077921, 0.106298, 0.081852, 0.039776, 0.085036, 0.012635, 0.02884, 0.022006, 0.040061, 0.025154, 0.042612, 0.006748, 0.048032, 0.069129, 0.015231, 0.039498, 0.015645, 0.044671, 0.05015, 0.080437, 0.080586, 0.07293, 0.070206, 0.007235, 0.066538, 0.086793, 0.02079, 0.046393, 0.028811, -0.000566, 0.039198, 0.057657, 0.082433, 0.011669, 0.025825, 0.016204, 0.000412, -0.040039, -0.057459, -0.042584, 0.027839, -0.008205, -0.014437, -0.039996, 0.039757, 0.088897, 0.06826, 0.025869, 0.139034, 0.072395, -0.044265, 0.047238, 0.058352, 0.036526, -0.020669, 0.042911, 0.037119, -0.022184, 0.025151, 0.056743, 0.08134, 0.063466, 0.047012, -0.026729, -0.096719, -0.097586, -0.050083, -0.046174, 0.028527, -0.004108, -0.059876, 0.025809, 0.10566, 0.031319, 0.019426, -0.018477, 0.024344, 0.038612, 0.028982, 0.001231, -0.072214, -0.030598, -0.044582, -0.018587, -0.018025, 0.039884, 0.050089, 0.028128, -0.001402, 0.043393, -0.030749, -0.0548, -0.096287, -0.096025, -0.059761, -0.018327, 0.036569, 0.005857, 0.007534, 0.07294, 0.069757, -0.031302, -0.00623, -0.005786, 0.015875, 0.081223, 0.026715, 0.034603, -0.047278, -0.085095, 0.044446, 0.043538, 0.019188, 0.003239, -0.007139, 0.042713, 0.024831, -0.033576, -0.022552, -0.097792, -0.1503, -0.139748, -0.10683, -0.037875, -0.031726, -0.044606, 0.009847, -0.013096, 0.030532, 0.053585, 0.030621, 0.067572, 0.014921, 0.006382, -0.004757, 0.017935, 0.04332, 0.118867, 0.215317, 0.186505, 0.05481, -0.015301, -0.030835, -0.138298, -0.154904, -0.106715, -0.128391, -0.169584, -0.140768, -0.117453, -0.108112, -0.194304, -0.145135, -0.019263, 0.026762, -0.036013, -0.016915, -0.068414, -0.093959, 0.002188, 0.035494, 0.056249, 0.050181, 0.027828, 0.062655, -0.009702, 0.201487, 0.207923, 0.194096, 0.118851, 0.038524, -0.078722, -0.075466, -0.091454, -0.05943, -0.159849, -0.163066, -0.197846, -0.167883, -0.209513, -0.160734, -0.04515, 0.038464, 0.035322, -0.03298, 0.005269, 0.117192, -0.007734, -0.027386, 0.021453, -0.003036, -0.014387, -0.035016, -0.003974, -0.023809, -0.088887, 0.034166, -0.01127, -0.000199, 0.057184, 0.093358, -0.035886, -0.019996, -0.01495, -0.082067, -0.081055, -0.122478, -0.049245, -0.04014, 0.027016, 0.090284, -0.012202, -0.013385, -0.053021, -0.012002, -0.000403, 0.003502, 0.012553], [-0.007595, 0.01634, -0.011245, 0.049727, -0.064289, -0.038523, -0.002779, -0.000556, 0.007516, 0.027755, -0.002078, 0.061084, 0.090384, 0.071188, 0.12834, 0.094629, 0.120915, 0.093205, 0.008524, 0.034616, 0.064769, 0.097135, -0.010426, 0.066673, 0.053697, 0.032508, 0.016164, -0.006272, 0.024167, 0.012444, -0.02396, -0.051252, -0.055386, -0.026379, 0.064205, 0.079108, -0.016074, -0.068814, -0.087531, -0.106507, -0.075381, -0.071535, 0.010956, 0.041028, -0.031018, -0.024668, -0.01116, 0.030621, 0.082602, 0.052099, 0.098939, 0.029727, 0.05072, 0.036129, 0.05826, 0.01745, -0.005721, 0.083135, 0.032811, -0.061289, -0.115398, 0.08765, 0.063688, -0.005546, -0.106185, -0.125308, -0.084048, -0.087979, -0.042619, 0.04323, 0.026693, 0.071578, 0.024403, 0.004055, -0.078149, -0.082552, -0.060707, -0.131182, -0.06478, -0.00098, 0.087584, 0.097726, 0.080534, 0.019793, 0.016971, -0.014557, 0.059191, -0.064095, 0.038175, -0.026524, -0.023893, -0.071306, -0.136915, -0.089469, -0.025627, -0.047283, 0.021274, 0.010202, 0.003099, 0.023081, 0.03611, -0.027645, -0.116023, -0.117526, -0.109355, -0.113521, -0.016965, -0.046813, -0.044739, 0.059165, 0.039128, 0.066266, -0.037523, 0.003474, 0.09363, -0.041391, 0.026419, -0.031292, 0.000941, -0.082777, -0.096133, -0.028082, -0.027886, 0.024321, 0.059395, 0.046456, 0.060825, 0.047539, -0.032342, -0.027958, -0.015427, -0.087114, -0.053215, -0.074182, -0.083763, 0.043128, 0.090323, 0.017563, -0.136831, -0.053798, -0.011947, 0.029754, 0.114226, 0.028733, 0.017399, 0.061066, 0.070082, -0.021934, -0.075134, -0.05671, -0.041356, 0.040627, -0.004838, 0.076872, 0.094567, 0.048716, 0.009504, -0.051634, -0.100421, -0.062798, -0.044065, -0.065301, -0.081176, -0.01039, -0.00497, -0.080568, -0.078337, -0.002318, 0.073756, 0.043346, -0.024242, -0.020123, -0.076004, 0.003568, 0.017773, -0.035587, -0.098877, -0.124678, -0.031871, -4.2e-05, 0.021615, 0.039114, 0.08279, 0.035512, 0.031521, -0.013954, -0.124078, -0.091704, -0.075744, -0.082006, -0.116289, -0.029901, -0.033362, -0.066573, -0.02709, -0.06773, -0.011648, 0.071317, -0.044898, 0.010488, -0.06703, -0.037701, 0.013056, -0.067288, -0.161318, -0.146342, -0.109662, -0.093926, 0.004088, 0.073705, 0.152666, 0.070101, 0.045013, -0.060634, -0.138511, -0.160393, -0.159797, -0.113194, -0.084953, -0.14969, -0.164657, -0.11575, -0.014382, 0.019016, -0.057479, 0.102845, -0.016296, -0.042705, 0.005068, -0.022371, -0.022589, -0.091503, -0.099702, -0.163982, -0.102474, -0.053085, 0.085916, 0.156843, 0.222097, 0.145816, 0.012058, -0.095874, -0.124266, -0.123351, -0.112354, -0.11765, -0.059526, -0.024118, -0.031171, -0.002944, -0.082086, -0.045037, -0.000977, 0.082904, -0.046487, -0.042678, -0.036484, -0.047999, -0.064689, 0.003072, -0.080392, -0.114904, -0.164389, -0.066539, 0.02497, 0.174493, 0.212305, 0.133081, -0.01041, -0.081676, -0.143622, -0.114424, -0.081221, -0.079147, -0.020163, 0.030895, 0.021832, 0.007126, 0.041542, 0.039523, -0.02201, -0.010604, -0.037086, -0.181492, -0.201978, -0.125643, -0.069397, -0.08055, -0.077501, -0.119991, -0.183897, -0.170193, -0.091597, 0.116544, 0.121058, 0.013272, -0.067853, -0.093131, -0.102273, -0.018068, 0.029316, 0.028178, 0.089139, 0.072996, 0.133268, 0.053303, 0.08319, -0.015411, 0.012038, -0.036916, -0.17105, -0.294944, -0.202027, -0.23172, -0.221558, -0.149254, -0.195302, -0.205873, -0.245428, -0.291447, -0.241883, -0.079429, 0.015685, -0.080428, -0.119588, -0.14272, -0.039051, 0.025356, 0.048234, 0.124506, 0.082283, 0.060998, 0.049371, -0.041889, -0.037744, -0.00233, -0.023, -0.112295, -0.106668, -0.281189, -0.238599, -0.348723, -0.355922, -0.294807, -0.220997, -0.22602, -0.322827, -0.384161, -0.244173, -0.115263, 0.009283, -0.091754, -0.102663, -0.024064, 0.043205, 0.010561, 0.053321, 0.065424, 0.058427, 0.009964, -0.005257, 0.083851, 0.111165, 0.174065, -0.01454, -0.079609, -0.059982, -0.240258, -0.284947, -0.349177, -0.403543, -0.357612, -0.279093, -0.214068, -0.268933, -0.280895, -0.147812, 0.01397, 0.067195, 0.009308, -0.030728, 0.023128, 0.018167, 0.056555, 0.070039, 0.040912, 0.045239, 0.00541, 0.083404, 0.055209, 0.145718, 0.089373, -0.040097, -0.13753, -0.173281, -0.212863, -0.215661, -0.25112, -0.185278, -0.127165, -0.098115, -0.037747, -0.078745, -0.022758, 0.073885, 0.169105, 0.145426, 0.037559, 0.04713, 0.007206, -0.002157, 0.02095, 0.01234, 0.004614, -0.000211, 0.00153, 0.037783, 0.013763, 0.111316, 0.045078, -0.067535, -0.142271, -0.066413, -0.168275, -0.027816, -0.03068, -0.016771, 0.061628, 0.05949, 0.147019, 0.076977, 0.173653, 0.197629, 0.158546, 0.139047, 0.043751, 0.07191, 0.053458, 0.008405, 0.009313, -0.04047, -0.061325, -0.09047, -0.050011, -0.059565, -0.031299, 0.060144, 0.046014, -0.041478, -0.022331, -0.058204, -0.085197, 0.045158, 0.108603, 0.104091, 0.116232, 0.136447, 0.164735, 0.152564, 0.157906, 0.142962, 0.078059, 0.076149, 0.053541, 0.060349, 0.053076, 0.108007, 0.10865, 0.1075, 0.031087, -0.025434, -0.028441, -0.037933, 0.115358, 0.019887, 0.011412, 0.040652, 0.036545, -0.001399, -0.00595, 0.102255, 0.097218, 0.228942, 0.224156, 0.207652, 0.168992, 0.135622, 0.109535, 0.030324, 0.024515, 0.072792, 0.104168, 0.101134, 0.072186, 0.140037, 0.107406, 0.147895, 0.044529, 0.02404, 0.063223, 0.063037, 0.126174, 0.038254, 0.016423, 0.011881, 0.009836, -0.058689, 0.098365, 0.154675, 0.154177, 0.146545, 0.155413, 0.165248, 0.141139, 0.102807, 0.052274, -0.015131, -0.036196, 0.054481, 0.100426, 0.092191, 0.071087, 0.098347, 0.108813, 0.131801, 0.114157, 0.071066, 0.062112, 0.03619, 0.152366, 0.073225, 0.042691, 0.008872, 0.09415, 0.057556, 0.118956, 0.119556, 0.121546, 0.108439, 0.158538, 0.082618, 0.116701, 0.056474, 0.022155, 0.008195, 0.044398, 0.035973, 0.062584, 0.052888, 0.058419, 0.069641, 0.080075, 0.094561, 0.091768, 0.068682, 0.026296, 0.012132, 0.029575, 0.001513, -0.00752, 0.023323, -0.017279, 0.066781, 0.118246, 0.093795, 0.103778, 0.128839, 0.091352, 0.062387, 0.037545, 0.007757, -0.046505, 0.029039, -0.002921, 0.000279, 0.021513, -0.007981, 0.012205, 0.063579, 0.025263, -0.005886, 0.04724, 0.003061, 0.033462, -0.050106, -0.0415, -0.061849, -0.045211, 0.098528, 0.047683, 0.029616, 0.024582, -0.012773, 0.065469, 0.045793, -0.058119, -0.069013, -0.032616, -0.060767, -0.013366, 0.009881, -0.032764, 0.010039, -0.027699, 0.015066, -0.00413, 0.024943, 0.034382, 0.007068, -0.020572, -0.001223, -0.026464, -0.052411, -0.009805, -0.010029, -0.106892, 0.062737, 0.023401, 0.000439, 0.018949, 0.008008, -0.009914, -0.062068, -0.083808, -0.059988, -0.051599, 0.01144, -0.011694, -0.015675, -0.035988, 0.002078, -0.044139, 0.029796, -0.038482, 0.007099, 0.016321, -0.011326, -0.066, -0.075328, -0.066401, -0.095939, 0.06294, -0.005494, -0.110414, 0.018293, 0.091345, 0.008095, -0.135307, -0.068642, -0.07203, -0.036804, -0.073976, -0.056988, -0.021354, 0.021953, 0.030431, 0.049712, 0.009818, -0.007986, -0.001041, 0.008285, -0.033503, -0.072874, -0.016587, -0.113926, -0.170823, -0.1074, -0.144181, -0.110092, 0.056336, -0.004007, -0.081724, -0.07126, -0.056964, -0.052733, -0.029665, -0.131637, -0.119688, -0.081416, -0.094669, -0.096723, -0.023511, -0.03458, -0.003443, -0.037006, -0.037311, -0.016008, -0.076243, -0.021754, -0.045745, -0.090275, -0.083485, -0.188563, -0.123748, -0.089298, -0.146708, -0.074832, -0.014534, -0.040863, -0.044286, -0.092114, -0.042014, -0.031708, 0.123344, -0.039516, -0.114497, -0.003631, -0.044178, -0.140513, -0.083627, -0.07571, -0.045151, -0.104063, -0.095578, -0.067149, -0.108521, -0.118003, -0.134842, -0.167718, -0.207159, -0.203314, -0.167568, -0.071627, -0.0413, 0.004959, 0.047219, 0.000902, -0.04977, -0.116598, 0.020075, -0.041136, -0.01372, -0.098939, -0.152085, -0.117827, -0.022667, -0.062246, -0.061177, -0.087073, -0.146633, -0.168046, -0.057196, -0.065289, -0.119022, -0.182601, -0.107354, -0.160457, -0.132704, -0.128006, -0.216106, -0.057861, -0.013573, 0.01958, 0.018128, 0.034218, -0.01003, -0.009485, 0.003521, 0.004039, -0.036583, 0.031349, 0.013567, -0.020862, 0.010417, -0.067261, -0.096535, -0.018595, -0.035926, -0.080767, -0.086892, -0.063007, -0.047388, 0.028287, -0.124885, -0.097381, -0.0589, -0.046353, 0.006085, -0.002322, 0.057643, 0.004027, 0.045779, -0.006952, -0.002509], [0.002232, 0.00943, -0.017628, 0.006876, 0.010275, 0.044166, 0.064214, 0.138991, 0.062797, 0.038177, -0.001578, 0.072982, 0.036302, -0.022807, -0.023039, -0.038966, -0.061806, -0.022479, -0.049017, -0.128954, -0.10084, -0.038859, -0.003357, 0.021195, -0.050728, 0.025449, 0.026042, 0.026813, -0.035504, 0.030509, 0.060214, 0.039146, 0.102231, 0.155709, 0.064101, -0.030578, 0.06716, 0.019347, 0.041967, 0.034117, -0.047957, -0.088945, -0.113341, -0.149574, -0.213315, -0.183925, -0.229855, -0.210245, -0.165133, -0.139734, -0.133824, -0.028874, -0.047059, -0.031414, 0.028711, 0.020319, 0.009117, -0.020896, 0.153803, 0.084267, 0.02124, 0.097076, 0.027717, 0.029829, -0.001075, 0.045063, 0.011823, 0.005852, 0.071739, -0.048941, -0.089136, -0.048505, -0.069337, -0.199524, -0.271697, -0.250389, -0.276477, -0.244306, -0.208435, -0.122598, -0.103589, -0.1017, -0.00921, -0.024984, -0.029056, 0.017374, 0.193966, 0.165818, 0.098141, 0.118604, 0.188829, 0.080816, 0.032601, 0.022851, 0.048832, 0.042817, -0.008913, -0.057476, -0.027064, -0.123049, -0.098291, -0.15526, -0.28078, -0.267594, -0.274424, -0.224208, -0.204925, -0.138895, -0.153543, -0.050782, -0.022249, 0.016103, 0.047576, 0.027523, 0.128436, 0.079168, 0.104029, 0.129918, 0.127845, 0.023301, 0.06038, -0.046156, -0.036431, 0.042404, 0.020431, 0.038441, -0.039986, -0.051578, -0.112272, -0.169709, -0.290644, -0.29629, -0.420771, -0.338847, -0.309895, -0.260803, -0.115486, -0.150997, -0.142616, -0.075148, 0.14736, 0.027433, 0.078816, 0.0515, 0.130495, 0.06735, 0.062384, 0.083484, 0.050064, -0.00233, 0.034244, 0.049553, 0.054777, -0.01078, -0.01443, -0.045176, -0.144617, -0.229161, -0.310959, -0.336498, -0.460502, -0.423344, -0.326251, -0.211432, -0.10423, -0.140182, -0.169494, -0.078455, 0.007763, -0.013038, 0.029959, 0.067309, 0.012279, -0.019388, 0.059612, 0.074032, 0.050183, 0.068998, 0.036239, 0.048316, 0.064073, 0.062906, 0.026491, -0.00626, -0.091326, -0.190733, -0.25627, -0.334396, -0.47726, -0.375622, -0.286876, -0.229545, -0.164058, -0.209892, -0.154018, -0.134533, 0.047224, 0.05255, 0.04789, 0.051513, -0.014409, 0.023841, 0.035673, 0.040405, 0.046693, 0.052345, 0.020513, 0.064306, 0.101638, 0.109862, 0.111611, -0.029634, -0.108008, -0.180159, -0.269185, -0.362868, -0.312571, -0.333586, -0.310874, -0.319235, -0.266622, -0.174481, -0.112244, -0.108141, 0.024184, 0.021843, 0.039193, -0.067493, 0.091566, 0.090175, -0.010205, -0.013903, 0.008741, -0.032838, 0.020014, 0.093888, 0.067586, 0.104486, 0.112787, 0.042622, -0.102753, -0.154716, -0.24445, -0.291228, -0.360542, -0.339019, -0.268033, -0.191519, -0.191612, -0.261806, -0.12291, -0.013705, -0.062617, 0.100473, 0.21223, -0.062394, -0.003743, 0.038899, -0.021137, -0.012078, -0.031696, -0.008572, 0.052376, 0.062694, 0.13786, 0.160968, 0.146402, 0.123803, -0.050083, -0.222751, -0.268606, -0.369341, -0.409558, -0.230143, -0.139742, -0.133017, -0.264041, -0.255236, -0.040705, 0.03295, -0.032702, 0.099286, 0.111469, -0.100314, -0.070553, 0.010816, -0.069515, -0.078313, -0.068314, -0.034211, 0.014124, 0.060821, 0.131163, 0.138847, 0.173483, 0.143681, 0.03696, -0.140564, -0.290635, -0.362901, -0.429663, -0.335709, -0.223222, -0.122319, -0.108666, -0.151236, -0.018853, 0.056363, 0.032559, 0.11443, 0.105777, -0.09532, -0.016278, -0.027108, -0.075857, -0.031896, 0.018098, 0.010521, 0.061042, 0.076677, 0.130508, 0.116329, 0.106128, 0.079591, 0.039074, -0.085226, -0.226644, -0.345062, -0.432512, -0.237123, -0.118284, -0.209055, -0.270917, -0.254629, -0.157453, -0.004403, 0.058427, 0.141313, 0.053355, 0.030287, 0.029822, -0.033861, -0.047821, 0.076822, 0.026523, 0.049545, 0.018582, 0.069101, 0.110326, 0.09106, 0.061654, 0.129364, 0.074856, -0.028169, -0.133177, -0.267026, -0.327725, -0.273341, -0.206532, -0.18893, -0.124605, -0.156809, -0.213468, 0.025753, 0.024946, 0.043181, -0.002639, 0.053092, -0.046689, -0.005288, 0.03574, 0.051271, 0.054495, 0.011634, 0.074058, 0.054359, 0.105098, 0.064269, 0.090419, 0.099612, 0.107121, -0.034355, -0.134013, -0.28388, -0.285695, -0.230777, -0.133143, -0.048243, 0.046558, -0.021146, -0.118221, -0.041335, 0.035556, 0.028013, -0.064438, 0.031275, 0.014624, -0.014044, -0.044782, 0.002867, -0.013273, 0.015796, -0.009931, -0.032374, 0.08631, 0.077716, 0.101591, 0.096079, 0.07863, -0.069765, -0.162954, -0.202635, -0.186941, -0.142641, -0.031287, 0.062576, -0.010625, -0.067807, -0.07682, -0.044499, -0.002251, -0.005388, -0.031155, 0.032111, 0.086113, 0.065723, -0.033164, -0.058515, -0.081341, -0.028048, -0.038934, -0.006995, 0.042668, 0.019181, 0.110883, 0.099827, 0.038593, -0.026235, -0.180445, -0.174565, -0.085892, 0.000598, 0.043528, 0.073911, -0.012984, -0.073811, 0.001542, 0.001727, 0.014442, 0.021535, -0.03482, 0.004645, 0.08373, -0.023926, -0.069052, -0.041293, 0.034493, -0.070587, -0.027815, -0.003073, 0.025954, 0.032722, 0.084453, 0.068003, 0.042253, -0.092633, -0.168409, -0.061881, 0.057748, 0.035119, 0.042743, 0.090738, 0.028686, -0.029364, -0.085498, -0.066195, 0.021757, -0.032807, 0.016504, -0.039781, 0.006132, -0.01768, -0.020599, -0.024029, 0.016785, 0.029544, 0.030992, -0.006327, -0.033289, 0.055234, 0.16589, 0.076219, 0.000291, -0.070704, -0.121831, -0.035562, 0.064602, 0.053658, 0.022664, 0.102974, 0.019463, 0.048531, -0.071154, -0.162881, -0.010726, 0.053436, -0.048034, -0.019954, 0.04142, 0.065808, 0.085425, 0.025003, -0.022323, 0.019903, 0.004169, -0.037009, -0.007931, 0.082775, 0.105824, 0.047132, -0.050361, -0.067038, -0.033549, 0.007324, 0.015133, 0.099628, 0.060926, 0.032463, 0.066275, 0.033554, 0.079676, 0.004249, 0.066602, -0.015242, -0.014971, 0.012034, 0.048626, 0.086436, 0.101446, 0.071697, -0.041005, -0.078736, -0.097442, -0.061634, 0.06933, 0.155908, 0.105812, 0.065389, -0.005848, -0.018914, -0.057219, -0.04706, -0.038839, -0.015623, -0.024051, -0.047515, -0.033146, 0.016389, -0.008616, -0.087324, -0.002361, -0.002951, -0.061811, 0.01319, -0.01059, -0.016382, 0.020845, 0.015729, -0.094521, -0.130247, -0.127697, -0.039572, 0.131166, 0.111507, 0.099921, 0.043645, 0.053321, 0.015571, 0.001857, -0.079112, -0.126837, -0.037865, -0.062229, -0.043352, 0.0508, 0.038979, -0.038452, -0.061695, 0.055054, -0.070286, -0.103903, -0.066217, 0.042828, 0.016666, -0.051792, -0.096389, -0.099764, -0.11025, -0.06552, 0.01522, 0.119365, 0.105648, 0.1207, 0.058883, 0.078784, 0.036903, -0.006306, -0.042588, -0.103626, -0.007007, -0.045207, -0.092019, -0.075856, -0.030653, 0.053977, -0.048182, 0.018036, 0.04407, -0.071945, -0.054588, -0.062378, -0.14874, -0.125616, -0.139012, -0.165965, -0.083046, 0.004518, 0.018678, 0.110464, 0.098351, 0.083002, 0.070021, 0.070192, 0.055839, 0.001045, -0.020943, -0.038633, -0.008592, -0.05029, -0.100632, -0.023658, -0.039367, -0.006757, -0.037648, 0.011693, 0.076656, -0.022939, -0.04218, -0.157962, -0.142354, -0.218874, -0.160791, -0.115466, -0.053786, 0.046796, 0.052372, 0.059342, 0.076541, 0.062367, 0.029168, 0.01063, 0.079029, 0.038708, -0.018239, -0.095642, 0.0307, -0.059653, -0.060754, -0.031546, 0.043763, 0.0283, 0.029633, -0.046392, -0.0122, -0.074373, -0.149969, -0.09882, -0.21873, -0.231965, -0.154501, -0.014201, 0.004956, 0.022906, 0.020596, -0.012758, 0.04252, -0.000339, 0.002023, 0.031674, 0.074641, 0.054918, 0.021915, 0.033853, 0.050155, 0.013299, 0.020697, -0.048759, 0.108927, 0.100464, 0.027289, -0.065231, -0.030806, -0.026106, -0.126183, -0.116746, -0.164027, -0.243804, -0.130662, 0.04905, 0.017319, 0.041812, 0.0642, -0.042768, -0.008839, 0.028463, 0.010521, 0.001703, 0.057075, 0.020673, -0.036785, -0.056299, -0.08594, -0.058194, -0.000754, -0.000652, 0.060094, 0.012217, -0.019274, 0.026698, -0.010465, 0.033126, -0.024298, -0.03994, -0.022209, -0.094379, -0.01022, 0.024044, 0.028024, -0.008248, 0.014833, 0.081408, 0.047081, 0.041221, 0.055616, -0.017688, 0.022855, 0.080988, 0.026981, -0.084965, -0.105733, -0.075077, -0.055817, 0.049944, 0.052013, 0.014685, 0.005161, 0.019934, 0.081211, 0.016354, -0.042532, -0.016941, -0.000842, 0.04015, 0.049258, 0.031451, -0.040831, 0.018615, 0.029983, -0.009094, 0.033577, -0.135417, -0.055103, -0.009618, 0.070767, 0.011603, -0.013434, 0.075336, 0.083703, 0.063733, -0.002176, 0.031901, 0.031564, -0.016618, -0.018739], [0.033845, -0.008703, 0.014748, -0.041604, -0.016124, 0.023171, 0.008751, -0.079301, -0.101407, -0.149121, -0.109694, -0.15448, -0.145125, -0.173182, -0.158405, -0.130364, -0.116783, -0.151084, -0.125586, -0.104489, -0.106938, -0.071453, -0.030546, -0.031151, -0.004403, 0.012661, -0.039771, -0.001005, 0.015137, 0.021738, -0.069964, -0.027188, -0.076777, -0.096425, -0.115017, -0.126278, -0.189015, -0.205105, -0.304443, -0.172439, -0.184533, -0.156775, -0.047606, -0.082218, -0.179037, -0.136872, -0.126451, -0.084166, -0.101395, 0.038926, -0.009615, -0.01524, 0.047003, 0.06377, 0.038658, -0.021962, 0.0336, 0.010104, -0.021335, -0.03334, -0.100922, -0.074061, -0.177175, -0.212159, -0.217604, -0.181369, -0.215445, -0.159559, -0.084392, -0.110334, -0.102755, -0.051255, -0.017611, -0.037231, -0.006867, 0.038638, 0.001144, 0.045498, -0.015683, -0.06975, -0.107191, -0.026012, -0.072327, -0.079543, 0.048127, -0.007145, 0.00192, -0.064175, -0.022679, -0.127517, -0.147173, -0.187241, -0.202554, -0.198025, -0.048397, -0.022824, 0.035648, -0.105508, -0.007085, -0.006054, 0.014014, 0.01819, 0.097566, 0.061826, 0.029215, 0.101198, 0.07409, 0.023519, -0.079847, -0.013282, -0.079687, -0.013189, 0.077901, 0.034367, 0.022945, 0.06982, 0.082754, 0.039355, -0.058075, -0.035089, 0.002814, 0.001836, 0.019019, 0.045925, 0.080974, 0.06763, 0.083488, 0.015587, 0.035202, 0.024793, 0.0247, 0.090556, 0.048373, 0.129538, 0.107296, 0.052376, 0.108238, 0.071011, -0.000502, -0.051859, 0.112669, 0.017749, -0.005312, 0.031752, -0.014497, 0.029908, -0.078124, -0.003675, 0.044234, 0.06157, 0.041716, 0.005319, 0.067092, -0.007557, 0.058615, 0.019358, -0.013957, -0.017737, -0.025293, -0.011695, 0.031013, 0.025979, 0.027847, 0.048404, 0.084261, 0.077678, 0.043908, 0.106692, 0.003641, -0.024886, 0.064138, 0.071826, 0.066066, 0.054246, 0.021369, 0.063642, 0.022702, 0.041409, -0.015227, 0.064757, 0.047231, -0.026283, 0.012846, -0.068391, -0.058298, -0.026851, -0.077482, -0.006278, 0.027636, -0.03441, 0.001779, 0.003701, 0.023249, 0.063138, 0.109876, 0.049045, 0.033893, -0.050921, 0.09478, -0.02472, -3e-06, -0.007291, -0.055907, 0.046022, 0.022339, 0.008895, 0.01357, 0.031335, -0.003494, -0.040075, -0.007971, 0.010223, -0.000208, 0.005668, -0.000856, -0.021892, -0.037904, -0.040301, 0.018751, -0.024163, -0.026742, -0.020628, 0.065199, -0.009673, -0.035108, -0.089964, 0.085219, 0.100351, 0.081659, -0.037903, 0.005803, 0.005256, -0.005717, -0.022128, -0.033983, -0.016441, -0.033622, -0.026546, 0.005916, 0.00736, 0.004095, 0.014983, -0.023774, 0.004955, -0.052965, 0.007982, -0.076876, -0.095749, 0.049982, 0.032798, -0.019726, -0.075725, -0.023993, -0.016668, 0.096203, 0.010712, 0.001177, -0.021259, -0.011578, -0.026596, -0.072176, -0.050945, -0.049677, -0.052125, -0.038815, -0.035336, -0.050979, -0.023786, -0.024587, 0.019549, 0.046926, 0.015745, -0.002861, 0.03004, 0.030792, -0.011144, 0.060581, 0.021403, -0.068082, -0.050737, -0.093607, 0.056173, -0.098851, 0.05672, 0.02587, 0.043214, -0.051762, -0.034339, -0.050701, -0.044491, -0.052651, -0.040936, -0.004804, -0.030458, -0.094709, -0.048627, -0.03531, -0.053115, 0.03473, 0.016683, 0.030705, 0.031233, 0.031965, -0.018833, 0.043921, 0.107849, -0.037969, 0.024688, -0.074594, -0.010273, 0.003412, 0.012527, 8.8e-05, 0.011049, 0.070961, 0.020955, -0.023562, -0.018307, -0.009646, 0.003366, -0.001859, -0.043637, -0.085267, 0.003815, -0.021343, -0.041406, -0.057354, -0.005484, -0.032019, 0.00148, 0.002155, -0.006473, 0.005285, 0.028268, -0.000281, 0.063231, 0.057718, 0.042765, 0.059674, -0.031132, -0.0102, -0.007121, 0.028449, 0.062296, -0.035277, -0.024836, -0.010668, -0.041244, 0.018343, 0.000481, -0.028234, -0.016987, -0.024335, -0.027194, -0.045191, -0.047275, -0.099145, -0.091481, -0.099142, -0.007141, -0.108904, -0.136253, -0.08284, -0.04628, 0.002044, 0.005167, -0.008583, -0.090446, -0.012581, 0.048208, 0.053496, 0.103268, 0.026916, 0.042913, 0.071001, 0.062635, -0.009367, -0.029205, -0.062453, -0.029231, 0.032335, -0.033444, -0.007284, -0.026989, -0.02596, -0.066523, -0.052847, -0.141965, -0.169114, -0.137324, -0.176234, 0.004001, -0.031527, -0.020913, -0.136349, 0.039069, 0.019954, 0.040345, 0.087944, 0.117822, 0.167723, 0.178835, 0.164799, 0.13373, 0.094311, 0.041002, -0.001752, -0.03193, -0.016373, 0.002018, -0.047761, -0.030556, -0.009701, -0.047681, -0.059764, -0.100353, -0.175477, -0.077277, -0.202302, -0.063001, -0.021369, -0.040357, -0.105948, -0.029532, -0.043159, -0.005301, 0.139336, 0.12975, 0.237126, 0.244034, 0.263789, 0.223674, 0.17174, 0.083465, 0.092289, 0.071256, 0.035312, 0.040487, -0.001247, -0.026521, -0.026271, -0.043992, 0.016729, -0.08486, -0.204095, -0.237227, -0.152305, -0.165185, -0.02572, -0.019265, -0.113082, -0.169055, -0.180037, -0.135563, -0.0192, 0.066157, 0.181176, 0.235509, 0.236009, 0.234519, 0.208075, 0.166991, 0.07975, 0.075599, 0.017404, 0.002673, -0.036743, -0.059181, -0.042578, -0.045105, -0.015561, -0.01108, -0.116828, -0.151591, -0.214408, -0.146885, -0.015248, -0.049914, -0.181021, -0.296274, -0.330689, -0.35754, -0.281644, -0.212471, -0.131714, 0.014372, 0.073982, 0.107871, 0.102794, 0.076658, 0.082178, 0.033844, -0.020783, -0.007179, 0.036854, 0.025125, 0.000346, 0.049692, 0.013363, 0.047524, -0.020549, -0.091198, -0.108544, -0.165544, 0.029542, 0.025043, -0.119095, -0.275262, -0.37454, -0.476329, -0.450229, -0.480808, -0.399314, -0.330632, -0.248646, -0.147361, -0.072734, -0.070536, -0.042306, -0.068462, -0.022737, -0.049606, -0.039541, -0.000333, 0.024353, 0.047798, -0.02813, -0.021383, 0.04694, -0.092194, 0.043145, -0.073195, 0.097037, -0.0673, -0.020544, -0.151015, -0.297248, -0.374738, -0.54757, -0.666734, -0.682809, -0.624593, -0.588807, -0.486737, -0.38429, -0.244921, -0.145538, -0.11424, -0.090306, 0.010341, 0.020635, 0.019284, -0.003571, 0.031256, -0.013624, -0.038548, -0.040986, -0.103286, -0.008683, -0.037531, 0.03196, 0.052767, -0.015122, -0.091458, -0.166947, -0.203948, -0.337167, -0.413461, -0.491896, -0.475833, -0.364951, -0.336816, -0.221032, -0.170513, -0.057735, -0.030468, -0.023262, 0.022199, 0.017754, 0.018072, -0.020492, 0.030102, 0.069895, -0.013013, -0.151986, -0.067324, -0.054867, 0.035904, 0.159849, 0.197363, 0.096453, -0.028947, -0.03302, -0.020046, -0.04043, -0.027487, -0.033191, 0.013698, 0.088988, 0.077049, 0.056657, 0.023411, 0.034406, 0.023207, 0.014317, 0.004183, 0.008391, 0.043104, 0.045224, 0.06905, 0.031241, -0.003431, -0.072213, -0.039011, -0.133237, -0.060207, 0.099841, 0.176313, 0.063285, -0.01547, 0.138577, 0.161558, 0.152312, 0.212791, 0.256626, 0.224684, 0.23347, 0.203559, 0.172018, 0.069602, 0.039478, -0.011254, 0.003585, 0.021464, 0.040199, 0.026393, 0.045256, 0.006877, -0.042993, -0.032071, -0.047398, -0.094854, -0.104506, -0.059277, 0.068654, 0.088467, 0.044473, 0.03694, 0.120823, 0.19063, 0.216307, 0.243617, 0.244422, 0.206396, 0.183926, 0.171096, 0.096942, 0.053125, 0.075891, 0.051111, 0.026589, 0.013531, -0.00662, -0.009398, 0.018484, 0.017326, -0.077971, -0.048386, -0.040769, -0.07838, -0.015506, -0.077524, 0.138344, 0.06949, 0.07003, 0.08709, 0.1294, 0.179244, 0.170061, 0.149381, 0.197646, 0.135017, 0.136439, 0.133348, 0.05575, 0.047233, 0.030829, 0.035563, -0.00385, -0.041817, -0.038569, -0.024731, -0.004291, -0.057215, -0.013192, 0.008996, -0.167107, -0.079666, -0.065853, -0.058684, 0.09048, 0.010659, 0.155305, 0.114265, 0.077657, 0.174013, 0.107342, 0.10475, 0.09629, 0.083554, 0.084377, 0.067658, 0.001026, 0.07729, 0.009766, 0.001944, -0.053128, -0.018575, -0.007343, -0.054256, -0.05543, -0.085816, -0.044201, -0.145189, -0.138769, 0.01373, -0.013986, -0.005797, 0.027241, 0.049472, 0.065573, 0.037658, 0.098623, 0.125916, 0.146053, 0.05892, 0.064131, 0.032242, 0.002088, -0.006373, 0.069776, -0.005997, -0.023861, -0.047968, -0.019939, 0.043058, 0.001372, -0.090684, -0.063191, -0.039138, -0.071485, -0.024822, -0.061915, -0.027001, 0.008221, -0.056271, 0.017847, 0.012154, -0.02971, 0.073083, 0.01737, 0.03005, 0.033031, 0.023039, -0.011261, 0.015929, -0.076401, 0.004948, 0.038559, -0.056919, -0.014213, -0.053886, -0.100215, -0.112718, 0.055952, -0.083867, -0.033193, -0.068474, -0.02336, -0.034292, -0.005876, -0.041295, -0.035712, -0.016434], [0.018548, 0.020996, -0.002138, -0.027393, -0.015759, 0.018204, -0.002626, -0.004366, -0.010274, 0.01421, 0.06642, 0.053098, 0.01897, 0.093862, 0.086687, 0.067668, -0.025882, -0.049166, -0.063703, -0.099706, -0.083437, -0.123527, -0.071144, -0.098628, -0.050723, -0.023986, -0.037639, -0.012463, -0.050101, -0.021235, -0.022132, -0.038296, 0.04209, 0.008582, 0.033367, -0.002212, 0.045078, 0.051988, 0.121098, 0.105153, 0.113062, 0.216134, 0.205718, 0.11104, 0.153121, 0.16234, 0.060287, -0.054303, -0.038812, -0.126562, -0.033209, -0.035465, -0.058964, 0.02556, -0.041932, -0.071604, -0.002653, 0.031295, -0.013237, 0.038429, 0.112983, 0.008564, 0.01927, -0.039566, 0.019812, 0.076665, 0.046586, 0.130241, 0.195134, 0.271831, 0.215256, 0.182521, 0.218577, 0.128062, 0.128897, 0.057279, 0.041236, -0.008397, -0.055978, -0.0395, -0.066808, -0.132173, -0.078323, -0.040824, -0.009099, 0.005171, 0.119306, 0.068298, 0.021796, 0.092325, -0.007194, -0.03126, -0.059001, -0.000925, 0.109161, 0.098254, 0.12241, 0.237694, 0.24524, 0.273702, 0.198798, 0.253797, 0.191219, 0.105274, 0.076979, -0.042432, -0.050931, -0.040252, -0.110041, -0.148222, -0.085698, -0.117655, -0.00429, -0.027261, 0.06495, 0.021177, -0.033372, -0.01872, -0.067327, -0.01224, 0.005884, 0.071727, 0.084617, 0.09897, 0.072775, 0.161936, 0.220671, 0.216518, 0.224654, 0.198987, 0.215296, 0.136874, 0.108636, 0.045763, 0.043525, -0.119762, -0.123087, -0.167998, -0.092309, -0.06858, -0.059743, -0.063864, -0.03513, -0.095273, -0.1014, -0.073717, -0.050096, -0.073369, 0.035186, 0.002437, 0.074022, 0.006542, 0.04869, 0.126602, 0.15223, 0.223555, 0.233135, 0.197842, 0.214868, 0.179889, 0.131898, 0.070838, 0.101582, 0.000214, -0.088955, -0.064124, -0.053834, -0.091957, -0.073847, -0.008088, -0.05523, -0.069881, -0.099912, -0.078836, -0.090236, -0.00069, 0.027079, 0.031649, 0.069237, 0.018211, 0.061914, 0.028255, 0.09323, 0.114195, 0.24111, 0.210277, 0.227069, 0.226534, 0.197096, 0.130986, 0.099635, 0.055589, -0.019799, -0.018247, -0.023723, -0.036291, -0.052934, -0.048307, -0.072361, -0.127046, -0.094022, -0.060947, -0.035973, 0.020183, -0.010331, -0.024181, 0.004265, -0.045874, -0.094453, -0.04932, 0.046363, 0.158731, 0.207171, 0.216132, 0.235886, 0.243228, 0.210735, 0.193616, 0.160983, 0.082952, 0.078634, 0.018528, 0.032308, 0.016449, 0.017252, -0.073907, -0.18841, -0.213742, -0.16, -0.144547, -0.103487, -0.090154, -0.068832, -0.100869, -0.15563, -0.212866, -0.188677, -0.210312, -0.147554, 0.019306, 0.136246, 0.203017, 0.248899, 0.231222, 0.257823, 0.225952, 0.219524, 0.140007, 0.057858, -0.013448, 0.033166, -0.07063, -0.075025, -0.132074, -0.20289, -0.204352, -0.252509, -0.262487, -0.24083, -0.234484, -0.220962, -0.242127, -0.260878, -0.258476, -0.275208, -0.328257, -0.272384, -0.114001, 0.055995, 0.086801, 0.148743, 0.131432, 0.206508, 0.17583, 0.164877, 0.076174, 0.02653, -0.003397, -0.098562, -0.077331, -0.003686, -0.158444, -0.149397, -0.216929, -0.270563, -0.322301, -0.317832, -0.294627, -0.288532, -0.257799, -0.261536, -0.241937, -0.295079, -0.277939, -0.291191, -0.153115, -0.068169, -0.039067, 0.052673, 0.086211, 0.15869, 0.142839, 0.144943, 0.053591, -0.006939, 0.005364, -0.099612, 0.049707, -0.006743, -0.030613, -0.120474, -0.10645, -0.256943, -0.333233, -0.302289, -0.238359, -0.150681, -0.195277, -0.093969, -0.070932, -0.1002, -0.1411, -0.119807, -0.07887, -0.089637, 0.000205, -0.037909, 0.015345, 0.123476, 0.145734, 0.146566, 0.060963, -0.009189, -0.028132, -0.064632, -0.040203, 0.03297, -0.090658, -0.137142, -0.120405, -0.169487, -0.14763, -0.050438, -0.040267, -0.003372, 0.005427, 0.09661, 0.066332, -0.004904, -0.031635, -0.072734, -0.058466, -0.05124, -0.064813, -0.055074, 0.010392, 0.098851, 0.111722, 0.061637, 0.046505, 0.029598, 0.033298, -0.023572, -0.007724, -0.009172, -0.018616, 0.061812, 0.032309, 0.039103, 0.073025, 0.064116, 0.103999, 0.138522, 0.110761, 0.120355, 0.117379, 0.04458, -0.079294, -0.134743, -0.013463, -0.012476, 0.002609, 0.023462, 0.052447, 0.038635, 0.101131, 0.046062, -0.014463, -0.071647, -0.007174, -0.035711, 0.023728, 0.017022, 0.035519, 0.130518, 0.113125, 0.123411, 0.179059, 0.133161, 0.104866, 0.073242, 0.103649, 0.067746, 0.054008, 0.002381, -0.058369, -0.054909, 0.003757, 0.032016, 0.048683, 0.044402, 0.072782, 0.048106, 0.052564, 0.028452, -0.01128, -0.013706, -0.045465, 0.018141, -0.0125, 0.026111, 0.110139, 0.097009, 0.082833, 0.184883, 0.152165, 0.089748, 0.052802, 0.039727, 0.04113, 0.013973, 0.047827, -0.006707, -0.043326, -0.058987, 0.024593, 0.036945, 0.034091, 0.069815, 0.055331, 0.015953, -0.001257, -0.015213, -0.004917, -0.049665, -0.083319, 0.041114, -0.006636, 0.088668, 0.053807, 0.021832, 0.088355, 0.144278, 0.065788, -0.070579, -0.061594, -0.043725, 0.026478, -0.028581, -0.032775, -0.020034, -0.010001, 0.010889, 0.019933, 0.015185, 0.028155, 0.002985, -0.029539, -0.019115, -0.064857, -0.058214, -0.006867, -0.066259, -0.068952, -0.028737, -0.044283, 0.061444, 0.058893, 0.031194, 0.050979, 0.094121, -0.000377, -0.019554, -0.02812, -0.041778, -0.048192, -0.043518, 0.00314, 0.002619, -0.014002, -0.018479, -0.005392, 0.032203, 0.042411, -0.018201, -0.002793, -0.070673, -0.024907, -0.051033, -0.066786, -0.083106, -0.034287, -0.029238, -0.013094, 0.067618, 0.071847, 0.019549, 0.038032, -0.007667, 0.011062, -0.033446, -0.045902, -0.003804, -0.030226, -0.043417, -0.018516, 0.005595, 0.028129, -0.003219, 0.038187, -0.02737, -0.058497, -0.038624, -0.019555, -0.073205, -0.034064, -0.080057, -0.089502, -0.006015, 0.019824, -0.093329, -6.4e-05, -0.119274, -0.047339, -0.043127, -0.060508, -0.015918, 0.023188, -0.03406, -0.049047, -0.041957, -0.067717, 0.001882, -0.031268, 0.014782, 0.061314, -0.013438, 0.014221, -0.005971, -0.047207, -0.042287, -0.053728, -0.073302, -0.042013, -0.113118, -0.031681, -0.024131, 0.027585, -0.032208, 0.060003, -0.049481, -0.000577, -0.096619, 0.002599, -0.020113, -0.040646, -0.010353, -0.069773, -0.065047, 0.005096, -0.022715, 0.052779, 0.040939, -0.010395, 0.017614, 0.007812, 0.028465, -0.025782, -0.056547, -0.050251, -0.02559, -0.089171, -0.110153, 0.004534, 0.005214, -0.040635, -0.07338, -0.07609, -0.031362, 0.044275, 0.021123, 0.012644, -0.077688, -0.08745, -0.011907, -0.07156, -0.066255, -0.052554, 0.007604, -0.022546, -0.035707, 0.010433, -0.002247, 0.021737, -0.014815, 0.006504, -0.050459, 0.000236, -0.046271, 0.006727, -0.054091, 0.000992, 0.006772, -0.016278, 0.06429, -0.026861, -0.026404, -0.012146, -0.0349, -0.02816, -0.115276, -0.0968, -0.056438, -0.01112, -0.014024, -0.071975, 0.013636, 0.012456, -0.001568, -0.004019, 0.053859, 0.006812, 0.008905, 0.045462, -0.027527, -0.02623, -0.044855, -0.037534, -0.026536, 0.058079, 0.025342, -0.069846, 0.006876, 0.062995, -0.020958, -0.113508, -0.042549, -0.091286, -0.052681, -0.010902, -0.056294, -0.019306, -0.047982, 0.022924, -0.002156, 0.026645, 0.017555, 0.014329, -0.059341, -0.04019, -0.018923, 0.031959, -0.016331, 0.031332, -0.023349, -0.060107, 0.057193, 0.034175, 0.016588, 0.002741, 0.047349, -0.013832, 0.027301, 0.002437, -0.05042, -0.010635, 0.071391, 0.002894, -0.024308, -0.043588, -0.006596, -0.021979, -0.032219, -0.037572, -0.024229, -0.092844, -0.037034, 0.003995, 0.015336, -0.014578, -0.022615, -0.088125, -0.029911, 0.025193, -0.004836, -0.074475, -0.080485, -0.096143, -0.026557, -0.053841, -0.004512, 0.03215, -0.007337, 0.007868, 0.049583, 0.044028, -0.001811, -0.025239, 0.101303, 0.089877, 0.047113, 0.00165, 0.055426, 0.000648, -0.065946, -0.041294, -0.027626, -0.048443, -0.029397, -0.057713, 0.002396, -0.001121, -0.054978, -0.057301, 0.00482, -0.031977, 0.004463, -0.017618, 0.051419, -0.040473, -0.054191, -0.04211, -0.085186, -0.059904, -0.084938, -0.002456, 0.025373, -0.04896, -0.026006, -0.063941, -0.034769, -0.007406, 0.017914, 0.005095, 0.005922, 0.138751, 0.104642, 0.026017, -0.036446, -0.015783, -0.046696, -0.012036, -0.091992, 0.004538, -0.073243, -0.001976, -0.003418, 0.035614, 0.047626, 0.057157, 0.073221, 0.014353, 0.057823, 0.019903, 0.052535, -0.030322, 0.084805, 0.088607, 0.097267, 0.047155, 0.062021, 0.01573, 0.121588, 0.121295, 0.071014, 0.082971, -0.01983, -0.01099, -0.011578, 0.004125, -0.021509, 0.003369, -0.021601, -0.024699], [-0.00999, 0.016951, -0.018086, -0.014099, -0.056844, 0.031483, 0.02102, 0.021489, -0.014601, 0.00741, 0.037052, 0.047328, 0.018474, -0.064045, -0.063726, -0.03363, -0.048154, -0.036643, 0.04817, 0.046915, 0.047053, 0.062219, 0.05524, 0.064652, 0.011147, -0.067124, 0.007597, 0.015889, 0.008328, -0.025637, -0.040339, -0.062524, -0.003986, -0.019135, -0.069312, -0.054257, 0.011652, -0.04942, -0.046663, -0.124606, -0.145331, -0.124643, -0.120999, -0.096766, -0.00784, -0.098296, -0.136897, -0.168288, -0.087607, -0.128523, -0.106059, -0.042151, -0.040205, -0.038784, -0.043864, -0.00463, -0.011512, -0.009102, -0.047929, -0.077627, -0.139057, -0.034702, -0.068612, -0.034629, -0.040038, 0.064416, 0.01488, -0.071844, -0.102765, -0.134081, -0.080721, -0.050003, -0.070665, -0.050367, -0.091147, -0.163548, -0.034574, -0.024936, -0.030805, -0.029899, 0.028303, 0.043544, -0.023755, 0.012409, 0.00435, -0.025259, -0.053933, -0.115379, -0.115522, -0.106155, -0.07867, -0.080437, -0.067103, -0.050416, -0.105082, -0.042106, -0.087657, -0.118022, -0.097213, -0.062268, -0.068762, -0.09056, -0.094604, -0.12718, -0.053494, -0.10016, -0.092615, -0.13673, -0.128294, -0.075466, -0.073516, -0.022644, -0.08755, -0.068298, -0.123704, -0.158215, -0.154767, -0.163994, -0.072405, -0.06409, -0.079622, -0.00083, -0.042453, 0.018402, -0.036269, -0.04494, -0.051057, -0.042484, -0.053139, -0.030226, -0.083216, -0.085943, -0.084944, -0.110875, -0.091736, -0.066101, -0.204666, -0.116834, -0.129762, -0.013763, -0.034046, -0.021216, -0.058891, -0.147981, -0.07089, -0.112887, -0.042327, -0.115415, -0.062902, -0.034231, 0.015775, -0.041685, -0.039285, -0.079859, -0.023745, -0.036754, -0.025812, -0.033868, -0.029786, -0.104683, -0.039786, -0.047343, -0.051459, -0.056107, -0.114078, -0.093044, 0.000175, -0.061603, -0.026563, -0.042481, -0.017646, -0.117478, -0.095095, -0.038938, -0.068817, -0.099379, -0.068363, -0.098797, -0.032063, -0.0126, -0.040284, -0.036787, -0.011307, -0.01185, 0.024444, -0.043317, -0.071816, -0.096609, -0.103183, -0.064904, -0.042385, -0.079305, -0.159684, -0.019332, -0.047921, -0.04959, -0.083457, -0.173686, -0.015875, -0.080077, -0.099003, -0.101996, -0.083397, -0.028057, -0.063021, -0.130132, -0.085815, -0.07021, -0.086329, -0.100513, -0.05819, -0.066204, -0.031703, -0.02244, 0.01072, -0.041182, -0.061813, -0.035475, -0.047822, -0.054906, -0.061692, -0.048424, -0.045475, 0.008445, -0.046485, -0.059965, 0.009207, -0.019672, -0.086386, -0.107715, -0.054429, -0.059939, -0.073289, -0.114937, -0.11035, -0.127351, -0.114319, -0.144132, -0.036826, -0.021516, 0.015666, -0.036422, -0.042629, -0.074489, -0.066933, -0.06971, -0.043391, -0.014809, -0.101092, -0.140314, 0.025307, 0.100783, -0.098299, -0.068666, 0.025093, -0.015352, -0.096261, -0.080207, -0.121965, -0.073575, -0.138347, -0.107749, -0.095282, -0.151463, -0.146108, -0.076191, -0.067558, 0.005048, 0.003292, -0.040088, -0.021531, -0.027487, -0.029478, -0.071909, -0.123152, -0.076133, -0.096999, -0.071708, -0.056749, -0.006004, -0.097451, -0.007717, 0.064167, -0.009269, -0.151603, -0.088576, -0.134172, -0.15259, -0.125308, -0.122603, -0.069388, -0.056753, -0.084837, -0.075499, -0.029914, -0.078604, -0.034621, -0.061408, -0.044177, -0.049477, -0.011087, -0.055977, -0.114712, -0.131381, -0.129747, -0.06254, -0.063012, 0.053035, -0.040879, -0.046353, -0.035129, -0.082854, -0.133373, -0.159794, -0.10768, -0.128381, -0.127817, -0.102685, -0.045643, -0.126203, -0.099321, -0.113258, -0.095846, -0.117569, -0.086813, -0.045216, -0.039565, -0.00039, -0.091322, -0.066842, -0.120168, -0.206697, -0.245718, -0.24466, -0.21371, -0.049801, -0.058661, -0.01395, 0.037198, -0.071874, -0.110405, -0.140527, -0.124723, -0.107396, -0.064467, -0.078974, -0.046654, -0.097195, -0.099121, -0.119625, -0.114654, -0.112164, -0.115401, -0.092754, -0.066558, -0.131494, -0.153114, -0.170917, -0.181956, -0.27997, -0.21815, -0.29504, -0.23834, -0.125355, 0.00238, 0.045256, -0.027554, -0.134414, -0.06768, -0.077138, -0.087814, -0.117065, -0.040845, -0.099545, -0.06918, -0.065641, -0.119368, -0.088257, -0.096436, -0.154635, -0.115676, -0.121607, -0.132351, -0.189297, -0.247022, -0.217949, -0.216117, -0.179734, -0.213227, -0.21242, -0.161182, -0.049212, 0.002115, -0.034275, -0.045777, -0.01597, 0.000456, -0.00489, -0.026566, -0.014091, -0.041701, -0.073776, -0.042488, -0.079597, -0.087514, -0.109384, -0.123893, -0.112754, -0.091533, -0.11578, -0.099944, -0.11488, -0.153725, -0.147116, -0.210839, -0.171259, -0.164161, -0.113299, -0.117515, -0.013667, 0.022298, 0.065551, 0.086959, 0.076583, 0.078734, 0.122792, 0.06705, 0.007353, 0.021867, -0.037373, -0.030092, -0.091444, -0.135867, -0.052371, -0.101465, -0.074234, -0.043104, -0.083902, -0.012448, -0.014696, -0.097822, -0.041042, -0.056936, -0.108706, -0.047854, -0.075119, 0.013028, 0.038059, 0.006298, 0.06462, 0.069324, 0.161815, 0.166697, 0.211663, 0.113942, 0.13902, 0.129551, 0.126061, 0.045334, 0.066265, -0.006687, 0.053017, 0.055877, 0.03074, 0.055028, 0.061954, 0.111926, 0.068045, 0.052969, 0.124992, 0.096789, 0.059691, -0.021443, 0.037412, 0.069361, 0.150396, 0.072127, 0.067522, 0.205882, 0.124079, 0.201422, 0.178692, 0.206607, 0.247979, 0.228141, 0.212577, 0.177811, 0.195905, 0.156345, 0.167587, 0.202289, 0.189387, 0.16418, 0.189203, 0.163044, 0.132165, 0.128767, 0.153778, 0.158354, 0.145431, 0.062442, 0.153428, 0.055547, 0.120442, 0.064601, 0.054273, 0.081864, 0.126579, 0.228067, 0.175112, 0.201327, 0.231201, 0.231552, 0.242108, 0.177949, 0.165553, 0.218861, 0.198855, 0.21771, 0.234038, 0.267318, 0.209044, 0.246889, 0.252903, 0.210189, 0.149239, 0.177921, 0.174672, 0.166703, 0.179758, 0.082015, 0.207246, 0.070977, 0.12698, 0.123289, 0.107413, 0.171238, 0.202022, 0.135609, 0.181965, 0.165501, 0.195876, 0.189858, 0.193421, 0.177243, 0.222053, 0.198022, 0.263985, 0.271258, 0.242312, 0.251516, 0.189519, 0.180826, 0.207219, 0.165114, 0.186993, 0.112555, 0.201669, 0.131006, 0.118508, 0.030959, 0.070718, 0.112225, 0.105227, 0.127485, 0.098015, 0.082454, 0.113032, 0.126381, 0.156236, 0.140861, 0.132442, 0.112482, 0.124783, 0.189415, 0.199679, 0.196517, 0.166836, 0.215931, 0.199577, 0.182615, 0.109134, 0.16533, 0.215325, 0.197772, 0.159971, 0.149581, 0.048273, 0.087571, 0.045732, 0.022556, 0.078859, 0.043017, 0.007852, 0.057903, 0.09241, 0.06061, 0.073148, 0.094736, 0.105689, 0.069648, 0.061198, 0.076054, 0.062932, 0.121429, 0.149861, 0.100979, 0.112801, 0.074377, 0.081556, 0.117981, 0.083688, 0.064831, 0.052956, 0.101426, 0.058985, 0.085016, 0.004929, 0.045945, 0.041704, 0.04802, 0.008809, -0.018005, 0.029534, 0.045032, 0.032615, 0.044384, 0.057103, 0.029703, 0.023306, 0.03163, 0.017443, 0.014042, 0.059187, -0.017656, 0.006562, -0.062249, 0.014387, -0.022531, -0.077759, 0.030856, -0.024942, -0.000364, -0.024787, 0.012227, 0.066186, -0.033736, -0.053019, -0.021781, -0.007217, -0.019091, 0.017045, 0.019584, 0.003964, 0.002321, 0.019994, 0.047246, -0.023559, -0.065205, 0.014525, -0.016807, -0.059254, -0.100782, -0.104046, -0.118011, -0.073686, -0.034055, -0.064897, 0.01481, -0.00914, -0.014563, -0.007269, 0.043884, 0.00466, -0.066004, -0.089009, -0.094983, -0.019641, -0.011201, -0.006276, 0.007322, 0.01655, -0.054066, -0.020921, 0.007349, -0.067185, -0.053418, -0.091565, -0.096787, -0.106892, -0.070054, -0.126553, -0.136863, -0.104978, -0.038517, -0.09576, 0.01255, 0.042244, 0.031637, -0.029949, -0.031236, 0.00416, 0.098501, -0.010932, 0.080624, 0.019168, -0.015617, 0.014772, -0.098231, -0.162051, -0.09231, -0.048387, -0.13457, -0.075466, -0.086842, -0.083336, -0.034468, -0.057609, -0.049807, -0.013234, -0.051696, -0.057438, -0.044896, -0.11125, -0.08021, 0.026464, -0.000677, -0.013409, 0.036924, 0.014122, 0.072233, 0.027982, 0.084771, 0.04731, -0.019927, 0.046202, 0.01543, -0.051928, -0.103389, -0.044969, 0.034271, -0.013046, -0.026759, -0.01169, 0.052088, 0.039582, 0.010413, 0.074886, 0.073349, -0.022708, 0.042681, 0.006092, -0.052096, -0.009538, -0.001584, -0.048577, 0.058697, 0.068673, 0.026549, 0.022036, -0.019006, -0.063832, -0.111147, 0.092955, 0.117779, 0.078593, 0.012893, 0.053622, 0.079444, 0.136198, 0.142131, 0.083205, 0.048483, -0.022627, 0.024993, 0.026569, 0.112698, -0.015782, -0.046185, -0.110607, 0.002266, -0.02336, -0.02878, 0.050636], [-0.01411, 0.016357, 0.05791, -0.014174, -0.060099, -0.051468, -0.065624, -0.097881, -0.014061, 0.028366, -0.011053, -0.054157, -0.035452, 0.00929, 0.019819, 0.007004, 0.083405, 0.067416, 0.073372, 0.005652, -0.021214, 0.004243, -0.001196, 0.007768, 0.07245, 0.073031, 0.014702, -0.01451, 0.024531, 0.037272, 0.060093, -0.022075, -0.034501, -0.011195, -0.097782, -0.079095, -0.035396, -0.031859, -0.029817, -0.087412, 0.032873, -0.004508, -0.107804, 0.057431, 0.080574, 0.140751, 0.164519, 0.12672, 0.134403, 0.05931, 0.099776, 0.066073, 0.042552, 0.010283, 0.042443, 0.030049, 0.021586, 0.074012, 0.026526, 0.034917, -0.003523, -0.07515, -0.14323, -0.095844, 0.018388, 0.034804, 0.004642, 0.046942, 0.075755, -0.006841, -0.002327, 0.072171, 0.065903, 0.098299, 0.112806, 0.101597, 0.089241, 0.14411, 0.121755, 0.118453, 0.054201, 0.006033, 0.05825, 0.064263, 0.059783, 0.011264, -0.113712, 0.026702, -0.014009, -0.121674, -0.135652, -0.088759, -0.011877, -0.050326, -0.023792, 0.013229, 0.004941, 0.043603, 0.066726, 0.017552, 0.05005, 0.091793, 0.114777, 0.088324, 0.133235, 0.121984, 0.126113, 0.167593, 0.082753, 0.119973, 0.146628, 0.060755, -0.016084, 0.005262, -0.051064, -0.004088, -0.069304, -0.113094, -0.173491, -0.112606, -0.10085, -0.071836, -0.093194, -0.007985, 0.014135, -0.004727, -0.032717, 0.010897, 0.064716, 0.080092, 0.085765, 0.094808, 0.105773, 0.165153, 0.138443, 0.123291, 0.088446, 0.085356, 0.088026, 0.041484, -0.076358, 0.010037, -0.062015, -0.043594, -0.127544, -0.284178, -0.310633, -0.157626, -0.100673, -0.031818, 0.010781, -0.004028, 0.029351, 0.021783, 0.002244, 0.053409, 0.032438, 0.124887, 0.109611, 0.06963, 0.089365, 0.09068, 0.045807, 0.074537, 0.079505, -0.031349, 0.078273, 0.087497, -0.006902, 0.000103, -0.045737, -0.109614, -0.274038, -0.258156, -0.202762, -0.077429, 0.021914, 0.029825, 0.041954, -0.015638, 0.049156, 0.052913, 0.056894, 0.085966, 0.082012, 0.085213, 0.091785, 0.023835, 0.044004, 0.010001, 0.023368, 0.035327, 0.04123, 0.05745, -0.007325, 0.027172, 0.035548, 0.060817, 0.045449, -0.128727, -0.230721, -0.258225, -0.180937, -0.06428, 0.004315, 0.064951, 0.07396, 0.049663, 0.03087, 0.011402, 0.010214, 0.060165, 0.036274, 0.083567, 0.053734, -0.04094, -0.052641, -0.073099, -0.077635, -0.016768, 0.007054, 0.029777, -0.027893, -0.006233, 0.142929, 0.148026, 0.04042, 0.028748, -0.195808, -0.174099, -0.084417, -0.004001, -0.01234, 0.049542, 0.020537, 0.023286, 0.011295, 0.082259, 0.032383, 0.083579, 0.049621, 0.007283, -0.034021, -0.099926, -0.105477, -0.070868, -0.12147, -0.067415, 0.009003, 0.02974, -0.023516, 0.011368, 0.18549, 0.084005, 0.03576, -0.021711, -0.159011, -0.212231, -0.124377, -0.086605, -0.018849, -0.042518, -0.015999, 0.00716, 0.016416, 0.110784, 0.143594, 0.030575, 0.061006, -0.048187, -0.149437, -0.131808, -0.08696, -0.086306, -0.059072, -0.022227, 0.034742, 0.024236, 0.012178, -0.01369, 0.178994, 0.047069, 0.117833, -0.030623, -0.020484, -0.128776, -0.039615, -0.002553, 0.011128, 0.004846, -0.016858, 0.047183, 0.074094, 0.16753, 0.176546, 0.09845, 0.059562, 0.034291, -0.048563, -0.091495, -0.090749, 0.009198, -0.009009, 0.00574, 0.064563, -0.038178, 0.041299, -0.085854, 0.06721, 0.037951, 0.011925, -0.061777, -0.110287, -0.021906, 0.018982, 0.026422, 0.032146, 0.022831, 0.020364, 0.002555, 0.055807, 0.11833, 0.058223, 0.091639, 0.090762, 0.078309, 0.083832, 0.016576, -0.023153, -0.013003, -0.012766, -0.029411, 0.065654, 0.005523, 0.054095, 0.001512, 0.043022, 0.021662, 0.023494, -0.040159, -0.094312, -0.005337, -0.040213, 0.013639, 0.006211, 0.013733, 0.036008, 0.055635, 0.045024, 0.065995, -0.050399, 0.019506, 0.036031, 0.105615, 0.028849, 0.021919, 0.008917, 0.011028, 0.000445, 0.066082, 0.056273, 0.016745, 0.073453, 0.025437, 0.026563, 0.007377, 0.080008, 0.041506, -0.094577, -0.040589, -0.049943, 0.008573, 0.024532, 0.043308, 0.122895, 0.114988, 0.102243, -0.092071, -0.07578, -0.070513, -0.018569, -0.036583, -0.002802, -0.008511, -0.021538, -0.004246, 0.033628, 0.055344, 0.041699, -0.055143, -0.145215, 0.025973, -0.046149, -0.015654, -0.003807, 0.023025, -0.076441, -0.034392, -0.095451, 0.024239, 0.000615, 0.068964, 0.130653, 0.147436, 0.016469, -0.106753, -0.176365, -0.123239, -0.113154, -0.064805, -0.072411, -0.006928, 0.016138, 0.02032, 0.047532, -0.005972, -0.078215, -0.142415, -0.116321, 0.008793, -0.036094, 0.04607, -0.012415, 0.038657, 0.004131, -0.000593, 0.006882, 0.075177, 0.083304, 0.017856, 0.093658, 0.114211, 0.038389, -0.097594, -0.15937, -0.190589, -0.111499, -0.103103, -0.012902, -0.056586, -0.034628, -0.034171, -0.051218, -0.076505, -0.203263, -0.192892, -0.250142, -0.081129, -0.046072, 0.003736, 0.056174, 0.027164, 0.013283, 0.042019, 0.051051, 0.036614, 0.063331, 0.118296, 0.083614, 0.144892, 0.04029, -0.064363, -0.124482, -0.048217, -0.088715, -0.086038, -0.039827, -0.01919, -0.006195, -0.051357, -0.152601, -0.243928, -0.259507, -0.206451, -0.285894, -0.103233, -0.016998, 0.020694, -0.029583, 0.056833, 0.050201, 0.088631, 0.073133, 0.06556, 0.053357, 0.055803, 0.114568, 0.189339, 0.094587, -0.02845, -0.071013, -0.08791, -0.053071, 0.018108, 0.003761, -0.005792, -0.063311, -0.093351, -0.218058, -0.307875, -0.30982, -0.340806, -0.280653, -0.077254, 0.031015, -0.058817, -0.013892, 0.058046, 0.091822, 0.117681, 0.054676, 0.084858, 0.102722, 0.042869, 0.100446, 0.110837, 0.138864, 0.020778, -0.094736, -0.058617, -0.006227, 0.037515, 0.056578, 0.016613, -0.078724, -0.21706, -0.282912, -0.389208, -0.371183, -0.368831, -0.241857, -0.200466, -0.090021, 0.097121, 0.055575, 0.160644, 0.162613, 0.044368, 0.102942, 0.082918, 0.056532, 0.051835, 0.080653, 0.149253, 0.184817, 0.088179, -0.012391, -0.043865, 0.047268, 0.029661, 0.101898, -0.04075, -0.136043, -0.332018, -0.420147, -0.419959, -0.326557, -0.31546, -0.160894, -0.095308, -0.056989, -0.032504, 0.072363, 0.034853, 0.043447, 0.09347, -0.015894, -0.022762, 0.051579, 0.039555, 0.082052, 0.124738, 0.233854, 0.123416, 0.036367, 0.059371, 0.088935, 0.07756, 0.012504, -0.17618, -0.341979, -0.433057, -0.448345, -0.389593, -0.293023, -0.203806, -0.053902, -0.091774, -0.028358, -0.114368, -0.113288, 0.021292, 0.018085, -0.002129, -0.093937, -0.032129, -0.061539, -0.002124, 0.086023, 0.134458, 0.114384, 0.097011, 0.079387, 0.0418, 0.053297, 0.021177, -0.171342, -0.326328, -0.445124, -0.450184, -0.387911, -0.395108, -0.273823, -0.089113, 0.07308, 0.003253, 0.007953, -0.134218, -0.152951, -0.104962, -0.038597, -0.051587, -0.112091, -0.094594, -0.086181, -0.016501, -0.009822, 0.046149, 0.04742, 0.064173, 0.045724, 0.017325, -0.017414, -0.175153, -0.273495, -0.427272, -0.528298, -0.458912, -0.301252, -0.200813, -0.147416, -0.053315, 0.01639, 0.047268, -0.031045, -0.119921, -0.102135, -0.102618, -0.016722, -0.037613, -0.065005, -0.056578, -0.05776, -0.034112, -0.0232, -0.027531, -0.007269, 0.026216, -0.046501, -0.093011, -0.1698, -0.330135, -0.390065, -0.382809, -0.367286, -0.306604, -0.167185, -0.161784, -0.11109, -0.121119, -0.081857, 0.016918, -0.072259, -0.022778, -0.118618, -0.012068, -0.076716, -0.004247, -0.011514, -0.046688, -0.048822, -0.082592, -0.057803, -0.101655, -0.094816, -0.076062, -0.091398, -0.161382, -0.246258, -0.326249, -0.314551, -0.262061, -0.252923, -0.20104, -0.182104, -0.130684, -0.021297, -0.06387, -0.000771, -0.025008, 0.011944, -0.017991, 0.061761, 0.041266, 0.011314, -0.062705, -0.014167, 0.008639, -0.086453, -0.169579, -0.167608, -0.195776, -0.295454, -0.320159, -0.366665, -0.29119, -0.263935, -0.214055, -0.169235, -0.181441, -0.208393, -0.144937, -0.078853, -0.10167, -0.060723, -0.022977, -0.02228, 0.01102, -0.0388, 0.001514, 0.0259, 0.000234, -0.119634, -0.083885, -0.101805, -0.044204, -0.074434, -0.128986, -0.183177, -0.255195, -0.318638, -0.373775, -0.333223, -0.236823, -0.159843, -0.125248, -0.139742, -0.140204, -0.124589, -0.108637, -0.065668, -0.119595, -0.045736, 0.011254, 0.008878, 0.007241, -0.005572, 0.032692, -0.000922, -0.017346, 0.026203, 0.090005, -0.018176, -0.017817, -0.018561, -0.009722, -0.078135, -0.210322, -0.25514, -0.118009, -0.168187, -0.16056, -0.079684, 0.018673, -0.029944, -0.051068, 0.043218, 0.046001, 0.013749, -0.047935, -0.020778, 0.002315, -0.019109, -0.018279], [0.034029, 0.039278, 0.065899, -0.013824, 0.046595, 0.05783, 0.078697, 0.120374, 0.193624, 0.171084, 0.131874, 0.187295, 0.190032, 0.143569, 0.093646, 0.072317, 0.034541, 0.008918, -0.017642, -0.027316, 0.011126, 0.037778, 0.054544, 0.040271, -0.011161, 0.002055, -0.013647, 0.002852, 0.007873, -0.016843, -0.018841, 0.043606, 0.018146, 0.025694, 0.013164, 0.094833, 0.05838, 0.077438, 0.052548, 0.028831, 0.043408, 0.040721, 0.019708, -0.101293, -0.127562, -0.187529, -0.106009, -0.063338, -0.076525, 0.002173, -0.042737, -0.104368, -0.028421, -0.00054, 0.01433, 0.010861, -0.00196, 0.019345, 0.016115, 0.007178, -0.033546, -0.012615, 0.024539, 0.00097, 0.077392, 0.066897, 0.067986, 0.05021, 0.032259, -0.071397, -0.003881, -0.034343, -0.115542, -0.183846, -0.216769, -0.058743, -0.001643, 0.011532, -0.02738, -0.11833, -0.097947, -0.056399, -0.048665, -0.020012, 0.04167, 0.073789, -0.006189, -0.081453, -0.04909, 0.054869, 0.015863, 0.06569, 0.00234, -0.015567, -0.022033, -0.023991, -0.08014, -0.032903, -0.069207, -0.205815, -0.161248, -0.106177, -0.10206, -0.08944, -0.062627, -0.137838, -0.135277, -0.109212, -0.155448, -0.03901, 0.051468, 0.058431, 0.015635, 0.089188, 0.02842, 0.008151, 0.156002, 0.144369, 0.092823, 0.070064, 0.095026, 0.051475, -0.002579, -0.052795, -0.014744, -0.063643, -0.206398, -0.199842, -0.121627, -0.011476, 0.000823, -0.072071, -0.069369, -0.154676, -0.181902, -0.207616, -0.20466, -0.166169, -0.003789, -0.038811, 0.07838, 0.028041, 0.032627, 0.006727, 0.066387, 0.104951, 0.117201, 0.055297, 0.093265, 0.048703, -0.013091, 0.008882, -0.044309, -0.065465, -0.111648, -0.055543, -0.010013, 0.020574, 0.002463, -0.045195, -0.118172, -0.180091, -0.205848, -0.247095, -0.219608, -0.186904, -0.191331, -0.069879, 0.091081, 0.010594, -0.005667, 0.093878, 0.046114, 0.078863, 0.041173, 0.070462, 0.016763, 0.03588, 0.034589, -0.01143, -0.003814, -0.10011, -0.141234, -0.054478, 0.025186, 0.116538, 0.105559, -0.002215, -0.062195, -0.062002, -0.128678, -0.158599, -0.258902, -0.216301, -0.098607, -0.086203, 0.095845, 0.045185, 0.093516, 0.120001, 0.032523, 0.006372, 0.050895, -0.008282, 0.026012, 0.066929, 0.03547, -0.054802, -0.090637, -0.072072, -0.115774, -0.053109, 0.054201, 0.075295, 0.042481, 0.026799, -0.021594, -0.049262, -0.023809, -0.069172, -0.144533, -0.141587, -0.030023, -0.054901, 0.077132, 0.079846, 0.022646, 0.10179, 0.052681, 0.039029, 0.071476, -0.000293, 0.022338, 0.039509, 0.015494, -0.095616, -0.097704, -0.082213, 0.026154, 0.017339, 0.085373, 0.086097, 0.091888, 0.064244, 0.026666, 0.019077, 0.018925, 0.014371, -0.063029, -0.034028, -0.085661, -0.093085, 0.058417, 0.121166, 0.032655, 0.088493, 0.086071, 0.069806, 0.016575, 0.000629, 0.015259, 0.022289, -0.069355, -0.115015, -0.04558, -0.055583, 0.016631, 0.080649, 0.071363, 0.128492, 0.158006, 0.111962, 0.155517, 0.118664, 0.033575, 0.031104, 0.079646, 0.028434, -0.050711, -0.100227, 0.046386, 0.05644, 0.102171, 0.081853, 0.094453, 0.090468, 0.049341, 0.012467, -0.007495, 0.009329, -0.057867, -0.036028, -0.077256, 0.008557, -0.041602, 0.009223, 0.062826, 0.077779, 0.121308, 0.133056, 0.203772, 0.139117, 0.162642, 0.100456, 0.10988, 0.063942, -0.082832, -0.023041, 0.169068, 0.068152, 0.0705, 0.052958, 0.06844, 0.021715, -0.008226, 0.032245, 0.015681, -0.016019, -0.020564, -0.037775, -0.088767, -0.104031, -0.115847, -0.019826, 0.012659, 0.040614, 0.078747, 0.118355, 0.161009, 0.200675, 0.122306, 0.103508, 0.032509, 0.038265, -0.160843, -0.01212, 0.084155, 0.049812, 0.0846, 0.05874, 0.035153, -0.013624, 0.052662, 0.004576, 0.041297, -0.041677, -0.034128, -0.018337, -0.147492, -0.219091, -0.089642, -0.054588, 0.002678, -0.011215, 0.033349, 0.083519, 0.154401, 0.197559, 0.178631, 0.040345, -0.152088, -0.129918, -0.14499, -0.031882, 0.014957, -0.037485, 0.02604, -0.004205, -0.00424, 0.022716, 0.032324, 0.036364, 0.0461, 0.037395, 0.049691, -0.067446, -0.196285, -0.152054, -0.105806, -0.041913, 0.017427, 0.067459, 0.060513, 0.052376, 0.101057, 0.170653, 0.152101, 0.033844, -0.127879, -0.148201, -0.107441, -0.049681, 0.068997, -0.00733, 0.020771, -0.047767, 0.023815, 0.004142, 0.031157, 0.019239, 0.015354, 0.012314, 0.012035, -0.034565, -0.149437, -0.108694, -0.025506, 0.072114, 0.074799, 0.093668, 0.122282, 0.151623, 0.161809, 0.151338, 0.099612, 0.062574, -0.1376, -0.101488, -0.057379, -0.020333, 0.036993, -0.108106, -0.051139, -0.022934, -0.002721, -0.046691, -0.00859, -0.078045, -0.032548, -0.042048, 0.022892, 0.003503, -0.110672, -0.087137, -0.006206, 0.138378, 0.108389, 0.134623, 0.127655, 0.082182, 0.119289, 0.092045, 0.130585, 0.005383, -0.064548, -0.078344, -0.113539, -0.020141, -0.01084, -0.16744, -0.11304, -0.046682, -0.016227, -0.02148, 0.042953, -0.02079, -0.017581, -0.032695, 0.002002, -0.049914, -0.078599, 0.020131, 0.111586, 0.176505, 0.181309, 0.191345, 0.148639, 0.163128, 0.115748, 0.074545, 0.082683, -0.074778, -0.0282, -0.051431, -0.115818, -0.071537, -0.042151, -0.158804, -0.089062, -0.092506, -0.093255, -0.016119, 0.020994, -0.036415, -0.09035, -0.068485, -0.00574, -0.075891, -0.061215, 0.048445, 0.176854, 0.216396, 0.162345, 0.140016, 0.124323, 0.087871, 0.097992, 0.028626, -0.058837, -0.18392, -0.135169, -0.020342, -0.217677, -0.195899, -0.032895, -0.109591, -0.036595, -0.094777, -0.056463, -0.020497, -0.026258, -0.04097, -0.072957, -0.077566, -0.061079, -0.043768, -0.003726, 0.096842, 0.198411, 0.176318, 0.075381, 0.111117, 0.037183, 7e-05, -0.035196, -0.096017, -0.128534, -0.203179, -0.248871, -0.134382, -0.016512, -0.037823, -0.015773, 0.107855, 0.04757, -0.096236, -0.04324, -0.057787, -0.052182, -0.063707, -0.035187, -0.07053, -0.133474, -0.10025, 0.04127, 0.065385, 0.093154, 0.113558, 0.01918, 0.012335, -0.096511, -0.085422, -0.144906, -0.173049, -0.173805, -0.226527, -0.277595, -0.213672, -0.063801, -0.004767, -0.114647, 0.012642, 0.004811, -0.092809, -0.11648, -0.127157, -0.170608, -0.174039, -0.157843, -0.199244, -0.14211, -0.085219, -0.043359, 0.063288, 0.033355, 0.000747, -0.025491, -0.074063, -0.185902, -0.212666, -0.260902, -0.263478, -0.25018, -0.286027, -0.169261, -0.149462, -0.04619, -0.039724, -0.057774, -0.033749, -0.091132, -0.185712, -0.155902, -0.074032, -0.15053, -0.210113, -0.090694, -0.172723, -0.127953, -0.072202, 0.004778, -0.004103, 0.01987, 0.020964, -0.004395, -0.060665, -0.208492, -0.249397, -0.257782, -0.248619, -0.234313, -0.241764, -0.143178, -0.190908, -0.056476, -0.002584, -0.001473, 0.008782, -0.038495, -0.186533, -0.133871, -0.072813, -0.045039, 0.016232, -0.058453, -0.006401, -0.044731, -0.060017, -0.01432, -0.063573, 0.011914, -0.029263, -0.018955, -0.088736, -0.226535, -0.197917, -0.238392, -0.191786, -0.14725, -0.137267, -0.083519, -0.104454, -0.094643, 0.02378, -0.098272, -0.033476, -0.109078, -0.19777, 0.000953, 0.022824, 0.023129, 0.071424, -0.019698, -0.073247, -0.041216, -0.011385, -0.038146, -0.026875, -0.033008, 0.026354, -0.046093, -0.141357, -0.161858, -0.216901, -0.297714, -0.250219, -0.10905, -0.085741, -0.023606, -0.046831, -0.027868, 0.04171, -0.041194, -0.100273, -0.106806, -0.112865, 0.044328, 0.066393, 0.031091, 0.080266, 0.001234, -0.032167, -0.068893, -0.063119, -0.034474, -0.067316, -0.012762, 0.032301, 0.016644, -0.070379, -0.160005, -0.184093, -0.183068, -0.209442, -0.178064, -0.096818, -0.107275, -0.042945, -0.028714, 0.011352, -0.053743, -0.042254, -0.085555, -0.078892, -0.023643, -0.025795, 0.045833, -0.019175, -0.024048, -0.014702, -0.012594, 0.030331, 0.036581, -0.054914, 0.018857, 0.010595, 0.02127, -0.047345, -0.088051, -0.119443, -0.148586, -0.178168, -0.176212, -0.20639, -0.112805, 0.030906, -0.019347, -0.030931, -0.000186, 0.026141, -0.053133, -0.057489, -0.072869, -0.047878, -0.008974, 0.031484, 0.023919, 0.045697, 0.01017, 0.045169, -0.00568, 0.03235, 0.053781, 0.096682, 0.078826, -0.025081, -0.043228, -0.062131, -0.20056, -0.058612, -0.025638, 0.027717, -0.032428, 0.077864, -0.011446, -0.003096, -0.001037, 0.003899, -0.007656, -0.073962, 0.030458, -0.005311, -0.0032, -0.069122, -1.3e-05, 0.040452, 0.103199, 0.061922, -0.001388, 0.095752, 0.0718, 0.022255, 0.046262, 0.090703, -0.003259, -0.011647, -0.046068, -0.036786, 0.014719, 0.13079, 0.036116, 0.01618, 0.034334, -0.00947], [-0.029074, -0.017855, 0.012792, 0.080278, -0.009748, 0.011531, 0.006448, 0.012621, 0.04143, -0.016179, 0.0204, -0.022572, -0.084569, -0.015981, 0.033829, -0.04783, -0.156603, -0.109435, -0.010422, -0.065105, -0.090322, -0.092494, -0.04575, -0.010243, -0.090865, -0.001205, 0.034241, -0.030514, -0.029148, 0.007986, 0.078865, 0.042921, 0.08873, 0.093074, 0.142294, 0.063868, 0.094198, 0.172165, 0.187941, 0.073768, 0.103152, 0.062231, -0.141733, -0.024634, -0.026904, -0.079187, 0.001912, 0.022182, 0.021204, -0.045947, -0.004752, -0.027691, -0.067861, -0.015256, 0.020872, -0.004401, -0.056874, 0.031361, 0.036376, 0.073584, 0.107998, 0.000646, 0.071839, 0.095258, 0.103641, 0.134081, 0.17231, 0.088699, 0.075229, -0.071765, -0.065577, -0.155565, -0.168116, -0.271702, -0.199812, -0.221779, -0.196649, -0.131247, -0.11535, -0.022769, -0.097477, -0.07899, -0.031035, -0.012962, -0.033055, 0.089324, 0.03635, 0.138153, 0.026588, 0.107671, 0.127487, 0.049471, 0.125962, 0.133365, 0.145463, 0.121734, 0.065991, 0.050666, 0.088835, -0.065258, -0.14089, -0.173567, -0.229424, -0.287793, -0.281837, -0.200877, -0.183868, -0.154069, -0.126645, -0.092939, -0.124369, -0.004545, -0.027392, 0.068829, 0.080916, 0.128929, 0.070935, 0.061509, 0.072272, 0.045302, 0.128414, 0.115754, 0.04263, 0.04421, 0.024809, -0.022461, -0.039125, -0.05756, -0.105554, -0.166557, -0.219776, -0.229845, -0.267048, -0.239909, -0.189146, -0.228463, -0.19215, -0.162659, 0.017095, 0.075287, 0.004728, 0.020864, 0.04428, 0.031293, 0.01515, 0.022297, 0.070074, 0.053613, 0.150312, 0.041146, 0.029868, -0.031619, 0.045254, 0.014987, -0.029812, -0.105949, -0.144421, -0.171529, -0.181436, -0.209361, -0.178944, -0.292399, -0.244064, -0.23269, -0.230154, -0.129191, -0.075937, -0.065976, 0.015573, 0.026624, 0.107489, 0.153416, 0.01702, 0.027455, 0.048503, -0.027424, -0.016476, -0.00765, -0.051736, -0.004963, 0.08275, 0.041134, 0.046416, -0.026414, -0.078743, -0.071444, -0.096939, -0.077283, -0.13327, -0.192948, -0.198147, -0.28301, -0.321088, -0.186186, -0.093617, 0.019822, 0.041804, 0.029409, 0.163266, 0.163842, 0.030785, -0.057937, -0.022267, -0.036102, -0.058836, -0.030292, -0.047546, 0.012944, 0.035862, 0.07164, 0.018603, 0.089664, 0.077486, 0.085406, 0.05087, 0.06097, -0.020054, -0.02878, -0.118785, -0.157879, -0.258274, -0.305454, -0.16189, -0.030209, -0.009893, 0.018162, 0.021598, 0.004621, -0.038555, -0.080748, -0.072153, -0.067938, -0.063247, -0.009477, 0.000914, 0.038133, 0.03006, 0.088786, 0.114223, 0.11499, 0.11095, 0.126179, 0.104125, 0.068962, 0.049502, 0.059769, -0.012015, -0.129975, -0.233755, -0.272029, -0.173524, -0.052138, 0.04995, 0.091989, 0.030838, 0.009854, -0.001395, -0.050168, -0.08673, -0.126292, -0.069841, 0.004524, 0.056307, 0.06541, 0.097598, 0.039385, 0.134796, 0.028431, 0.024379, 0.041001, 0.109849, 0.080491, 0.075127, 0.089162, 0.000527, -0.04329, -0.197867, -0.290686, -0.101142, -0.077674, 0.118795, 0.021321, -0.023048, 0.017247, -0.022058, -0.028148, -0.087809, -0.026617, -0.028902, 0.003828, 0.06, 0.042494, 0.049602, 0.027601, 0.016443, -0.062026, -0.044165, -0.04004, 0.035795, -0.004863, 0.086826, 0.117197, 0.052354, 0.020667, -0.149074, -0.29214, -0.1794, -0.025724, 0.11365, -0.034127, -0.055083, 0.029607, -0.037017, -0.067298, -0.066869, 0.002706, 0.018651, 0.021247, 0.026367, 0.030048, -0.085068, -0.072108, -0.082696, -0.097939, -0.082696, -0.005561, 0.025232, 0.035101, 0.06217, 0.108921, 0.144567, 0.050015, -0.102426, -0.212243, -0.144406, -0.100551, 0.055117, -0.02549, 0.000409, -0.015477, -0.036178, -0.031092, -0.064057, -0.084124, -0.035804, -0.074177, -0.055972, -0.047042, -0.198756, -0.266051, -0.207545, -0.09531, -0.025996, 0.082313, 0.058784, 0.077134, 0.09828, 0.114469, 0.156745, 0.082796, -0.060722, -0.169586, -0.175899, -0.122446, -0.097005, -0.079629, -0.033435, -0.043758, -0.042136, -0.044557, -0.074121, -0.115236, -0.139907, -0.058024, -0.043704, -0.125523, -0.231884, -0.261111, -0.12815, 0.011127, 0.092517, 0.045178, 0.064301, 0.073815, 0.094328, 0.151682, 0.157752, 0.081784, -0.019122, -0.196335, -0.24447, -0.174764, -0.025894, -0.111272, -0.002797, -0.10784, -0.053398, -0.082914, -0.073888, -0.101014, -0.104754, -0.057134, -0.030914, -0.098525, -0.158675, -0.170907, -0.032548, 0.048662, 0.022762, 0.060376, 0.062475, 0.075945, 0.10111, 0.156194, 0.148717, 0.098865, 0.027274, -0.23463, -0.195204, -0.066161, -0.043215, -0.079012, -0.131604, -0.091534, -0.052456, -0.048618, -0.02315, -0.090225, -0.118924, -0.077379, 0.059896, -0.052886, -0.123116, -0.013614, 0.058781, 0.089562, -0.009148, 0.045248, 0.06697, 0.051285, 0.15104, 0.155875, 0.161762, 0.102994, -0.021124, -0.180642, -0.155626, -0.005592, 0.016846, -0.070655, -0.058193, -0.108266, 0.01063, 0.000556, -0.022317, -0.034202, -0.0891, -0.044415, -0.004684, 0.013736, -0.042892, -0.03824, -0.004479, 0.00988, 0.021264, -0.034511, -0.045737, -0.018931, 0.102545, 0.093772, 0.05659, 0.051201, 0.01526, -0.171138, -0.186608, -0.05479, -0.031914, -0.047868, -0.075324, -0.026, 0.038334, 0.016595, 0.001874, -0.005229, -0.02796, -0.046965, -0.03074, 0.05463, 0.011126, 0.063204, -0.009753, -0.042016, -0.101116, -0.040708, 0.0163, 0.044837, 0.019255, 0.07174, 0.08405, 0.024764, 0.062715, 0.036918, -0.052039, -0.01907, 0.009696, -0.020163, 0.018198, -0.005991, -0.016561, -0.007053, -0.010642, -0.040756, -0.021621, -0.061635, 0.038113, 0.01771, 0.030283, 0.039753, 0.001778, -0.03851, -0.101253, -0.039996, 0.027529, 0.078217, 0.056134, 0.043049, 0.062492, -0.006498, -0.070568, -0.120832, -0.043396, -0.026286, -0.132306, 0.005042, -0.031056, -0.05378, -0.01706, -0.015521, -0.01454, -0.052231, 0.000488, -0.015089, 0.021544, 0.027766, 0.008204, 0.000237, -0.044851, -0.04737, -0.03192, 0.041383, 0.076307, 0.079955, 0.058382, 0.001836, 0.063911, -0.015866, -0.097124, -0.136494, -0.044074, -0.035359, -0.064918, -0.006694, -0.0739, -0.117258, -0.056745, -0.043794, -0.08077, -0.020776, -0.015063, -0.043683, -0.009789, 0.006678, 0.030075, 0.008342, 0.026373, -0.01133, 0.046681, 0.085043, 0.01737, 0.044648, -0.00275, -0.020889, -0.067632, -0.127064, -0.071543, -0.116783, -0.026851, 0.015812, -0.076377, -0.036041, -0.076202, -0.181331, -0.103513, -0.124661, -0.052736, -0.055289, -0.007427, -0.047294, -0.022775, 0.064155, 0.067068, 0.019662, -0.004933, 0.048428, 0.10963, 0.061774, 0.036017, 0.035748, -0.08375, -0.139245, -0.18041, -0.158007, -0.138178, -0.155689, -0.040195, -0.010084, -0.008572, 0.039146, -0.027678, -0.144507, -0.109384, -0.084026, -0.066498, -0.057894, -0.12913, -0.032275, 0.008424, 0.029314, 0.01761, 0.021498, 0.053617, 0.083108, 0.100325, 0.033872, -0.011825, -0.051213, -0.088142, -0.134516, -0.136216, -0.139979, -0.151785, -0.086935, -0.172865, 0.001157, -0.034235, 0.006456, -0.010791, -0.011702, -0.013168, -0.090361, -0.048311, 0.007022, -0.066096, -0.058842, -0.065687, -0.068052, -0.007732, 0.004948, 0.075686, 0.092697, 0.032822, 0.028226, -0.023794, -0.024038, -0.119216, -0.0994, -0.061821, -0.075926, -0.057216, -0.132534, -0.191332, -0.04529, 0.004817, 0.008443, 0.014255, 0.008681, 0.009509, 0.052008, -0.030258, -0.013379, -0.008394, -0.034739, -0.0291, -0.005922, 0.049249, 0.080844, 0.020879, 0.007472, -0.007969, 0.017255, -0.077113, -0.034296, -0.074897, -0.099891, -0.091399, -0.143275, -0.099577, -0.152729, -0.109156, -0.028688, 0.020176, 0.081699, -0.005813, -0.014688, -0.026824, 0.053568, -0.029195, -0.003987, 0.001625, -0.093105, -0.057198, 0.029958, 0.012433, -0.013207, 0.022716, -0.061433, -0.00208, -0.003162, -0.004949, -0.002138, -0.037402, -0.039341, -0.077829, -0.132344, -0.071834, -0.115804, -0.117484, -0.040838, -0.036046, 0.07135, 0.078327, 0.000673, -0.109556, -0.010381, -0.034498, 0.043358, -0.005718, -0.057817, -0.028685, -0.00474, 0.000178, 0.051012, 0.022775, 0.001862, -0.026149, 0.068706, 0.061085, 0.059574, 0.014592, -0.005132, 0.011794, -0.017192, -0.02617, -0.027081, -0.059211, -0.035683, -0.012864, 0.03439, 0.069783, -0.041512, -0.020485, 0.016933, 0.10826, 0.035007, 0.046106, -0.002412, 0.083718, -0.002053, -0.022904, 0.022699, 0.02136, -0.027906, -0.03101, 0.077883, 0.031671, 0.087775, -0.053457, 0.043844, 0.06994, 0.097873, -0.027415, -0.042366, 0.02853, -0.006298], [0.004136, 0.016967, -0.027089, 0.024305, -0.037492, 0.003276, 0.00268, 0.048247, 0.053839, 0.055055, 0.056301, 0.013663, 0.055107, 0.047787, 0.054508, 0.009475, -0.029468, 0.035443, 0.055554, 0.021422, 0.056905, 0.060311, -0.039415, -0.015156, -0.001176, -0.007575, 0.019401, -0.023611, 0.032709, -0.008213, -0.03552, 0.033698, 0.045762, 0.113202, 0.089025, 0.094829, 0.09371, 0.073698, 0.104447, 0.038244, -0.005272, 0.073107, -0.137397, -0.06739, 0.128575, 0.108743, 0.11214, 0.047393, 0.121061, 0.050949, 0.077694, -0.004229, 0.007176, -0.032729, 0.084121, 0.054513, 0.011281, 0.047617, 0.006092, 0.003868, 0.027831, -0.007991, 0.059922, 0.042898, 0.078684, 0.08784, 0.048395, 0.055801, 0.018553, -0.062679, -0.009355, 0.018279, 0.011815, 0.113586, 0.098659, 0.078773, 0.110553, 0.078872, 0.053679, 0.115001, 0.04018, 0.084748, 0.024072, -0.000109, -0.021723, -0.04395, -0.068958, -0.029442, -0.02152, -0.017514, 0.005441, -0.009391, -0.036405, 0.003019, -0.033089, 0.015214, 0.025959, 0.054155, 0.069778, 0.029296, 0.021481, 0.096587, 0.099915, 0.105051, 0.05728, 0.117605, 0.116636, 0.078832, 0.091119, 0.039605, 0.01647, 0.065202, -0.031881, -0.053279, -0.046657, -0.120817, -0.063719, -0.052006, 0.046034, -0.001912, 0.047234, -0.000535, 0.018037, 0.028212, 0.043203, 0.046573, 0.059364, 0.069203, 0.08744, 0.061202, 0.149194, 0.065943, 0.064687, -0.033719, -0.095708, -0.11236, 0.005785, 0.023441, 0.009369, 0.04763, -0.047406, -0.03439, -0.035867, -0.061044, -0.045459, -0.139545, -0.070983, 0.050028, 0.043723, 0.07853, 0.052751, -0.021981, 0.026089, 0.022188, 0.036409, 0.061794, 0.05252, 0.030062, 0.057215, 0.029013, 0.028948, 0.003496, -0.10139, -0.137438, -0.118028, 0.028139, -0.006806, 0.030037, -0.050638, -0.038475, -0.086616, -0.05053, -0.071952, -0.112902, -0.027549, 0.020157, 0.044656, -0.0248, -0.060485, -0.013198, -0.053829, -0.020228, -0.012428, 0.011145, 0.03117, -0.060508, -0.100466, -0.131793, -0.114186, -0.155888, -0.221555, -0.249244, -0.15942, -0.098917, -0.094038, -0.0295, -0.056056, -0.046822, -0.074747, -0.12392, 0.027513, 0.003101, 0.053833, 0.041511, 0.038796, -0.03828, -0.005704, -0.018131, -0.025355, -0.011034, -0.01129, -0.016768, -0.080848, -0.172612, -0.183788, -0.157039, -0.177363, -0.207852, -0.257225, -0.407683, -0.249487, -0.17801, -0.282399, -0.050501, -0.142884, -0.076946, -0.02218, -0.015169, 0.05235, 0.113, 0.148393, 0.041218, 0.064008, 0.064537, 0.090683, 0.093094, 0.051801, 0.02537, -0.042694, -0.053217, -0.154083, -0.179955, -0.218507, -0.170275, -0.196489, -0.219578, -0.223538, -0.235903, -0.227191, -0.221093, -0.227486, -0.10155, -0.171908, -0.069379, 0.035139, 0.113106, 0.067949, 0.110683, 0.139999, 0.151571, 0.138004, 0.111631, 0.121194, 0.084103, 0.087675, -0.0313, -0.141526, -0.222454, -0.164334, -0.102129, -0.102784, -0.120216, -0.086782, -0.085234, -0.14529, -0.120763, -0.198038, -0.257689, -0.066783, -0.029225, -0.109725, -0.044203, 0.002556, 0.057121, 0.06999, 0.155327, 0.083664, 0.103184, 0.098538, 0.078611, 0.039426, -0.028868, -0.141255, -0.244863, -0.303895, -0.240542, -0.139743, -0.096841, -0.000144, -0.067265, -0.052333, -0.020284, -0.029035, -0.037236, -0.002934, -0.078441, -0.006696, -0.013202, -0.022867, -0.015619, -0.036787, 0.054078, 0.048755, 0.06343, -0.043126, -0.047968, -0.115642, -0.183196, -0.302621, -0.306754, -0.39155, -0.373176, -0.237314, -0.16983, -0.061123, -0.001542, -0.000204, -0.001901, -0.004323, 0.012743, 0.031338, 0.074383, 0.064792, 0.063253, -0.0134, 0.02272, -0.037914, -0.085595, -0.059364, -0.125443, -0.110573, -0.149267, -0.268786, -0.332023, -0.337468, -0.341029, -0.37835, -0.343786, -0.281, -0.166376, 0.028895, 0.015422, 0.090412, 0.110433, 0.056357, 0.031925, 0.110323, 0.12642, 0.10108, 0.063686, 0.159003, 0.099801, 0.124699, 0.073188, -0.027797, -0.078659, -0.159778, -0.132121, -0.314289, -0.331972, -0.350124, -0.327414, -0.299063, -0.220814, -0.16337, -0.053343, 0.04022, 0.176868, 0.178378, 0.131078, 0.135118, 0.082337, 0.081236, 0.048844, 0.086385, 0.126644, 0.087026, 0.148724, 0.212297, 0.156482, 0.209476, 0.082205, -0.000575, -0.15737, -0.199413, -0.214952, -0.332994, -0.275386, -0.205922, -0.14159, -0.086631, 0.034356, 0.079096, 0.12719, 0.172952, 0.214098, 0.1694, 0.119015, 0.121533, 0.066004, 0.01737, 3.7e-05, 0.015315, 0.019795, 0.040347, 0.059502, 0.075909, 0.117102, 0.16651, 0.032722, -0.066787, -0.11976, -0.159452, -0.119135, -0.214169, -0.093875, -0.001751, 0.005143, 0.052314, 0.067571, 0.117176, 0.120003, 0.120913, 0.096271, 0.127294, 0.093113, 0.070824, -0.017461, 0.022311, 0.00661, -0.032493, 0.001775, -0.008643, 0.000199, 0.100648, 0.06854, 0.014801, -0.012601, 0.012001, -0.045394, -0.067668, -0.003379, -0.004876, 0.004818, 0.069828, 0.016013, 0.058619, 0.040055, 0.088961, 0.053957, 0.0391, 0.06478, 0.040741, 0.086169, 0.069429, 0.038591, 0.005159, -0.046934, -0.055767, -0.0224, 0.079205, 0.11455, 0.068779, 0.125302, 0.066851, 0.083678, 0.045848, -0.002019, -0.006326, -0.014731, 0.049099, 0.01973, 0.043341, 0.061807, 0.055396, 0.045188, 0.052459, 0.042008, 0.04608, 0.003995, 0.02177, 0.021561, -0.007975, -0.01227, -0.026454, -0.02338, -0.019218, 0.062527, 0.033646, 0.045552, 0.020983, 0.118818, 0.031234, 0.121824, 0.037149, -0.03309, 0.056237, 0.104751, 0.068587, 0.040865, 0.0836, 0.077565, 0.063722, 0.031187, 0.026379, 0.022192, 0.032893, -0.034188, -0.035793, -0.072128, 0.001106, -0.024778, -0.00798, -0.009299, -0.016969, 0.018331, 0.066499, 0.054138, 0.036968, 0.127177, -0.023128, 0.085517, 0.035366, 0.00524, 0.064669, 0.076527, 0.057072, 0.060424, 0.016942, 0.056087, 0.041422, 0.046595, 0.016992, 0.056244, 0.021613, 0.029614, -0.025554, -0.030411, -0.015262, 0.020559, 0.011295, -0.00273, 0.017423, 0.015667, 0.02994, -0.00911, 0.013505, 0.046695, 0.068504, -0.003881, 0.013328, -0.03912, 0.004371, 0.016401, -0.004449, 0.046483, -0.008665, 0.038928, -0.016132, 0.024763, 0.025169, 0.045429, 0.023957, 0.018863, 0.009054, 0.039698, 0.022744, 0.058761, 0.086522, 0.052706, 0.004376, -0.020201, -0.005704, 0.016184, 0.012493, -0.003691, 0.049146, -0.05443, 0.040032, -0.004509, -0.041518, -0.106305, -0.072666, -0.08963, -0.038975, -0.023786, 0.008234, 0.054173, 0.096879, 0.063194, 0.052725, 0.075352, 0.05705, 0.048487, 0.034972, 0.079215, 0.083975, 0.020697, 0.008459, 0.013277, 0.007756, -0.002658, -0.065162, 0.004341, 0.027872, 0.044515, 0.054165, -0.056626, -0.064733, -0.08335, -0.119821, -0.107962, -0.10369, -0.070631, 0.021852, 0.053904, 0.0275, 0.01268, 0.055201, 0.045197, 0.016202, 0.040884, 0.06432, 0.036442, 0.024336, 0.019992, 0.01191, 0.022426, -0.057991, -0.063912, -0.084416, -0.036625, -0.058132, 0.104499, 0.085956, -0.004604, -0.038323, -0.112661, -0.071578, -0.072419, -0.097117, -0.04865, -0.066279, -0.033188, -0.061187, -0.018921, -0.009945, 0.016411, 0.016932, 0.050496, 0.077772, -0.042406, 0.018424, 0.035187, -0.012256, 0.025539, -0.033198, -0.077776, -0.126278, -0.066974, -0.049758, 0.153054, 0.059546, -0.010631, -0.171247, -0.139329, -0.142159, -0.181333, -0.0867, -0.115338, -0.039374, -0.087992, -0.080643, -0.048712, 0.030437, 0.00221, -0.028565, -0.008735, -0.016504, -0.017007, -0.015984, -0.033678, -0.004039, -0.01858, -0.003371, -0.059179, 0.013303, -0.007285, 0.023608, 0.040293, 0.058182, -0.000454, -0.076386, -0.055153, -0.055849, -0.147464, -0.054893, -0.110505, -0.100594, -0.069694, 0.031414, 0.056176, 0.084943, 0.075536, 0.068281, 0.128585, 0.027731, -0.019147, -0.07111, -0.057135, -0.103103, -0.110307, -0.085135, 0.027793, 0.08672, -0.025994, 0.005155, 0.038909, 0.038349, -0.025052, 0.053859, 0.05239, 0.004488, -0.051126, -0.020162, -0.01965, -0.025991, 0.017877, -0.005778, -0.027612, -0.000355, -0.009075, -0.111096, -0.135836, -0.206449, -0.157946, -0.144149, -0.189471, -0.255916, -0.291919, -0.206693, -0.12137, -0.108923, 0.0254, 0.045273, 0.056872, -0.022348, -0.040008, -0.004128, -0.041432, -0.012905, 0.088801, 0.125416, 0.033353, 0.006764, 0.021128, -0.019542, -0.010176, 0.059613, -0.088349, -0.075244, -0.146977, -0.16055, -0.079648, -0.073259, -0.098755, -0.158868, -0.204101, -0.131636, -0.009585, -0.001862, 0.043028, 0.06082, -0.031711], [-0.025617, 0.003689, 0.032433, 0.067698, 0.010255, -0.055353, -0.090062, -0.082648, -0.125349, -0.061373, -0.08655, -0.065842, -0.073607, -0.114254, -0.033397, -0.065083, -0.090577, -0.063174, -0.077067, -0.021532, -0.014859, -0.089116, -0.086697, 0.006621, 0.034949, 0.012901, -0.025294, -0.02893, 0.032344, -0.002525, 0.059736, 0.023105, -0.029536, -0.038097, -0.150481, -0.164806, -0.201261, -0.147754, -0.175995, -0.1482, -0.236884, -0.189027, -0.167925, -0.199243, -0.112191, -0.123231, -0.142293, -0.130356, -0.079671, -0.013202, -0.064656, -0.047301, -0.009856, 0.030878, -0.007239, -0.014393, -0.003198, -0.003379, 0.003764, 0.021106, -0.050178, -0.077059, -0.159398, -0.204132, -0.239159, -0.196073, -0.321028, -0.315276, -0.301158, -0.281035, -0.281611, -0.319602, -0.209964, -0.183887, -0.169167, -0.285236, -0.190601, -0.122579, -0.106692, -0.154282, -0.001717, -0.004572, -0.033807, 0.046768, -0.025036, 0.032015, -0.018805, -0.029807, -0.11567, -0.112454, -0.182147, -0.302476, -0.322749, -0.362055, -0.419656, -0.438851, -0.500082, -0.413945, -0.413729, -0.350633, -0.415246, -0.301047, -0.258947, -0.21208, -0.131456, -0.076654, -0.025421, -0.076658, -0.049498, 0.129179, -0.012387, -0.037459, -0.026245, 0.004595, 0.02756, -0.003895, -0.01932, -0.112159, -0.19899, -0.2625, -0.366729, -0.295725, -0.311424, -0.338926, -0.316087, -0.302882, -0.25711, -0.220253, -0.227949, -0.100449, -0.037784, 0.004697, -0.02051, -0.034257, -0.017848, 0.006823, 0.131724, 0.046305, 0.043637, 0.032242, 0.063187, -0.00249, 0.022347, 0.003981, -0.029439, -0.064226, -0.096725, -0.295731, -0.1765, -0.108791, -0.132121, -0.038718, -0.040609, -0.056249, -0.05645, 